{"agent": "GeneticAlgorithm", "version": 1.0, "generation": 17966, "hyperparameters": {"pop_size": 50, "elite_count": 5, "mutation_rate": 0.15, "mutation_strength": 0.2, "tournament_size": 5, "layer_sizes": [9, 15, 10, 4]}, "population_weights": [[-3.920381263911488, -1.559292148054333, 15.16778906020071, 1.856946341695789, 16.45200674389416, -2.8726472009879016, -0.757672058545994, -4.738740253805998, -4.0761170050342965, -6.159897284760632, 6.180580504359718, 4.621573349304826, 18.368468053914413, -2.115499125631767, -1.426494042381439, 10.36901271066595, -3.434147712373582, 3.471925447026247, -11.480263613493172, -1.712559024072125, 5.289137634773898, -4.7478441059284515, 9.54159544045401, 1.3062027582856088, -7.373135924016903, -0.33743173353098754, 1.2824134541917132, -12.736848001302933, -2.4537588675956177, 12.170421518072839, -0.556396921196405, -0.20184828757634965, -3.051631680139362, -0.6575531750417795, 8.370364423607818, -0.15659854916608962, 3.6137948081322313, 2.141354799592749, -15.01743912646097, 8.918703659729344, -2.8162130184296794, 14.840647845346918, -2.9602558858846817, -15.767310804727487, -4.0975199107025055, -20.75638583169862, 4.546979484859333, 0.030216587987506288, -5.242045660808942, 11.668723269334226, 12.826852612437596, -5.919437921648741, -3.631185860574225, -7.056834102438214, -7.504890238735523, -10.30141732201358, -9.061686564678856, -6.78522928043329, 0.029231124337972404, 4.565826525025697, -11.907084761222093, -21.462931598759244, 1.4965298068964963, -11.493722685010452, 1.187893082351889, -7.2715869207863655, 19.50050951328638, -7.2386234813069805, 2.34229764226932, -2.1765695274040024, -6.870786314939705, -20.21823532187975, 0.15350153319072338, 7.609950833701858, 6.695491653019169, -9.989687270607499, 2.4714894760982764, -5.342715325620125, -8.700503166232384, 4.867764203241839, 2.281824015140266, 11.846894171718983, 8.930658211961475, -6.355353557106158, -6.559287137980183, 9.319629686063955, 3.2408486681750874, 5.7356389558167935, 25.89768751275506, -10.437228244837836, -30.05097450528667, -3.870009515657453, 12.078959699705125, 4.634817583346889, -1.2716845426627714, -0.7721736932775519, 6.278766047456267, -4.316518345502896, 7.807319922226141, 0.4699810922709312, 8.582975828404996, 11.549321654267603, 1.6081881033877956, -12.629219058636398, 3.072816052168922, -10.479681596902324, 0.2984040453116689, -10.494361055204227, -12.646496881234027, -0.8072310396888792, 6.96642944325782, -7.0247447457645, -11.12097360297585, 3.9454771000965745, 1.1573788051756362, -1.1454870513870028, 1.813764944634634, 0.2684249033503472, 5.662655475675103, 7.41033792294379, 0.471889966825422, 0.3536699425685408, -10.73727229747472, -17.05851754230149, 1.7268657577123423, 4.827210741197462, 6.686861725144743, 11.634922289126253, -9.73631909697052, 0.6905764375439073, 5.368242958811857, -0.915552986380249, 4.391872113073854, 6.7642660219149375, -3.165012026325496, 3.3986969188040006, 2.9157197578091414, -18.37690024199358, -17.496238516649612, 2.1224048063846515, -1.7108518652396687, -10.30757126053217, 0.15137846574356179, 4.019737136015561, 6.3206447260601895, 5.891335926570736, -3.1614601153462623, 5.697143208059803, 13.559175458603773, -14.975016504443131, 2.0729819472268414, -12.241867508899407, -11.997579511029251, 0.6688086906963141, 1.882811366679551, 4.851021403592888, -7.162490279733573, 5.210667699541842, -4.605923824310677, -7.642865793319402, 0.4293624260365734, 11.37670445055503, 1.635556555685507, -2.7487662858418394, 4.353474255296059, -12.795405265686297, 10.091791325009426, -2.8710828934412396, -4.266088640029381, 12.855082955435993, -2.6622203201692574, 17.399495214416923, -4.313431971345832, -1.2635211028657665, -1.8382503709285334, -9.917933720050605, -18.113158957932466, 14.09770236134114, -12.265525708565402, -3.5338506735022017, 3.488671761796129, -2.104557000035932, -8.83564314631691, -0.8122542106676905, 4.392742475102817, 4.942978827031105, 10.23602924038826, -18.53372778898036, -3.2514413585543793, 22.974425095523184, -0.25659679154988246, -9.262514160615442, 3.8166627520843397, 16.41278711412422, -4.590031134621747, -0.02420163845901399, 13.069490144622849, -7.008617639728922, 12.742935485218215, -6.1163137665975675, 1.5796444000338346, -5.666415035694135, -1.7634801732841623, -12.370334941361246, 4.961206535014711, -0.7903318054388724, 8.3109208625638, 1.1623918789926664, 10.94974023656048, 3.0222952284872426, -4.100381525779602, 6.37429677380622, 15.643659031515599, -2.1594548313484996, -10.717843109768241, 10.680492191674414, 0.6095327909392432, -3.2430632786081723, -2.5193250209790508, 7.678562396970815, -11.643456213602377, 18.333977348265265, -7.4551956333417175, -0.3043054839620656, -2.8107408093450803, 11.602021283093546, 7.405604232396274, 1.3107325688070735, -4.1512162484895265, -3.3137600577634894, 1.1867531790437613, 12.602116442407555, 20.426347837859144, 0.13738384514945, 8.186463431503327, -1.645579029712565, -9.342768382026346, 0.764810673803205, 8.28457375684696, 4.2886885183853, 9.583603717619342, -13.177669568413647, 3.537431087619299, 4.656748085734495, 11.744357935943114, -1.7850178801370427, 1.1850858258868784, -5.905327300714716, -0.2171699217014501, -7.376338111108535, 1.9652059426648678, -6.12810247557949, 25.075582644188252, -1.6475983237961993, 2.846710103957229, 3.3278447492236056, 4.974716507700981, -5.024990396391164, 12.415558035882643, -1.1383637942462048, 1.9994069704237099, -10.159822057150906, -9.811908143534911, -3.6423969999076755, 9.17932730383637, 6.352229627966238, -5.156358658692728, -10.255804515015921, 12.73748499037035, -3.656176464835121, -11.149394518216083, 7.952001720521766, 2.632728604759769, 7.282027996104708, -18.843392452220684, 3.1941053580405394, 5.541398944473986, -7.466056264559611, -11.283670433017448, 8.167980103913083, 9.048471216652608, 14.344934063739373, -6.246687958897423, -0.9651405118599483, 14.669142297951288, 22.28464816446599, -2.586449667682193, -2.505328483182012, -8.292693924348765, -0.028976674736869823, 0.5518873545547167, 12.431965591153492, 6.456892925950419, -7.405857282852366, -9.77498342325539, 3.979411281719538, 9.441014670895672, 9.260717653276698, 0.3408952467013378, -11.622604024687853, -16.599345750304323, 14.264721101863122, -7.05544694289958, -4.741800280709584, -11.344073247780248, -6.642238502743463, -3.7508207960621225, 10.657104821652785, -5.892189877219416, 1.629720771762591, -11.726807699716495, 5.022059568768251, 11.861999736408707, 14.08478191650143, 8.153817419123328, -3.865123032902664, 17.0664355992744, 1.4520398334107718, 2.6212731808203804, -0.2783784041631334, 1.345230371218926, 0.6812971693672675, -2.686161616593125, -6.23838371272533, 17.939430776859396, -5.712514660350986, -4.780584206804004, 12.338323581949778, 8.474548341804997, -11.302967220103179, 17.239697241759085, 15.902727909743309, -3.6148787166453142, -16.330892101568136, -4.857460829425865, 1.697402462192891, -6.352118058421108, -14.490508686725523, -10.533676327724692, 9.692172128242458, -5.149660185818104, 7.491055894024647, -1.779956094896516, -7.215122263708691, 8.236268212379859, -10.850996179738761, 6.2213621557375935, 0.1787471335009929, -9.492637729191305, -4.343245314994996, -5.659223512136931, 3.8606969276869916, 14.720808103409189, 2.5542321705234907], [-4.046804957482953, -1.4248098513538603, 15.248818998398448, 1.856946341695789, 16.279554640073133, -3.0672589648782647, -0.7724445732807386, -4.487970025394171, -4.307324874170701, -6.133048740347328, 5.315696707567096, 4.621573349304826, 18.368468053914413, -2.115499125631767, -0.9557737101849748, 10.543992193004886, -3.434147712373582, 2.628783236562322, -11.480263613493172, -1.712559024072125, 5.289137634773898, -4.887173296176922, 9.118332796837425, 2.8283220545552377, -7.373135924016903, -0.33743173353098754, 1.2824134541917132, -12.712762896535077, -2.7732644408071225, 12.314434995601854, 0.3547413476482706, 0.01719620740140404, -3.0634546429686735, -0.43539376163095944, 8.407080177201362, -0.3119631458873619, 3.6494419303227956, 2.141354799592749, -15.425378056299996, 8.918703659729344, -2.8162130184296794, 14.945581643381198, -3.433300543132182, -16.75250463996713, -4.148063290541648, -20.815910046143646, 4.546979484859333, 0.017931656980097133, -4.857542938613239, 11.668723269334226, 12.826852612437596, -5.496456787502381, -3.579540584471471, -6.681470783534984, -7.1514536078252355, -9.565297301655205, -8.828481790945276, -7.050558060354623, 0.029628371021714388, 4.2925617739714985, -11.907084761222093, -21.462931598759244, 1.2412032350762825, -11.709562894025563, 1.3650761476322901, -6.7730736765921975, 19.50050951328638, -7.2386234813069805, 2.5220385032304433, -2.2451793746269093, -6.870786314939705, -20.610665825934525, 0.1506489980468393, 7.332785818480761, 6.695491653019169, -9.989687270607499, 2.4714894760982764, -5.795906932798896, -8.700503166232384, 4.867764203241839, 2.20943863726918, 11.846894171718983, 8.930658211961475, -6.292636513004238, -6.3326700425044535, 9.319629686063955, 3.2408486681750874, 5.850506190309074, 25.64547333161664, -10.642662926984949, -30.287677422568454, -4.357079459117521, 12.078959699705125, 5.205183554189879, -1.326981183644468, -0.8986107022872636, 6.280695073145214, -4.89115851659248, 8.422436342913892, 0.4699810922709312, 8.582975828404996, 11.692804482546968, 0.9748793907900749, -12.629219058636398, 3.239578472045891, -10.049569088019123, 0.3136935166591825, -10.384604338795048, -12.123785857034893, -0.8005182204267441, 7.245117660419886, -7.0247447457645, -11.12097360297585, 3.965690770194069, 1.1573788051756362, -0.7215911820606083, 1.813764944634634, -0.12793560924111358, 5.9621419990945235, 7.41033792294379, 0.37146999269738196, 0.3536699425685408, -10.126015450695107, -17.006121149236563, 1.3868073248724933, 4.857446103853589, 6.2009814976503534, 11.634922289126253, -10.275655896182757, 0.6905764375439073, 4.66529950244604, -0.6048893326831694, 5.1533504974044755, 6.310091656909115, -3.165012026325496, 3.447073885093414, 2.75841942516176, -18.393898261697565, -17.496238516649612, 1.7889605742957684, -1.7108518652396687, -10.3314994242917, -0.08069637741267566, 4.043071068616855, 6.2063144172449975, 6.500660291773092, -2.9789500579705415, 5.697143208059803, 12.958167145714512, -15.892910429092451, 1.2203992081289836, -12.66471774423448, -12.185109660567468, 0.47415094918686074, 1.882811366679551, 5.158271223459751, -7.162490279733573, 5.091579891079239, -4.707146106008957, -7.4582794741667895, 0.15527801805946428, 11.498136494792755, 1.8320456126343065, -3.5427875273694824, 4.982416445959358, -13.37287916851653, 10.091791325009426, -2.8710828934412396, -4.228650865239642, 12.819698357745036, -2.691129678401698, 17.547228189263983, -5.527682258857466, -1.2081152294051731, -2.1424307099542594, -10.018320292221338, -18.113158957932466, 14.09770236134114, -12.176065791719266, -3.85629120170181, 3.7383876070531503, -2.104557000035932, -8.702761270593276, -0.8122542106676905, 4.47302414652486, 4.787373931925702, 10.23602924038826, -18.631845489977387, -3.2991425082353225, 22.974425095523184, 0.8309795278742094, -9.39533110308828, 2.9603496469357595, 16.41278711412422, -4.5329775220631845, -0.6140744846225797, 13.069490144622849, -7.105797963806532, 12.817239127547388, -6.349547241475343, 1.579154958864563, -5.3298067832367835, -1.7480512247555315, -12.370334941361246, 6.037860847723691, -0.7903318054388724, 8.3109208625638, 1.1215803056115805, 10.983687165056109, 3.0222952284872426, -3.7717575922319977, 6.316052291747177, 15.53569557636555, -2.3363487545592267, -10.769799599229623, 10.892133742204159, 0.6095327909392432, -3.0622706364850076, -2.5193250209790508, 5.797190308551329, -12.039446169423456, 18.416725883395063, -7.233578909056941, -0.30900388800196543, -3.0813953148699196, 11.56643901578155, 7.7150223864139065, 1.3107325688070735, -4.1512162484895265, -2.8791941285604135, 1.0180144789362906, 12.440316565428024, 20.29787108868569, -0.17372181254739735, 8.430152491385611, -1.5897432855852092, -9.135627544522158, 0.3251084770750409, 8.737496959749079, 4.073086411846566, 9.583603717619342, -13.177669568413647, 3.537431087619299, 4.656748085734495, 11.99747969997445, -2.022821759097739, 1.1850858258868784, -5.905327300714716, -0.2171699217014501, -7.376338111108535, 1.998162548206191, -6.099824201418208, 25.246395559113754, -1.6475983237961993, 2.8551069878475612, 2.9870195109709115, 4.974716507700981, -5.1575685753112985, 12.102295838081965, -1.2522382716962133, 2.0610966792784264, -10.138146470328287, -9.937444759658101, -4.444120984932207, 9.608728257775141, 6.231810426127323, -5.847239765140137, -10.6910600195774, 12.60261781465959, -3.992039245638235, -11.15607619966707, 7.617823638461925, 2.632728604759769, 7.548118192094114, -18.843392452220684, 5.194165942758829, 5.541398944473986, -7.58739998271796, -11.899073036107, 8.323517435355889, 8.920960311209233, 14.37479860084143, -6.246687958897423, -0.9651405118599483, 14.669142297951288, 22.321730998257724, -2.6644783894605975, -3.1992251706934685, -7.362335189830159, 0.20172322560533967, 0.6834946378914595, 13.110593484941818, 5.853371741802896, -7.670884937305247, -9.35724501071846, 4.336979720728051, 9.688339780780794, 9.258382940834544, 0.36491088248841785, -11.82971195322621, -17.13936373742578, 14.170259820738076, -7.077806971805615, -4.979786267652256, -11.175387265966393, -6.642238502743463, -3.7508207960621225, 10.657104821652785, -6.114517541684511, 2.2338234898486338, -11.876578951569027, 4.6919470746476035, 11.861999736408707, 14.08478191650143, 8.14966619036767, -3.865123032902664, 17.451220365848506, 0.6134721982382433, 2.5382059568202915, -0.1728907533414072, 1.345230371218926, 1.4085004380755672, -2.686161616593125, -6.0162024558144935, 17.939430776859396, -5.682717837628752, -4.780584206804004, 12.231991734685009, 8.474548341804997, -11.450199434225485, 17.605735950364128, 15.902727909743309, -4.56444405844789, -16.100694453522035, -4.867095394030703, 1.8723053370506366, -6.412111289517799, -14.325099487715132, -10.989046726432534, 9.493161663253467, -5.149660185818104, 7.491055894024647, -1.7955146826282586, -7.783942667336795, 9.045954605665216, -10.924903458603522, 6.322085259540609, 0.1787471335009929, -9.492637729191305, -4.231513808788706, -5.906650818489911, 3.8606969276869916, 13.956794123850642, 2.8400347347207675], [-3.604394591062066, -1.1591714343438149, 15.248818998398448, 1.4709557383289327, 16.238059954908042, -2.8726472009879016, -0.7472349048131212, -4.738740253805998, -4.307324874170701, -5.904410079511469, 4.85874236374149, 4.317566112306986, 18.283104469534557, -3.4361848099625996, -1.2657874128210465, 10.162947410695354, -3.434147712373582, 2.628783236562322, -11.480263613493172, -1.1583926103371343, 5.289137634773898, -3.95434548817421, 9.118332796837425, 2.8283220545552377, -8.232992114019765, -0.23657026195199388, 1.3685697243533375, -12.736848001302933, -2.116218571786867, 12.170421518072839, 0.3547413476482706, 0.06887485643939241, -3.0634546429686735, -0.6290165485675032, 8.370364423607818, -0.3119631458873619, 3.6494419303227956, 2.1605221891293303, -15.272125471237244, 9.577711431572048, -2.9325128208033324, 15.376798172586067, -3.4688669909466157, -15.767310804727487, -4.0975199107025055, -20.75638583169862, 4.5897062725583275, -0.1101100194953904, -4.325873845021048, 11.767887223755167, 12.655107380576048, -5.900189386324443, -3.8730024199027775, -6.856562127518258, -7.186061619901236, -10.30141732201358, -9.061686564678856, -7.102369957958045, 0.08348371411562147, 4.396713172763457, -11.595670440119212, -21.280022348506098, 0.9002344880377224, -11.709562894025563, 1.6387193099239545, -7.016615181522318, 19.482756317424478, -7.263750431424771, 2.5220385032304433, -2.487278717681218, -6.870786314939705, -20.20226097091433, 0.20485063490963182, 8.096840162572237, 6.7677049714447035, -9.869513026976893, 2.4714894760982764, -5.9038688011797005, -8.957660157398786, 5.055747015079033, 2.5824397340952463, 11.742472002534816, 8.76202037647357, -6.344607506915832, -6.714888277460701, 9.748162350937898, 3.1382268527610653, 5.188970930497926, 25.807030266911678, -10.642662926984949, -30.16821975004898, -4.357079459117521, 12.078959699705125, 4.4624773055103875, -1.0342675938194035, -0.8986107022872636, 6.185697249225399, -4.683068504482638, 8.348214742066675, 0.6024160354435318, 8.128510717762268, 11.692804482546968, 1.7008138709753142, -12.701464755998312, 3.072816052168922, -10.049569088019123, 0.04094910299656948, -10.384604338795048, -12.646496881234027, -0.8005182204267441, 6.947239434529102, -7.0247447457645, -10.52993709512117, 4.25205040071372, 1.1573788051756362, -1.0967679582175238, 1.813764944634634, -0.0667052619167873, 5.499537047710002, 7.41033792294379, 0.3779306504693026, 0.4482588927075181, -10.1443151618865, -17.006121149236563, 1.483031907864838, 4.711763982965121, 6.076413376593173, 11.634922289126253, -9.741069742695835, 1.7768961756759054, 5.113774918629593, -1.0881974611666034, 4.768688255331402, 6.847339933767438, -3.165012026325496, 3.8700403983167835, 3.1342000289962786, -18.459177421347956, -17.496238516649612, 1.7889605742957684, -2.1222844762342925, -10.30757126053217, -0.08069637741267566, 4.1489775208412905, 6.592870713154136, 5.8992492453220775, -2.8457613198166496, 5.757284684507045, 13.062749093549773, -15.545466911902407, 1.2203992081289836, -12.360119839231423, -12.356182999509112, 0.47642381989344584, 1.892970794823614, 4.851021403592888, -5.837293856578578, 5.210667699541842, -4.725664680410393, -7.673739614774251, 0.9741172382069148, 11.307657705286445, 1.1976277318229047, -3.5736911062927006, 5.065754080332965, -12.795405265686297, 9.539836423624148, -3.0413596787451023, -4.316690797834185, 12.855082955435993, -2.5516115905183354, 16.987178562249444, -4.431137671934092, -1.2081152294051731, -2.3046534107261842, -9.917933720050605, -18.071655231723838, 13.88287999239912, -12.076057511785734, -3.608520229952243, 3.430031945972236, -2.289167938625465, -8.262886493303231, -1.0443041193750415, 4.468230748216008, 4.805519622518857, 10.23602924038826, -18.53372778898036, -3.2991425082353225, 22.65288710931371, 0.5026008008900791, -9.72230002280841, 3.4687548548828797, 16.33442212252728, -4.559242895979593, -0.6140744846225797, 13.069490144622849, -7.273293813274163, 12.742935485218215, -6.275774921177, 1.9642444839867763, -5.351476232147427, -1.9531861733099865, -12.909670222249847, 5.857543209066542, -0.613438440896724, 8.33787035857606, 0.9394406358773133, 11.06728930533931, 2.94914024823791, -3.7717575922319977, 5.996479323343544, 15.679250545746946, -2.3363487545592267, -9.659264593441506, 11.025694085333367, 0.6294993959066444, -3.2430632786081723, -2.5193250209790508, 7.388767255619559, -11.370970708134532, 18.047106651011468, -7.68814552559224, -0.24970301100442388, -3.0813953148699196, 11.649102578896288, 6.919718107121286, 1.4176192531547034, -4.368031386258254, -3.085133548510487, 0.8514118285178348, 11.238892200129817, 20.399024713375805, 0.11638669232799076, 8.09547746772494, -1.4106655945183415, -9.184558893811884, 0.8310319295768522, 8.55512228719625, 4.178181491649006, 9.583603717619342, -13.177669568413647, 3.537431087619299, 4.268304928866711, 12.125108543296594, -1.647097256843356, 1.5380717795461871, -6.3490062995569545, -1.0168984997365993, -7.274076752586501, 1.835683787481857, -6.12810247557949, 25.231801182943578, -1.2598966717532414, 3.16262168169215, 2.959510104741469, 4.966502287638034, -4.79198990044758, 12.291896624558548, -1.1383637942462048, 2.0610966792784264, -9.645196579906383, -9.537398798386706, -4.04630730337655, 9.17932730383637, 6.486867616479754, -5.782521641539594, -9.649402682994909, 12.854908440472961, -3.6391277284231154, -11.160796137731626, 7.236828377547968, 2.356093740676976, 7.282027996104708, -18.52347977016066, 3.1941053580405394, 5.562358978140712, -7.5603630077648285, -11.899073036107, 8.12525608579006, 8.920960311209233, 14.392219506627322, -6.055397214045174, -0.7598246791426133, 14.669142297951288, 22.321730998257724, -2.640009222714124, -2.7080705289844373, -8.403984817780907, -0.12986452193033968, 0.6632531882187664, 13.35534417839456, 6.4635436599918155, -7.94122041724728, -10.016570847943617, 4.313343065515024, 9.526000667081195, 9.260717653276698, 0.5293935559752204, -11.622604024687853, -17.279084165236213, 14.264721101863122, -7.138474735605697, -4.655658221695429, -11.175387265966393, -6.586892213831611, -3.643725395351549, 10.657104821652785, -6.088451228025583, 2.589497253790033, -11.631131173946207, 4.856730329704696, 11.944702749660195, 14.134367955318018, 8.10170231217649, -3.865123032902664, 17.451220365848506, 1.149157811501887, 2.6212731808203804, -0.2783784041631334, 1.4071106455103894, 1.3436881827023375, -2.686161616593125, -6.23838371272533, 17.513090750182656, -4.558226332112275, -5.440587806271098, 11.920416574115352, 8.437419430901905, -11.281413393780333, 18.01135409331722, 16.434517891424036, -4.125926864045057, -16.3098107291929, -4.7022023701407445, 1.8087090411918947, -6.38093592215478, -14.821847587510389, -10.695277427817325, 9.692172128242458, -5.656499029099037, 7.436318792977095, -2.0002403282527785, -7.383126310007533, 8.053898272527697, -10.754317639394188, 6.48461554584992, 0.08610336434451038, -8.323472483187652, -3.707919373217912, -5.547893619994565, 4.095425714261965, 14.33280971962437, 2.9540610654123087], [-3.920381263911488, -1.4964975444846578, 15.16778906020071, 1.183281962546468, 16.45200674389416, -2.706245479669652, -0.8798016317398465, -4.477841280211751, -4.307324874170701, -6.221399738304073, 4.328980798232928, 4.632296538816969, 18.532005084523345, -3.374117813774532, -1.1283456611019305, 10.36901271066595, -3.434147712373582, 2.9210143613825656, -11.557173326874846, -1.9859507367543745, 5.10349241009018, -4.051100536322358, 9.118332796837425, 1.3062027582856088, -7.373135924016903, -0.23657026195199388, 1.4281289126928125, -12.737865962636452, -2.4506005671160387, 12.170421518072839, 0.31781659987728955, 0.01719620740140404, -3.0252689073765566, -0.6939070048524623, 8.515523692375623, -0.13020212939717268, 3.6494419303227956, 2.4131780933777143, -15.01743912646097, 9.29343001938837, -2.6333573007227713, 15.094939393979757, -3.4732188684791434, -16.54385786756945, -4.0975199107025055, -20.782234443018158, 4.546979484859333, 0.017931656980097133, -4.857542938613239, 11.668723269334226, 12.826852612437596, -5.726322202913306, -4.024877152238505, -7.020450622054192, -7.504890238735523, -9.546928478149773, -8.979421678230315, -7.050558060354623, 0.029628371021714388, 4.498916308587872, -11.595670440119212, -21.549294422096384, 1.2412032350762825, -11.709562894025563, 2.0647440971197173, -7.204774906383812, 19.630787508812165, -7.2386234813069805, 2.34229764226932, -2.199118229302529, -6.557076682862525, -19.95643535792647, 0.1506489980468393, 7.332785818480761, 6.4064927247132655, -9.787869467100014, 2.736449760441487, -5.269921843317105, -8.913840364448475, 4.867764203241839, 2.281824015140266, 12.0966217444014, 8.752609020322605, -6.355353557106158, -6.6314632055393785, 9.319629686063955, 3.2408486681750874, 5.3687515234620795, 25.56274921820206, -10.50248277369721, -30.16821975004898, -4.010132783479839, 12.078959699705125, 4.634817583346889, -1.326981183644468, -0.8384994335369411, 6.280695073145214, -4.538239447624949, 8.722162355499249, 0.4699810922709312, 8.582975828404996, 11.549321654267603, 1.4999609233467008, -12.26186219639862, 2.6365853769122625, -10.105973582420466, 0.3136935166591825, -10.384604338795048, -12.371901101803244, -1.248371532069378, 7.245117660419886, -7.0247447457645, -11.298130383549447, 4.485122960584714, 1.1573788051756362, -0.7215911820606083, 1.813764944634634, -0.12793560924111358, 5.383208391207711, 7.41033792294379, 0.471889966825422, 0.22066307354019093, -10.126015450695107, -17.006121149236563, 1.483031907864838, 4.857446103853589, 6.457753770010009, 11.672203530432748, -9.390877235979248, 0.6905764375439073, 4.618718745677689, -0.9349400643745878, 4.391872113073854, 6.699243007435125, -3.2206173169528793, 3.664837579410993, 3.018378474231996, -18.746194494828334, -17.496238516649612, 2.1783131272518945, -1.7108518652396687, -10.30757126053217, -0.0581670422458261, 4.1489775208412905, 6.672660224664724, 5.891335926570736, -3.1011047577799395, 5.757284684507045, 13.559175458603773, -15.499548049570409, 1.067445986697508, -12.327732970648597, -12.185109660567468, 0.5609325390486932, 1.9628867614205605, 5.074357416599135, -7.163203710502006, 4.873782251547055, -4.707146106008957, -7.498303503778399, 0.15527801805946428, 11.37670445055503, 1.635556555685507, -4.37998888530058, 4.353474255296059, -13.37287916851653, 10.091791325009426, -2.6286300268871554, -4.228650865239642, 12.855082955435993, -2.6622203201692574, 17.684653027891223, -4.313431971345832, -1.2760263662259914, -2.2253677486639285, -10.286210787234767, -18.113158957932466, 14.09770236134114, -12.076057511785734, -3.3645612841854953, 3.488671761796129, -2.8250172774599647, -8.308279226545112, -0.8122542106676905, 3.9437384983746386, 4.454471921422115, 10.23602924038826, -18.53372778898036, -3.2514413585543793, 22.00982864318418, 0.33561160012089497, -9.442018927657024, 3.8166627520843397, 16.27756505610281, -4.590031134621747, -0.02420163845901399, 13.069490144622849, -7.105797963806532, 12.742935485218215, -5.926120235769586, 1.732904961005414, -5.372837641819241, -0.7368565111797261, -12.321502936639233, 6.037860847723691, -0.7903318054388724, 8.3109208625638, 1.289819611527867, 10.94974023656048, 2.839938936619329, -3.7717575922319977, 6.37429677380622, 15.53569557636555, -2.2799813323809217, -9.874638710074763, 10.892133742204159, 0.822690050935502, -3.43737608871044, -2.763691754212833, 7.475879314094173, -12.039446169423456, 18.480235897762054, -7.4551956333417175, -0.3043054839620656, -3.780020985444293, 11.985443319550702, 7.057582913727774, 1.3107325688070735, -4.1512162484895265, -2.8791941285604135, 1.0180144789362906, 12.602116442407555, 20.541906117445553, 0.6333442877479349, 7.900343627551508, -1.6009561978300768, -9.342768382026346, 0.40684547274108773, 8.638122520963496, 4.073086411846566, 10.405579885749114, -13.85864809606571, 3.537431087619299, 4.264570583289892, 11.947416825444446, -1.7850178801370427, 1.4318182241152233, -5.905327300714716, -0.7474388086808574, -7.274076752586501, 1.79144577229448, -6.12810247557949, 24.721257381550906, -1.2598966717532414, 2.7125604026251096, 3.088654031707249, 4.974716507700981, -4.79198990044758, 12.328417509643163, -1.097665559977264, 2.0610966792784264, -9.991721466983197, -9.937444759658101, -4.31366097812104, 9.608728257775141, 6.579534803632419, -7.084548073339587, -10.400646059306126, 12.7199614206751, -3.6391277284231154, -11.160796137731626, 7.952001720521766, 2.636133129780918, 6.690654554111102, -18.80158589121972, 3.1941053580405394, 5.562358978140712, -7.58739998271796, -11.899073036107, 9.130701784136786, 9.258505990178472, 15.42228606974845, -6.260148112536409, -0.7763019404686311, 14.669142297951288, 22.28464816446599, -2.264680509488763, -2.3357477673356777, -8.576704317807906, 0.330805295257354, 0.6834946378914595, 13.110593484941818, 6.131511292253554, -7.405857282852366, -9.509460894010015, 3.9264877066825377, 9.886353789928943, 8.507038563831891, 0.4813225301758545, -11.269714132849517, -17.0095769601463, 14.034231887587822, -6.888012142462539, -4.741800280709584, -10.961770170827632, -7.003339852236223, -3.7508207960621225, 10.875070086178615, -6.114517541684511, 1.629720771762591, -11.631131173946207, 4.856730329704696, 12.169454014315486, 14.122497086862353, 8.579680477581983, -3.865123032902664, 17.221695411038624, 0.6134721982382433, 3.0840386835193283, -0.1728907533414072, 1.345230371218926, 1.3436881827023375, -2.686161616593125, -6.23838371272533, 17.939430776859396, -5.678704605931281, -5.565792059098182, 12.244244559431019, 8.518435132182136, -11.302967220103179, 17.239697241759085, 15.902727909743309, -3.6148787166453142, -16.100694453522035, -4.490060524678033, 1.697402462192891, -6.412111289517799, -14.298978239211246, -9.335881800281806, 9.692172128242458, -5.149660185818104, 7.491055894024647, -1.8508407807635354, -7.6831029513726605, 8.531566697816585, -10.924903458603522, 6.2213621557375935, 0.5396528387783815, -9.423331825075463, -4.343245314994996, -5.9988389350088145, 4.010007474227166, 13.956794123850642, 2.5967830850906255], [-3.920381263911488, -1.566129546886673, 15.126548732361083, 1.183281962546468, 16.238059954908042, -3.1702694502635422, -1.4939610710676832, -4.833182436735235, -4.307324874170701, -6.1115059782968935, 4.85874236374149, 4.547971188212783, 18.283104469534557, -3.1875329219455666, -1.2242458303616366, 10.65164093521033, -3.589989464222128, 2.776399441884464, -11.480263613493172, -1.1583926103371343, 5.289137634773898, -3.95434548817421, 8.843247647801892, 3.1086467996809812, -7.878233092630626, -0.23657026195199388, 1.3685697243533375, -12.636970695833721, -2.7377124774507493, 12.170421518072839, 0.11435187687302983, 0.27257657138241176, -3.0064402313238547, -0.6290165485675032, 8.058617050123807, -0.4787091329125038, 3.676924395918351, 2.3836586621859355, -15.328290236140418, 9.29343001938837, -2.9325128208033324, 14.532328855763765, -3.4688669909466157, -15.767310804727487, -4.0975199107025055, -20.782234443018158, 4.453677825027119, -0.1565180366055966, -4.740302069537409, 11.767887223755167, 13.115631569191345, -5.900189386324443, -3.246335975268424, -7.164386194500943, -8.458479262499253, -9.565297301655205, -9.065109308580748, -7.174058377433392, 0.08348371411562147, 4.596284647178405, -11.139941276492362, -21.242572234647717, 0.9002344880377224, -11.891327166028377, 1.736049045082571, -6.715714593602287, 19.50050951328638, -7.4340394255318865, 2.34229764226932, -2.1765695274040024, -6.870786314939705, -20.277868936941232, 0.15350153319072338, 8.013866031520001, 6.4064927247132655, -9.869513026976893, 2.834189733551053, -5.84902574528817, -8.746230566595251, 4.680856515961222, 2.289129727859759, 11.883160705555245, 8.76202037647357, -5.633678226374457, -6.714888277460701, 9.748162350937898, 3.2408486681750874, 5.260309986758195, 25.673457780722597, -10.642662926984949, -29.992122407073126, -4.66348896413289, 12.156468768043487, 4.4624773055103875, -0.9093852422152455, 0.07479961479025034, 6.032987690722411, -4.683068504482638, 8.208856334367647, 0.5130563397265988, 8.582975828404996, 11.792924738861341, 1.0034124615185718, -12.90129826628053, 1.9426763037954915, -10.467945089405763, 0.04094910299656948, -10.267679491068671, -13.543112741538586, -0.3971619327298245, 7.23075417260501, -7.0247447457645, -11.3531573695153, 4.25205040071372, 1.1573788051756362, -1.1454870513870028, 1.8373736970151093, -0.24551903983852635, 5.247614965075989, 6.764251286538412, 0.3779306504693026, 0.4482588927075181, -10.563222508355583, -17.006121149236563, 1.7168481884294353, 4.635659609623178, 6.140653785182322, 11.597263546340583, -9.587970304585813, 1.1967333035984313, 4.838870095165672, -1.182439747561514, 4.376457407744514, 6.692464085296007, -2.6311311912153235, 3.8700403983167835, 2.9921876529800473, -18.721211555463796, -18.318986031936173, 1.8406040583887402, -2.1222844762342925, -10.71030909827604, -0.23824823357252722, 4.274206173986272, 6.008805534965582, 5.785320163033689, -2.8457613198166496, 5.456891339628223, 12.998444111554987, -15.784728426165696, 0.8739629015357813, -12.360119839231423, -12.189039925419095, 0.41040626834864014, 1.9832486208325923, 4.851021403592888, -7.163203710502006, 4.879109026067073, -4.571672488109454, -7.673739614774251, 0.01858666119707833, 11.307657705286445, 1.4354536062895238, -3.4089029223532377, 5.065754080332965, -12.795405265686297, 9.691695857423477, -3.109864964267334, -4.539599236282981, 12.855082955435993, -3.007997688251896, 17.259449693309264, -4.257528381619567, -1.2081152294051731, -2.1395667248116412, -10.316663478230426, -18.49949162058451, 13.88287999239912, -12.076057511785734, -3.5113408035150777, 3.24063828199345, -2.229489669133055, -8.702761270593276, -1.0443041193750415, 4.1737314422212535, 4.5135824377352876, 10.598796638105702, -18.729310767629077, -3.4485587688764068, 22.65288710931371, 0.21126060148970077, -9.179419163923633, 3.454544856817764, 16.41278711412422, -4.559242895979593, 0.11815527241746737, 13.195472508982311, -7.273293813274163, 12.756761270764667, -5.99670591541798, 2.0552495954386334, -5.32587493109178, -1.7480512247555315, -12.370334941361246, 5.857543209066542, -0.613438440896724, 8.33787035857606, 1.14694611069641, 11.06728930533931, 2.9426269092087476, -4.725290350127493, 5.996479323343544, 15.367384300284826, -2.487337123479957, -9.793779787400792, 11.010520959766989, 0.6095327909392432, -3.3413480336913817, -2.5193250209790508, 7.475879314094173, -11.643456213602377, 18.10468293292177, -7.68814552559224, -0.13719816332083556, -2.57949276155391, 11.649102578896288, 7.057582913727774, 1.3107325688070735, -4.324647456773032, -2.984986978480412, 1.0180144789362906, 12.11694779167261, 20.29787108868569, -0.30529125408890156, 7.834377667960954, -1.4106655945183415, -9.340113325844609, 1.083323734570958, 8.564591247898662, 4.178181491649006, 9.141375207208641, -12.394920825069184, 3.3357402351169245, 4.4785660059561625, 12.29576109473994, -1.647097256843356, 1.3400143349894011, -5.5819726474145375, -0.7474388086808574, -7.560245301753551, 1.705250746029565, -6.12810247557949, 24.940986360069292, -1.2598966717532414, 2.8887420043606755, 2.7506920970374087, 4.879118287539261, -4.79198990044758, 12.291896624558548, -1.277167923185415, 1.8171149315213966, -9.991721466983197, -9.537398798386706, -4.04630730337655, 9.17932730383637, 6.480421179865558, -5.60986134320926, -9.63820565968311, 12.657077747542964, -3.932054188340488, -11.550781840889982, 7.537219307148461, 2.1550799992750744, 6.779871740539166, -18.843392452220684, 5.032260293938884, 5.290170094961969, -7.826030049180969, -11.78795139112584, 8.2605977587561, 9.4911428396687, 15.42228606974845, -6.111951789997824, -0.7598246791426133, 14.430404336408978, 22.03059427845935, -3.219857748637073, -2.7119399989399318, -8.403984817780907, -0.12986452193033968, 0.9330953704919345, 13.134288758315375, 6.022017260955814, -7.780695350350625, -9.611860257740245, 4.313343065515024, 9.750016843126746, 9.260717653276698, 0.5293935559752204, -11.564636315399925, -17.279084165236213, 14.264721101863122, -7.34076843049554, -4.631061738953957, -11.175387265966393, -6.586892213831611, -3.8595061451434494, 10.875070086178615, -5.892189877219416, 2.589497253790033, -11.876578951569027, 4.856730329704696, 11.914242838894472, 15.090727009868754, 8.153817419123328, -3.7240053107988467, 17.01182533790839, 1.0822782921077254, 3.329340708143337, -0.2783784041631334, 1.444707991544184, 1.3436881827023375, -3.2033616124824498, -6.092838356479257, 17.739451430075963, -5.594034494598116, -5.162988511681791, 12.114530905794737, 8.437419430901905, -10.732234595756498, 17.41663108104183, 15.99825097314483, -4.453637641537273, -16.330892101568136, -4.607580805606241, 1.697402462192891, -6.412111289517799, -14.490508686725523, -9.335881800281806, 9.692172128242458, -5.259436293566007, 7.4612304051567735, -1.9684549079817617, -8.114139252731222, 8.053898272527697, -10.754317639394188, 6.361820029406871, 0.5396528387783815, -8.323472483187652, -4.082239499935158, -5.659223512136931, 4.095425714261965, 14.33280971962437, 2.9540610654123087], [-3.9144180119016374, -1.4115762733342234, 15.248818998398448, 1.5367699556947418, 16.33586340012519, -3.0158066459567348, -1.3798275693680786, -4.6427107728157475, -3.879882969570737, -6.133048740347328, 5.315696707567096, 4.7484960991014304, 18.280295533765855, -2.115499125631767, -1.2168412801231805, 10.369432264490566, -3.482049430006931, 2.859182415129688, -11.579632165918532, -2.0813422717617347, 5.289137634773898, -4.047449610185296, 9.668841381344636, 3.0896003037466118, -7.878233092630626, -0.16549022830088866, 1.5045689381771044, -12.981001894764267, -2.161302251673847, 12.170421518072839, 0.39999661837957545, 0.4440985673896077, -3.0634546429686735, -0.16865698299571563, 8.33407168477214, -0.26463646486765796, 3.8817140083206474, 2.147979385307924, -14.811856928199454, 9.151456633755119, -2.7105842331973373, 15.177381615552026, -2.8536663609836306, -16.750527041551898, -4.053534345891692, -19.99099240914923, 4.546979484859333, -0.21370230117452552, -4.915677804811782, 11.668723269334226, 13.643207293276301, -5.900189386324443, -3.579540584471471, -6.681470783534984, -7.1514536078252355, -9.565297301655205, -8.8491061035027, -7.449186210212732, 0.029628371021714388, 4.2925617739714985, -11.042187415079894, -21.280022348506098, 2.073162118797744, -12.23102237785011, 2.2919652224310902, -7.398724888354288, 19.867169666627465, -7.2386234813069805, 2.4294483409231815, -2.5114433370339193, -6.870786314939705, -20.432823380019403, 0.15350153319072338, 7.494084927747871, 6.695491653019169, -9.989687270607499, 2.7407124686411066, -5.601517683939911, -8.433994744327485, 5.238562779482697, 2.281824015140266, 11.691334478740119, 9.074336362572499, -6.292636513004238, -6.412070080850752, 9.592781528632727, 3.2408486681750874, 5.319065959043025, 25.64547333161664, -10.437228244837836, -30.16821975004898, -4.133232051854682, 11.707773235707508, 4.694239867499745, -1.2716845426627714, -0.8384994335369411, 6.4784171884529345, -4.683068504482638, 8.274621859713614, 0.662777731233948, 8.301251518344268, 11.692804482546968, 1.3950708727688674, -13.479724132055555, 3.239578472045891, -10.049569088019123, 0.5739684666111484, -10.384604338795048, -13.07225594313287, -0.4414602277042746, 6.722351487577208, -7.0247447457645, -10.260860473984904, 3.910220695215673, 1.726593157726942, -1.1314305361873278, 1.9223965515633725, -0.043499073602803084, 5.000915541281286, 6.764251286538412, 0.471889966825422, 0.34127818310858743, -10.126015450695107, -17.006121149236563, 1.7168481884294353, 4.655659714092983, 6.320223505631424, 11.718866357992725, -9.557686119965052, 0.6905764375439073, 5.2935648008837966, -0.9349400643745878, 4.849408682844858, 6.5833376152020096, -3.6009792871785065, 3.447073885093414, 2.9157197578091414, -18.967975159696167, -17.76420897111323, 1.8291115971941945, -2.1691474829464017, -10.30757126053217, -0.08069637741267566, 4.245672750813926, 6.705137848319134, 6.186758596213355, -3.2209362302312363, 5.736026902635571, 13.107673611200736, -15.892910429092451, 1.0746363944831783, -12.758142884706945, -12.202725544274532, 0.4607340100797939, 1.882811366679551, 4.78071783339903, -5.589570043738306, 4.89651179351328, -4.705670711423315, -7.3855944673143075, 0.9136410176408248, 10.9521969024638, 1.1976277318229047, -3.4504446059847713, 4.982416445959358, -13.152649270169581, 9.81822472535998, -3.03774622813487, -4.425357814256457, 12.774972992822784, -2.5487102775465207, 17.399495214416923, -4.3942235660236895, -1.3936487139768525, -1.795554242542297, -10.018320292221338, -19.016000313325502, 14.09770236134114, -12.076057511785734, -4.038772547774416, 3.7515360074816235, -2.280759304742878, -8.615830231846868, -0.8122542106676905, 4.608042513370293, 5.1345473606799255, 10.315480213822328, -18.17047899655212, -3.006624699684983, 22.343511236888894, 0.4047752872421698, -9.210178086539479, 3.4418489341281138, 16.11362642581663, -4.56290014842537, -0.02420163845901399, 13.069490144622849, -7.273293813274163, 12.762241097130444, -6.349547241475343, 1.5796444000338346, -5.627500734888851, -2.1041200388078147, -12.22453955712585, 6.047806507219105, -0.7373335343716162, 8.33787035857606, 1.019422010346851, 10.983687165056109, 2.9426269092087476, -3.7717575922319977, 6.522204949874864, 15.53569557636555, -2.3363487545592267, -10.801860990984297, 11.057983822805776, 0.6426286944109075, -3.0622706364850076, -3.224086588894095, 8.203905153808886, -11.951086460509014, 19.319009117029324, -7.297368455427728, -0.49267692468683333, -2.6810087905332174, 11.684694742713384, 7.057582913727774, 1.152845289415542, -4.232812656623597, -3.2387485629715287, 0.882425000112251, 12.440316565428024, 20.49233234626518, 0.6427763149750061, 8.04275064517146, -1.6009561978300768, -8.939443106489401, 0.5349254872148806, 8.502694464578026, 4.178181491649006, 9.713602339057829, -13.177669568413647, 3.537431087619299, 4.695447747778718, 12.07085515914678, -2.225097538976626, 2.209351522302909, -6.3490062995569545, -1.0381368029474338, -7.749897340096859, 1.901305704183133, -6.12810247557949, 25.37633411780848, -1.2598966717532414, 2.847272531040207, 2.959510104741469, 4.894570854647821, -4.79198990044758, 12.389015429856185, -1.118289515671546, 1.8330744297586552, -10.257223976107806, -9.811908143534911, -4.500186143165069, 9.63794824930565, 6.486867616479754, -6.449056709250506, -10.726985068223515, 12.60261781465959, -3.726627975294886, -11.550781840889982, 7.397541710172636, 2.353971609988105, 6.921922319765548, -18.75757883385762, 4.821506243999991, 5.541398944473986, -7.378065904662797, -12.008742792728558, 8.671782861685626, 8.91154558637515, 14.24976961435631, -5.68090579290147, -0.8538035857966103, 14.4195783251939, 21.934369611490883, -2.5019093655829465, -3.1992251706934685, -7.649834094273191, 0.10111892364930389, 0.6834946378914595, 13.35534417839456, 6.4635436599918155, -7.932823364516828, -9.631469685700127, 4.336979720728051, 9.354785969083983, 8.139064705456281, -0.05334599733692359, -11.914182381250326, -17.52173323129855, 14.034231887587822, -6.945000583792312, -4.734416585812059, -11.35945654546526, -6.575532372867798, -3.0946797694733217, 10.496879304022361, -6.114517541684511, 2.2295527941260374, -11.515528686129516, 4.856730329704696, 11.857652535355426, 14.041684951344712, 8.278162201921377, -3.880410983699047, 16.71818576049864, 0.33636665802578103, 2.8711704933077002, -0.1728907533414072, 1.4290934354626994, 1.2136695881899726, -2.7201593077104573, -6.0162024558144935, 17.216999887897657, -5.362588090032392, -5.162988511681791, 12.3681256261187, 8.833685945639488, -11.515721176967766, 17.605735950364128, 16.014485657066487, -4.210497296033797, -15.885539502108351, -4.7022023701407445, 1.9413615507802369, -6.248934829075954, -14.325099487715132, -10.282398700560455, 9.260456389066988, -5.619218012744533, 6.974448576225737, -2.1816541280777115, -7.783942667336795, 8.917944687317323, -11.42980748008966, 6.237238775968317, 0.18490590502851628, -9.492637729191305, -4.236847012779232, -5.906650818489911, 4.297830628923519, 14.331952239555465, 2.877345975169764], [-4.239544141279898, -1.437735843069617, 15.248818998398448, 1.5367699556947418, 16.279554640073133, -2.372407138589411, -0.7724445732807386, -4.487970025394171, -4.359136548524864, -6.1115059782968935, 5.0211445373174435, 4.581078367819257, 18.368468053914413, -2.115499125631767, -0.9557737101849748, 10.085898710671165, -3.1029608212107447, 2.6590785925693012, -11.480263613493172, -1.9859507367543745, 5.289137634773898, -4.09009592825907, 9.118332796837425, 2.8283220545552377, -7.373135924016903, -0.33743173353098754, 1.5045689381771044, -12.981001894764267, -2.562809640422113, 12.314434995601854, 0.36125478747710715, 0.01719620740140404, -3.6240570746479537, -0.43539376163095944, 8.407080177201362, -0.5761859946710643, 3.627311674603944, 2.141354799592749, -15.272125471237244, 8.918703659729344, -2.7105842331973373, 15.164034213765527, -2.866401468243135, -16.750527041551898, -4.148063290541648, -20.148589080274906, 4.546979484859333, 0.12428830073772863, -4.740302069537409, 11.668723269334226, 12.677825367441349, -5.496456787502381, -3.579540584471471, -6.550036341809641, -7.4824043024694165, -9.565297301655205, -9.083917203910413, -6.831615706932827, 0.029628371021714388, 4.2925617739714985, -11.565806675073118, -21.462931598759244, 1.2412032350762825, -11.709562894025563, 1.3650761476322901, -6.7730736765921975, 19.50050951328638, -7.364507259678478, 2.5220385032304433, -2.2451793746269093, -6.870786314939705, -20.21868054716845, 0.1506489980468393, 8.43849492198086, 6.695491653019169, -10.008676164076471, 2.4714894760982764, -5.795906932798896, -8.700503166232384, 4.867764203241839, 2.20943863726918, 11.846894171718983, 8.930658211961475, -6.5791889349639785, -6.3326700425044535, 9.542865343531954, 3.417746476323912, 5.145156400499568, 25.64547333161664, -10.940227960753258, -30.16821975004898, -4.306334093813121, 12.078959699705125, 4.634817583346889, -1.449058947285598, 0.1671683076535126, 5.981786819374546, -4.394755602838543, 8.422436342913892, 0.4699810922709312, 8.32111962328693, 11.692804482546968, 0.9748793907900749, -12.45584778514301, 3.239578472045891, -10.049569088019123, 0.36797182707211507, -10.384604338795048, -12.606004718965085, -0.8005182204267441, 7.245117660419886, -7.0247447457645, -11.261222756857467, 3.965690770194069, 0.8270635092895843, -1.3884629186711912, 1.741242799084105, -0.12793560924111358, 6.179789681373404, 7.356419762944794, 0.37146999269738196, 0.34127818310858743, -10.126015450695107, -17.006121149236563, 1.3868073248724933, 4.711763982965121, 6.048147478909581, 11.634922289126253, -10.205503259229793, 1.1811627299117142, 4.651876934728453, -0.9349400643745878, 5.1533504974044755, 6.310091656909115, -3.301734448286888, 3.447073885093414, 2.9157197578091414, -18.967975159696167, -17.496238516649612, 1.7889605742957684, -1.7108518652396687, -10.30757126053217, -0.08069637741267566, 4.669854079349159, 6.580748581510736, 6.500660291773092, -2.9789500579705415, 5.697143208059803, 12.926065758662606, -15.892910429092451, 1.2203992081289836, -12.360119839231423, -12.150334541446822, 0.48009729739557383, 1.882811366679551, 4.763271571130995, -7.162490279733573, 5.091579891079239, -4.605923824310677, -7.575097576007771, 0.15527801805946428, 10.782152182211, 1.6458718809568924, -3.5427875273694824, 5.4520970417054, -13.37287916851653, 10.125958003945012, -2.8710828934412396, -4.228650865239642, 12.819698357745036, -2.3903209990329373, 17.547228189263983, -5.020264281459237, -0.9433725205290133, -2.0288739543716012, -10.350383615309537, -18.113158957932466, 13.88287999239912, -12.373067183640888, -3.745022154198441, 3.488671761796129, -2.280759304742878, -8.662325131862485, -0.867728698100218, 4.47302414652486, 4.787373931925702, 10.23602924038826, -18.802257394932003, -3.166578220185306, 22.16072464376903, 0.4047752872421698, -8.791701283051273, 3.5886315011833467, 16.345477668634242, -4.56290014842537, -0.23503447506513847, 13.350243332910622, -7.273293813274163, 12.403260239074653, -6.349547241475343, 1.9642444839867763, -5.496925317446541, -1.7480512247555315, -12.370334941361246, 6.037860847723691, -0.7903318054388724, 8.3109208625638, 1.1215803056115805, 10.954723358589218, 3.0222952284872426, -3.7717575922319977, 6.175573559360719, 15.53569557636555, -2.3363487545592267, -10.986281760319242, 10.892133742204159, 0.6426286944109075, -3.3081412604925844, -3.2972223188591343, 5.797190308551329, -12.177037147329713, 18.761061342446293, -7.233578909056941, -0.30900388800196543, -3.1046277647780673, 11.56643901578155, 7.405604232396274, 1.210261766950864, -4.1512162484895265, -3.100736144231188, 0.9607789704543632, 12.440316565428024, 20.70309437974166, -0.17372181254739735, 8.430152491385611, -1.6009561978300768, -8.888271043794031, 0.3251084770750409, 8.684799006852662, 4.073086411846566, 9.583603717619342, -13.177669568413647, 3.497227020247136, 5.070337056248231, 12.114565381251115, -2.022821759097739, 1.1850858258868784, -6.101079059371853, -0.9678433822198499, -7.76570518958306, 1.998162548206191, -6.065021107127054, 25.042513710339193, -1.6475983237961993, 2.8551069878475612, 3.2550027653033258, 4.84758531126599, -4.7939904288029265, 12.389015429856185, -0.8366391763979701, 1.8452691282965106, -9.991721466983197, -9.986313910244744, -3.81062476983981, 9.17932730383637, 6.486867616479754, -5.847239765140137, -10.6910600195774, 12.657077747542964, -3.84779844030548, -11.444891654685568, 7.578639214105115, 2.571986953866771, 7.282027996104708, -18.75757883385762, 5.194165942758829, 5.541398944473986, -7.952873402267801, -11.899073036107, 8.323517435355889, 8.920960311209233, 15.671394804386013, -6.246687958897423, -1.0329451079516696, 14.669142297951288, 22.210048073601616, -2.7499697129155996, -2.3300240957115013, -7.362335189830159, 0.10111892364930389, 0.7122735427907686, 13.110593484941818, 6.303099642662135, -7.670884937305247, -10.125533254407985, 4.336979720728051, 9.354785969083983, 8.498475854942404, 0.36491088248841785, -11.596835828977312, -17.183605166783384, 14.49504532992513, -7.077806971805615, -5.260985603595078, -11.175387265966393, -6.7174777735156574, -3.235799804561989, 10.875070086178615, -6.1453901249809855, 2.2338234898486338, -11.876578951569027, 4.6919470746476035, 11.844077197117784, 14.194521448856742, 8.157052000088836, -3.92208299401749, 17.451220365848506, 0.752790417745846, 2.5382059568202915, 1.37658537828537, 1.1951225511154526, 1.2401307238677963, -2.686161616593125, -6.0162024558144935, 17.939430776859396, -5.807477792663234, -4.780584206804004, 12.231991734685009, 8.474548341804997, -11.256335864494032, 17.239697241759085, 15.59649386615082, -4.279776825770717, -16.100694453522035, -4.633216532691499, 2.042496909032654, -6.412111289517799, -14.325099487715132, -10.989046726432534, 9.260456389066988, -5.351110454678922, 7.491055894024647, -1.8694303252040467, -7.837970428150858, 9.045954605665216, -10.827906324235837, 6.436529251139939, 0.18490590502851628, -8.444001927532563, -4.231513808788706, -5.906650818489911, 4.297830628923519, 14.331952239555465, 2.8400347347207675], [-3.920381263911488, -1.5039813931428652, 15.126548732361083, 1.183281962546468, 16.238059954908042, -2.8726472009879016, -1.4939610710676832, -4.593699777668302, -4.307324874170701, -5.853521069732174, 5.619651981453092, 4.547971188212783, 18.057497528105788, -3.1875329219455666, -1.2168412801231805, 10.564235473981782, -3.589989464222128, 3.0256297724689794, -11.557173326874846, -1.1583926103371343, 5.289137634773898, -4.110594190784849, 8.843247647801892, 3.1086467996809812, -7.373135924016903, -0.23657026195199388, 1.3685697243533375, -12.636970695833721, -2.4506005671160387, 11.670116309360013, 0.3334257595525675, 0.23714310626632296, -3.0064402313238547, -0.6290165485675032, 8.058617050123807, -0.1326176988444458, 3.6494419303227956, 2.2863831792961147, -15.462850680773638, 9.314982971889366, -2.7105842331973373, 15.094939393979757, -2.866401468243135, -16.721522483434644, -3.5576438031685638, -20.843596899373996, 4.453677825027119, -0.1565180366055966, -4.740302069537409, 11.767887223755167, 13.433657261987756, -5.900189386324443, -3.8730024199027775, -7.164386194500943, -6.809259440503071, -10.11370623258706, -9.065109308580748, -7.174058377433392, 0.08348371411562147, 4.596284647178405, -10.926536361494495, -21.21009104195969, 1.3420530343171777, -11.891327166028377, 2.0647440971197173, -6.715714593602287, 19.638921443630707, -7.006737698649569, 2.34229764226932, -2.487278717681218, -7.277073918960859, -20.20226097091433, 0.15350153319072338, 8.013866031520001, 6.42188080415112, -9.869513026976893, 2.4714894760982764, -5.8860017735976875, -8.807097306527725, 5.693928238977076, 2.289129727859759, 11.963566788448015, 8.963121355500364, -6.159396836806999, -6.412070080850752, 9.748162350937898, 3.2408486681750874, 4.915931770046724, 25.673457780722597, -10.642662926984949, -29.986006503376302, -4.357079459117521, 12.156468768043487, 4.4624773055103875, -0.9093852422152455, 0.07479961479025034, 6.214047528571425, -5.097177587141836, 8.4245617184005, 0.4699810922709312, 8.582975828404996, 11.792924738861341, 0.9748793907900749, -13.16609797454985, 1.9426763037954915, -10.049569088019123, 0.04094910299656948, -10.351607193285842, -12.123785857034893, -0.8005182204267441, 7.23075417260501, -8.129793627324357, -11.3531573695153, 4.25205040071372, 1.1573788051756362, -1.1454870513870028, 1.8373736970151093, -0.12793560924111358, 5.247614965075989, 6.764251286538412, 0.3779306504693026, 0.4482588927075181, -10.62972083154321, -17.006121149236563, 1.6041111687832643, 4.635659609623178, 6.364513757645207, 11.661155374236293, -9.504234615636014, 0.6905764375439073, 4.796793642647805, -0.9349400643745878, 4.391872113073854, 6.692464085296007, -3.1588911982390115, 3.447073885093414, 2.9921876529800473, -18.721211555463796, -18.318986031936173, 1.7889605742957684, -2.812981867101928, -10.71030909827604, -0.23824823357252722, 4.274206173986272, 6.008805534965582, 5.740740267246808, -2.8457613198166496, 5.681300662592221, 13.062749093549773, -15.784728426165696, 0.8739629015357813, -12.360119839231423, -12.189039925419095, 0.41040626834864014, 1.9832486208325923, 4.851021403592888, -6.268956290024905, 5.210667699541842, -4.571672488109454, -7.673739614774251, 0.01858666119707833, 11.307657705286445, 1.24529122582765, -3.4089029223532377, 5.23230149698665, -12.437157715341819, 9.691695857423477, -3.685266926924932, -4.539599236282981, 12.5804548928543, -2.6889429834154397, 17.547228189263983, -5.527682258857466, -1.2081152294051731, -2.2171305236513965, -10.316663478230426, -18.49949162058451, 13.88287999239912, -12.16039071611313, -3.4392934536618514, 3.24063828199345, -2.289167938625465, -8.702761270593276, -1.0443041193750415, 4.47302414652486, 4.5135824377352876, 10.598796638105702, -18.473423796945646, -3.2991425082353225, 22.612141100627927, 0.21126060148970077, -9.179419163923633, 2.9731136767378787, 16.41278711412422, -4.462052498474372, 0.11815527241746737, 13.014477652463723, -7.273293813274163, 12.756761270764667, -6.249710161095673, 1.5796444000338346, -5.32587493109178, -1.0049052183840097, -12.370334941361246, 6.190011787332457, -0.6760974508369507, 8.33787035857606, 0.9705329726340827, 11.06728930533931, 2.946763113410104, -3.7717575922319977, 6.471524021098211, 15.367384300284826, -2.233616665978025, -9.793779787400792, 10.892133742204159, 0.6095327909392432, -3.3413480336913817, -3.224086588894095, 8.203905153808886, -11.62761727701232, 18.047106651011468, -7.68814552559224, -0.13719816332083556, -3.780020985444293, 11.56643901578155, 7.171270747904982, 0.860164930135984, -4.052164193566846, -2.984986978480412, 1.0180144789362906, 11.864857196445868, 20.41630658309999, -0.30529125408890156, 7.906924712194465, -1.4207956871745886, -9.251954930404708, 0.6256320301307405, 8.396599162524913, 4.178181491649006, 9.583603717619342, -12.78847331262809, 3.537431087619299, 4.149051933678045, 12.17372232589747, -1.647097256843356, 1.3400143349894011, -5.5819726474145375, -1.053588036618332, -7.560245301753551, 1.901305704183133, -6.5371131754202265, 24.940986360069292, -1.2598966717532414, 2.8887420043606755, 2.733691830223303, 4.863780641820404, -4.544443558949539, 12.291896624558548, -1.2522382716962133, 1.8171149315213966, -9.792160349431352, -9.549954980712997, -4.04630730337655, 9.17932730383637, 6.486867616479754, -5.60986134320926, -9.63820565968311, 12.772914437431414, -3.932054188340488, -11.550781840889982, 7.537219307148461, 2.397037522873944, 7.217098647580096, -19.139897037952565, 5.032260293938884, 5.3434338612363295, -7.826030049180969, -11.78795139112584, 8.2605977587561, 9.4911428396687, 15.42228606974845, -6.246687958897423, -0.6511279182945934, 14.430404336408978, 22.03059427845935, -3.219857748637073, -2.7119399989399318, -8.116277882241963, 0.04636021139850561, 0.9330953704919345, 13.504899454022857, 6.022017260955814, -7.628516544493, -9.611860257740245, 4.313343065515024, 9.508729245186764, 9.22267674336789, 0.0397383295621825, -11.622604024687853, -16.599345750304323, 14.034231887587822, -7.34076843049554, -4.631061738953957, -11.175387265966393, -7.1354443033007655, -3.623386371856008, 10.940949887849278, -5.892189877219416, 1.629720771762591, -11.631131173946207, 4.67152455802677, 11.914242838894472, 15.090727009868754, 8.153817419123328, -3.7240053107988467, 17.01182533790839, 0.6134721982382433, 3.329340708143337, -0.1728907533414072, 1.3398169919161087, 1.302061145862584, -2.686161616593125, -6.172505752857698, 17.739451430075963, -4.560617290865231, -5.162988511681791, 12.114530905794737, 8.437419430901905, -11.302967220103179, 17.3338610262832, 15.99825097314483, -4.563768001917606, -16.330892101568136, -4.607580805606241, 1.6635006232927025, -6.412111289517799, -14.490508686725523, -10.651382861543771, 9.692172128242458, -5.259436293566007, 7.1765203254048835, -2.0002403282527785, -7.511479279956947, 8.735102334838055, -10.754317639394188, 6.48461554584992, 0.3236485374989916, -9.492637729191305, -4.383557382115995, -5.659223512136931, 4.095425714261965, 14.14130886368531, 2.8542020772808447], [-3.920381263911488, -1.337003550588644, 15.16778906020071, 1.856946341695789, 16.057481352080714, -2.8726472009879016, -1.2052374422932026, -4.738740253805998, -4.0761170050342965, -5.627967133255235, 6.180580504359718, 4.621573349304826, 17.98420244954925, -2.115499125631767, -1.426494042381439, 10.36901271066595, -3.434147712373582, 2.6590724062889253, -11.711393123659052, -0.8451719475968669, 5.191763251433435, -4.047449610185296, 9.54159544045401, 2.8283220545552377, -7.878233092630626, -0.33743173353098754, 1.5045689381771044, -12.736848001302933, -2.161302251673847, 12.170421518072839, -0.556396921196405, -0.20184828757634965, -3.215970224204105, -0.6575531750417795, 8.370364423607818, -0.15659854916608962, 3.8817140083206474, 2.179790856158504, -15.272125471237244, 9.151456633755119, -2.7105842331973373, 14.840647845346918, -2.9602558858846817, -15.767310804727487, -4.2787558811429856, -20.75638583169862, 4.546979484859333, 0.030216587987506288, -5.242045660808942, 11.668723269334226, 12.826852612437596, -5.919437921648741, -3.7616066743225898, -7.056834102438214, -7.046514477322223, -9.634981664937891, -8.8491061035027, -7.449186210212732, 0.05573723669513944, 4.2925617739714985, -11.907084761222093, -21.462931598759244, 1.4965298068964963, -12.23102237785011, 2.0054440498538537, -7.398724888354288, 19.409951484495352, -7.2386234813069805, 2.5220385032304433, -2.5083926306935953, -6.93500637506023, -20.20226097091433, 0.15350153319072338, 7.5048463141760875, 6.695491653019169, -9.922872747892715, 2.594222826983291, -5.820469619435953, -8.700503166232384, 4.867764203241839, 2.281824015140266, 11.691334478740119, 8.930658211961475, -6.355353557106158, -6.412070080850752, 8.850815771600665, 3.2408486681750874, 5.7356389558167935, 25.89768751275506, -10.437228244837836, -30.05097450528667, -3.870009515657453, 12.078959699705125, 4.634817583346889, -1.2716845426627714, 0.2811495784517301, 6.477961421725904, -4.316518345502896, 8.19632383764257, 0.19700174448980998, 8.301251518344268, 12.235530486119135, 0.9195020640217424, -12.629219058636398, 3.072816052168922, -10.183257762466956, 0.2984040453116689, -10.296248541523752, -13.286973214011198, -0.7778134631306209, 6.782238198762743, -7.0247447457645, -11.12097360297585, 3.9454771000965745, 1.1573788051756362, -1.8286170326682383, 1.813764944634634, 0.2684249033503472, 5.662655475675103, 7.41033792294379, 0.0016467032626596712, 0.3536699425685408, -10.675955517325901, -17.05851754230149, 1.7268657577123423, 4.711763982965121, 6.320223505631424, 11.634922289126253, -9.73631909697052, 1.1811627299117142, 5.156173175132791, -0.915552986380249, 4.456382389880093, 6.682946887729609, -3.0892768279447846, 3.1800967394485737, 2.9157197578091414, -18.37690024199358, -17.76420897111323, 1.8291115971941945, -1.7108518652396687, -10.171488487095036, 0.15137846574356179, 4.019737136015561, 6.3206447260601895, 6.655535494253879, -3.1614601153462623, 5.457099078089035, 13.691054764976998, -14.975016504443131, 2.0729819472268414, -12.521207365909765, -11.997579511029251, 0.6077605660251129, 1.882811366679551, 4.78071783339903, -6.268956290024905, 4.939402024622888, -4.605923824310677, -7.642865793319402, 0.4293624260365734, 11.37670445055503, 1.635556555685507, -3.6078299667738287, 4.353474255296059, -12.795405265686297, 10.091791325009426, -2.9163525699578945, -4.266088640029381, 12.774972992822784, -2.896545535559956, 17.399495214416923, -4.3942235660236895, -1.2635211028657665, -1.8382503709285334, -10.240365959946429, -18.113158957932466, 14.09770236134114, -12.265525708565402, -3.5338506735022017, 3.488671761796129, -2.104557000035932, -8.83564314631691, -0.8122542106676905, 4.47302414652486, 5.1345473606799255, 10.23602924038826, -18.30389290801335, -3.2514413585543793, 22.54588445243807, -0.25659679154988246, -9.755022567791546, 3.8166627520843397, 15.587772718055843, -4.56290014842537, -0.02420163845901399, 13.069490144622849, -7.008617639728922, 12.762241097130444, -6.349547241475343, 1.5796444000338346, -5.666415035694135, -2.0086472319124034, -12.368461294040745, 4.961206535014711, -0.7373335343716162, 8.33787035857606, 1.1623918789926664, 10.859096988309082, 2.9426269092087476, -4.167851988497875, 6.37429677380622, 15.643659031515599, -2.1594548313484996, -10.717843109768241, 10.680492191674414, 0.5355591432558015, -3.0391761162242306, -3.224086588894095, 8.203905153808886, -11.643456213602377, 19.319009117029324, -7.297368455427728, -0.13719816332083556, -3.725410764756211, 11.911165095561483, 7.405604232396274, 1.210261766950864, -4.1512162484895265, -3.1228900252803236, 1.3207709497381188, 12.62128432313506, 20.426347837859144, 0.13738384514945, 8.186463431503327, -1.6009561978300768, -8.983111105804465, 0.764810673803205, 8.502694464578026, 4.2886885183853, 9.371409283141846, -12.961352624672031, 3.537431087619299, 4.695447747778718, 11.744357935943114, -1.647097256843356, 0.9627892681926504, -5.917450993122392, -0.9678433822198499, -7.597562428446815, 1.9652059426648678, -6.165906154346533, 24.77986342264659, -1.2598966717532414, 2.847272531040207, 2.959510104741469, 4.974716507700981, -5.024990396391164, 12.415558035882643, -0.4206870784941379, 1.9994069704237099, -10.159822057150906, -9.811908143534911, -4.500186143165069, 9.17932730383637, 6.352229627966238, -5.156358658692728, -10.726985068223515, 12.73748499037035, -3.9552065981630102, -11.21670731805821, 7.952001720521766, 2.632728604759769, 7.282027996104708, -18.75757883385762, 4.766137345223174, 5.3434338612363295, -7.466056264559611, -11.283670433017448, 8.671782861685626, 8.91154558637515, 15.645881684635532, -6.246687958897423, -0.9651405118599483, 14.4195783251939, 22.143128643213664, -2.5019093655829465, -2.505328483182012, -8.292693924348765, -0.028976674736869823, 0.6772006155930286, 12.906174112029843, 6.456892925950419, -7.405857282852366, -9.77498342325539, 3.979411281719538, 9.545350603373793, 9.260717653276698, -0.05334599733692359, -11.622604024687853, -17.152015859626655, 14.512176786640216, -7.05544694289958, -4.981407936110332, -11.344073247780248, -6.575532372867798, -3.656713523321101, 10.657104821652785, -5.892189877219416, 1.9549882819383186, -11.726807699716495, 4.856730329704696, 11.861999736408707, 14.08478191650143, 8.278162201921377, -3.865123032902664, 17.0664355992744, 0.5515331054512642, 2.8711704933077002, -0.2783784041631334, 1.345230371218926, 0.571765952777302, -2.913936612071641, -6.23838371272533, 17.939430776859396, -5.362588090032392, -4.780584206804004, 12.338323581949778, 8.474548341804997, -11.510352649893822, 17.3682202676962, 15.937736394863638, -4.446791734064211, -16.330892101568136, -4.7022023701407445, 1.814444015321236, -6.352118058421108, -14.115536303720507, -10.651382861543771, 9.692172128242458, -5.149660185818104, 6.974448576225737, -2.1816541280777115, -7.511479279956947, 8.236268212379859, -10.754317639394188, 6.2213621557375935, 0.1787471335009929, -9.417850691707327, -3.985726372292632, -5.659223512136931, 4.297830628923519, 14.331952239555465, 2.877345975169764], [-4.046804957482953, -1.3609189436788416, 15.16778906020071, 1.856946341695789, 16.45200674389416, -2.706245479669652, -0.6198218335992687, -4.487970025394171, -4.307324874170701, -6.133048740347328, 4.454173974329152, 4.632296538816969, 18.532005084523345, -2.115499125631767, -0.9557737101849748, 10.36901271066595, -3.434147712373582, 2.9210143613825656, -11.480263613493172, -2.0761307272008236, 5.289137634773898, -4.051100536322358, 9.118332796837425, 1.3062027582856088, -7.373135924016903, -0.33489478937344763, 1.4281289126928125, -12.712762896535077, -2.7732644408071225, 12.170421518072839, 0.3547413476482706, 0.01719620740140404, -3.0634546429686735, -0.43539376163095944, 8.515523692375623, -0.13020212939717268, 3.6494419303227956, 2.141354799592749, -15.01743912646097, 9.29343001938837, -2.6333573007227713, 15.094939393979757, -3.4732188684791434, -16.54385786756945, -4.0975199107025055, -20.782234443018158, 4.546979484859333, 0.05054273603603395, -4.857542938613239, 11.668723269334226, 12.826852612437596, -5.496456787502381, -3.303245830472154, -7.020450622054192, -7.1514536078252355, -9.565297301655205, -8.979421678230315, -7.050558060354623, 0.029628371021714388, 4.2925617739714985, -11.907084761222093, -21.549294422096384, 1.2412032350762825, -11.709562894025563, 1.3650761476322901, -6.7730736765921975, 19.630787508812165, -7.2386234813069805, 2.5220385032304433, -2.2451793746269093, -6.557076682862525, -19.95643535792647, 0.1506489980468393, 7.332785818480761, 6.4064927247132655, -9.989687270607499, 2.4714894760982764, -5.520714972239746, -8.913840364448475, 4.867764203241839, 2.20943863726918, 11.846894171718983, 8.930658211961475, -6.453798938710618, -6.654726456329711, 9.497599235476375, 3.2408486681750874, 5.3687515234620795, 25.64547333161664, -10.642662926984949, -30.23613900024705, -4.357079459117521, 12.078959699705125, 5.205183554189879, -1.326981183644468, -0.8384994335369411, 6.280695073145214, -4.89115851659248, 8.422436342913892, 0.4699810922709312, 8.543256219823864, 11.692804482546968, 0.9748793907900749, -12.26186219639862, 2.6365853769122625, -10.049569088019123, 0.05736918169597882, -10.243192529775133, -12.123785857034893, -0.8005182204267441, 7.245117660419886, -7.0247447457645, -11.298130383549447, 3.965690770194069, 1.1573788051756362, -0.7215911820606083, 1.813764944634634, -0.12793560924111358, 5.9621419990945235, 7.176002906215253, 0.471889966825422, 0.3536699425685408, -10.126015450695107, -17.006121149236563, 1.3868073248724933, 4.930620302165066, 6.4342848042587875, 11.672203530432748, -10.275655896182757, 0.6905764375439073, 5.03670064102756, -0.9349400643745878, 4.391872113073854, 6.310091656909115, -3.2206173169528793, 3.6786623085733483, 2.75841942516176, -18.746194494828334, -17.496238516649612, 1.7889605742957684, -1.7108518652396687, -10.30757126053217, -0.0581670422458261, 4.1489775208412905, 6.2063144172449975, 5.891335926570736, -3.1011047577799395, 5.697143208059803, 13.559175458603773, -15.892910429092451, 1.067445986697508, -12.66471774423448, -11.847795741921496, 0.5609325390486932, 2.0453052402337377, 5.158271223459751, -7.163203710502006, 5.0063131687612845, -4.707146106008957, -7.498303503778399, 0.15527801805946428, 11.498136494792755, 1.8320456126343065, -3.5427875273694824, 4.353474255296059, -13.37287916851653, 10.091791325009426, -2.6286300268871554, -4.311314460313718, 12.855082955435993, -2.6622203201692574, 17.577201041291453, -4.313431971345832, -1.2760263662259914, -2.2253677486639285, -10.286210787234767, -18.254611274012507, 14.09770236134114, -12.076057511785734, -3.3645612841854953, 3.7383876070531503, -2.8250172774599647, -8.702761270593276, -0.8122542106676905, 4.47302414652486, 4.502699381806431, 10.23602924038826, -18.53372778898036, -3.2514413585543793, 22.974425095523184, 0.8309795278742094, -9.442018927657024, 3.8166627520843397, 16.41278711412422, -4.590031134621747, -0.6140744846225797, 13.069490144622849, -7.105797963806532, 12.742935485218215, -6.066231376819611, 1.732904961005414, -5.180447758110933, -0.7368565111797261, -12.321502936639233, 6.037860847723691, -0.7903318054388724, 8.3109208625638, 1.289819611527867, 10.983687165056109, 2.839938936619329, -3.7717575922319977, 6.37429677380622, 15.53569557636555, -2.1569261666900363, -10.769799599229623, 10.892133742204159, 0.822690050935502, -3.0622706364850076, -2.763691754212833, 5.797190308551329, -12.039446169423456, 18.416725883395063, -7.250764379482025, -0.22355729495022936, -3.0813953148699196, 11.985443319550702, 7.057582913727774, 1.3107325688070735, -4.1512162484895265, -2.8791941285604135, 1.0180144789362906, 12.602116442407555, 20.29787108868569, 0.6333442877479349, 7.900343627551508, -1.6009561978300768, -9.135627544522158, 0.40684547274108773, 8.638122520963496, 4.231268924531226, 10.405579885749114, -12.992268422434234, 3.537431087619299, 4.046358612495274, 11.994014303253776, -2.022821759097739, 1.4318182241152233, -5.754261464969022, -0.2171699217014501, -7.274076752586501, 1.998162548206191, -6.099824201418208, 24.721257381550906, -1.2318908963738795, 2.3751096341965914, 2.9870195109709115, 4.974716507700981, -4.783285866889197, 12.102295838081965, -1.2522382716962133, 2.0610966792784264, -10.138146470328287, -9.79569577269749, -4.444120984932207, 9.608728257775141, 6.231810426127323, -7.084548073339587, -10.941470551663615, 12.7199614206751, -3.6391277284231154, -11.15607619966707, 8.157859689559606, 2.636133129780918, 7.508937927085858, -18.843392452220684, 5.194165942758829, 5.541398944473986, -7.58739998271796, -11.913432477690174, 9.130701784136786, 9.365530512630558, 14.37479860084143, -6.246687958897423, -0.9651405118599483, 14.669142297951288, 22.28464816446599, -2.264680509488763, -3.1992251706934685, -7.362335189830159, 0.20172322560533967, 0.6834946378914595, 13.110593484941818, 5.853371741802896, -7.670884937305247, -9.509460894010015, 3.500713570199456, 9.886353789928943, 9.298317857228035, 0.17980960114946914, -11.269714132849517, -17.0095769601463, 13.901330730595706, -6.888012142462539, -4.741800280709584, -11.175387265966393, -6.642238502743463, -3.7508207960621225, 10.962503477524558, -6.114517541684511, 1.6941173141877734, -11.631131173946207, 4.6919470746476035, 11.861999736408707, 14.08478191650143, 8.14966619036767, -3.865123032902664, 17.221695411038624, 0.6134721982382433, 3.0840386835193283, -0.02293935938684616, 1.3977310785191601, 1.4085004380755672, -2.766343091186818, -6.0162024558144935, 17.939430776859396, -5.678704605931281, -4.5170771726844094, 11.867653326257978, 8.474548341804997, -11.534467565727576, 17.239697241759085, 15.902727909743309, -3.6148787166453142, -16.100694453522035, -4.490060524678033, 1.697402462192891, -6.412111289517799, -14.325099487715132, -9.335881800281806, 9.692172128242458, -5.149660185818104, 7.491055894024647, -1.8508407807635354, -7.6831029513726605, 8.531566697816585, -10.924903458603522, 6.2213621557375935, 0.6041393423030215, -9.423331825075463, -4.231513808788706, -5.9988389350088145, 4.010007474227166, 13.956794123850642, 2.5967830850906255], [-3.920381263911488, -1.566129546886673, 15.394255152193296, 1.183281962546468, 16.238059954908042, -3.1702694502635422, -0.7724445732807386, -4.487970025394171, -4.307324874170701, -6.771081356647084, 5.06464293085771, 4.632296538816969, 18.283104469534557, -3.1875329219455666, -1.2168412801231805, 10.65164093521033, -3.589989464222128, 3.0446774226359574, -11.480263613493172, -1.1583926103371343, 5.10349241009018, -3.95434548817421, 9.118332796837425, 1.4134956104838825, -7.373135924016903, -0.23657026195199388, 1.2824134541917132, -12.319752112330727, -2.7732644408071225, 12.30551994643255, -0.447624709509184, 0.27257657138241176, -2.4405586660379255, -0.7653061016401091, 8.058617050123807, -0.3119631458873619, 3.676924395918351, 2.3836586621859355, -15.328290236140418, 9.29343001938837, -2.7105842331973373, 14.532328855763765, -3.4732188684791434, -16.721522483434644, -4.0975199107025055, -21.090295690271756, 4.546979484859333, -0.022639821984805297, -4.740302069537409, 11.767887223755167, 13.115631569191345, -5.900189386324443, -3.6970652786120364, -6.436844347032814, -7.504890238735523, -9.502285375340001, -9.061686564678856, -7.174058377433392, 0.029628371021714388, 4.283333877461226, -11.79666340897731, -21.39699927951525, 2.073162118797744, -11.709562894025563, 1.736049045082571, -7.085267654371296, 19.50050951328638, -7.768915062024075, 2.34229764226932, -2.4440576545489643, -6.870786314939705, -20.20226097091433, 0.06951610733999403, 8.013866031520001, 6.4064927247132655, -9.869513026976893, 2.834189733551053, -5.84902574528817, -8.746230566595251, 5.1043399079528085, 2.3655614658293427, 11.972188002066728, 8.985109811686602, -6.4902369977036924, -6.714888277460701, 9.748162350937898, 3.2408486681750874, 5.260309986758195, 25.673457780722597, -10.642662926984949, -30.16821975004898, -4.66348896413289, 12.156468768043487, 4.4624773055103875, -1.235701102695954, 0.07479961479025034, 6.032987690722411, -4.683068504482638, 8.422436342913892, -0.09470598029834976, 8.582975828404996, 11.692804482546968, 1.0034124615185718, -12.90129826628053, 1.9426763037954915, -10.467945089405763, 0.04094910299656948, -10.267679491068671, -12.123785857034893, -1.9654961456117925, 7.049919156644863, -7.0247447457645, -10.966864099362695, 4.25205040071372, 1.1573788051756362, -1.1454870513870028, 1.6174525839866283, 0.039592820347718494, 5.247614965075989, 6.764251286538412, 0.3779306504693026, 0.4482588927075181, -10.288504413724157, -17.006121149236563, 1.7168481884294353, 4.600048679427111, 6.2009814976503534, 11.597263546340583, -10.275655896182757, 1.2747341857092354, 4.66529950244604, -1.182439747561514, 4.686077625975505, 6.443135378892202, -2.6311311912153235, 3.8700403983167835, 2.75841942516176, -18.721211555463796, -17.762274801576584, 1.7889605742957684, -1.7360676511702873, -10.71030909827604, -0.10819142197072004, 4.274206173986272, 5.929527656909066, 6.500660291773092, -3.02179580430973, 5.697143208059803, 12.998444111554987, -15.784728426165696, 1.2203992081289836, -12.360119839231423, -12.189549099120441, 0.41040626834864014, 1.882811366679551, 4.851021403592888, -7.163203710502006, 5.210667699541842, -4.833612068741882, -7.534292959177154, 0.01858666119707833, 11.307657705286445, 1.6458718809568924, -3.5427875273694824, 5.065754080332965, -13.045054601337785, 9.691695857423477, -3.03774622813487, -3.3210974891526006, 12.819698357745036, -2.421124325469498, 17.259449693309264, -5.162939524690362, -1.5052014138095098, -1.6132360910349473, -10.316663478230426, -19.12071424421159, 14.09770236134114, -12.076057511785734, -3.558874065918796, 3.24063828199345, -2.229489669133055, -8.49936358368543, -0.7772314666233047, 4.47302414652486, 4.5135824377352876, 10.315480213822328, -18.729310767629077, -3.9144271963085258, 22.365255257396242, 0.07127186457181733, -9.097557600684741, 2.9603496469357595, 15.422941768760356, -4.559242895979593, -0.6140744846225797, 13.195472508982311, -7.273293813274163, 12.50646865434064, -6.087629184735159, 2.0552495954386334, -5.496925317446541, -1.7480512247555315, -12.455203582348158, 5.857543209066542, -0.613438440896724, 8.18750919213854, 1.14694611069641, 10.983687165056109, 2.9426269092087476, -3.7622309061891914, 5.996479323343544, 15.496998051045654, -2.615804718145031, -9.793779787400792, 11.010520959766989, 0.6095327909392432, -3.0622706364850076, -2.5193250209790508, 7.475879314094173, -11.643456213602377, 17.82369761554332, -7.309433900701555, -0.13719816332083556, -2.57949276155391, 11.649102578896288, 7.057582913727774, 1.3107325688070735, -4.324647456773032, -2.625262675604229, 1.0180144789362906, 12.11694779167261, 20.215834800669683, -0.09996575207072386, 7.834377667960954, -1.4106655945183415, -9.340113325844609, 1.083323734570958, 8.564591247898662, 4.073086411846566, 9.40154946066857, -12.394920825069184, 3.919417092326478, 4.9091109481343, 12.29576109473994, -1.647097256843356, 1.3400143349894011, -6.3490062995569545, -0.49489537432605163, -7.7956259096032605, 2.1704557039439365, -6.12810247557949, 24.940986360069292, -1.2598966717532414, 2.8887420043606755, 2.7506920970374087, 4.879118287539261, -5.026240955103582, 12.291896624558548, -1.277167923185415, 2.0619911698463533, -9.991721466983197, -9.937444759658101, -4.04630730337655, 9.17932730383637, 6.231810426127323, -5.60986134320926, -9.63820565968311, 12.657077747542964, -3.6391277284231154, -11.229039847948789, 7.537219307148461, 2.632728604759769, 6.779871740539166, -18.78876760803181, 5.032260293938884, 5.4850281861550085, -7.952873402267801, -11.78795139112584, 8.2605977587561, 9.127776993930723, 14.009980651394338, -6.111951789997824, -0.36703397194460513, 14.178814656805434, 22.321730998257724, -2.553501414084018, -2.7119399989399318, -8.403984817780907, -0.12986452193033968, 0.6834946378914595, 13.35534417839456, 6.022017260955814, -7.535697632805693, -9.77498342325539, 3.8203858840206633, 9.688339780780794, 8.498475854942404, 0.4091390186736697, -11.82971195322621, -17.279084165236213, 14.185449130530285, -7.138474735605697, -5.260985603595078, -11.175387265966393, -6.611668191471952, -3.8595061451434494, 10.657104821652785, -5.976676076983485, 2.589497253790033, -11.876578951569027, 4.7476648999633975, 11.844077197117784, 14.08478191650143, 8.464732519626068, -3.7240053107988467, 17.01182533790839, 1.2750381944080744, 2.4018811519749868, -0.2783784041631334, 1.444707991544184, 1.3436881827023375, -2.686161616593125, -6.092838356479257, 17.739451430075963, -5.682717837628752, -5.072268884230193, 12.21146493515314, 8.437419430901905, -10.8148042250815, 17.41663108104183, 15.59649386615082, -4.641972724735507, -16.330892101568136, -4.607580805606241, 1.697402462192891, -6.248934829075954, -14.490508686725523, -9.335881800281806, 9.493161663253467, -5.259436293566007, 7.556757460915634, -1.9684549079817617, -8.114139252731222, 8.781445248998756, -10.756567879477442, 6.361820029406871, -0.049147113639885415, -8.323472483187652, -4.082239499935158, -5.659223512136931, 4.095425714261965, 14.33280971962437, 2.8400347347207675], [-4.086431944618919, -1.4964975444846578, 15.16778906020071, 1.856946341695789, 16.45200674389416, -2.706245479669652, -0.9318802212942264, -4.487970025394171, -4.307324874170701, -6.133048740347328, 5.315696707567096, 4.621573349304826, 18.287260446117266, -3.374117813774532, -1.1283456611019305, 10.36901271066595, -3.434147712373582, 2.628783236562322, -11.480263613493172, -1.9909083830496017, 5.10349241009018, -4.887173296176922, 9.118332796837425, 3.0995506644263706, -7.373135924016903, -0.33743173353098754, 1.2824134541917132, -12.737865962636452, -2.4506005671160387, 12.314434995601854, 0.3547413476482706, 0.01719620740140404, -3.0252689073765566, -0.6939070048524623, 8.515523692375623, -0.3119631458873619, 3.6494419303227956, 2.141354799592749, -15.425378056299996, 8.918703659729344, -2.405199630775862, 15.094939393979757, -3.718822041167878, -16.54385786756945, -4.0975199107025055, -20.63002580800909, 4.2724871942028555, 0.017931656980097133, -4.857542938613239, 11.668723269334226, 12.826852612437596, -5.689300969082121, -4.085106629098243, -7.020450622054192, -7.504890238735523, -9.546928478149773, -8.979421678230315, -7.050558060354623, 0.029628371021714388, 4.2925617739714985, -11.907084761222093, -21.549294422096384, 1.2412032350762825, -11.709562894025563, 1.3650761476322901, -7.194369578593291, 19.785716301495945, -7.417654300336109, 2.34229764226932, -2.2451793746269093, -6.870786314939705, -20.610665825934525, 0.1506489980468393, 7.583385536560235, 6.695491653019169, -9.997617484190707, 2.4714894760982764, -5.472185626367204, -8.513562658319467, 4.867764203241839, 2.20943863726918, 12.0966217444014, 9.184435025255505, -6.043971393655224, -6.3326700425044535, 9.319629686063955, 3.2408486681750874, 5.3687515234620795, 25.56274921820206, -10.642662926984949, -30.116286445255096, -4.010132783479839, 12.078959699705125, 5.205183554189879, -1.326981183644468, -0.8986107022872636, 6.280695073145214, -4.89115851659248, 8.722162355499249, 0.4699810922709312, 8.582975828404996, 11.549321654267603, 1.4999609233467008, -12.629219058636398, 3.239578472045891, -10.105973582420466, -0.015758832315656612, -10.31656211507991, -12.371901101803244, -0.9289127435873527, 7.33706593101587, -7.0247447457645, -11.298130383549447, 3.965690770194069, 1.1573788051756362, -0.7215911820606083, 1.77641772927481, -0.12793560924111358, 5.9621419990945235, 7.41033792294379, 0.37146999269738196, 0.3536699425685408, -10.126015450695107, -17.006121149236563, 1.483031907864838, 4.857446103853589, 6.457753770010009, 11.634922289126253, -9.390877235979248, 0.9151208657026019, 4.66529950244604, -0.6048893326831694, 5.1533504974044755, 6.699243007435125, -3.2206173169528793, 3.447073885093414, 3.071977247066591, -18.393898261697565, -17.496238516649612, 1.7889605742957684, -1.7108518652396687, -10.3314994242917, -0.0581670422458261, 4.043071068616855, 6.2063144172449975, 6.500660291773092, -3.060845583664806, 5.757284684507045, 13.559175458603773, -15.499548049570409, 1.2203992081289836, -12.18437707054231, -12.185109660567468, 0.47415094918686074, 1.882811366679551, 5.158271223459751, -7.163203710502006, 4.8136193707157355, -4.707146106008957, -7.498303503778399, -0.2400919958774147, 11.662864262714875, 1.635556555685507, -4.37998888530058, 4.982416445959358, -13.44384662731339, 10.091791325009426, -2.8710828934412396, -4.669760734416826, 12.819698357745036, -2.691129678401698, 17.684653027891223, -4.186431008885836, -1.2760263662259914, -2.1424307099542594, -10.018320292221338, -18.113158957932466, 14.09770236134114, -12.076057511785734, -3.85629120170181, 3.7383876070531503, -2.104557000035932, -8.308279226545112, -0.8122542106676905, 3.9437384983746386, 4.787373931925702, 10.23602924038826, -18.61667812694345, -3.6662121344081213, 22.974425095523184, 0.33561160012089497, -9.442018927657024, 3.8166627520843397, 16.27756505610281, -4.5329775220631845, -0.6140744846225797, 13.069490144622849, -7.105797963806532, 12.742935485218215, -5.926120235769586, 1.579154958864563, -5.496514955507391, -1.8099411623428732, -12.321502936639233, 6.037860847723691, -0.7903318054388724, 8.3109208625638, 1.1649327299177525, 10.983687165056109, 2.839938936619329, -3.7717575922319977, 6.37429677380622, 15.53569557636555, -2.3363487545592267, -10.769799599229623, 10.892133742204159, 0.6095327909392432, -3.43737608871044, -2.3626511186101595, 7.475879314094173, -12.039446169423456, 18.416725883395063, -7.687107071939639, -0.30900388800196543, -3.0813953148699196, 11.985443319550702, 7.845685158203364, 0.981507597469361, -4.1512162484895265, -2.8791941285604135, 1.2967608595375488, 12.440316565428024, 20.29787108868569, 0.15109550809317354, 7.900343627551508, -1.5897432855852092, -9.135627544522158, 0.40684547274108773, 8.638122520963496, 4.406431482728425, 10.405579885749114, -13.85864809606571, 3.537431087619299, 4.1244907442018715, 11.99747969997445, -2.022821759097739, 1.1850858258868784, -5.905327300714716, -0.2171699217014501, -7.376338111108535, 2.207448246013454, -6.099824201418208, 25.009828862260484, -1.6475983237961993, 2.8551069878475612, 2.9870195109709115, 4.974716507700981, -4.79198990044758, 12.328417509643163, -1.2522382716962133, 2.0610966792784264, -9.991721466983197, -9.937444759658101, -4.31366097812104, 9.608728257775141, 6.579534803632419, -5.847239765140137, -10.70183909675645, 12.7199614206751, -3.6391277284231154, -11.15607619966707, 7.617823638461925, 2.636133129780918, 6.690654554111102, -18.80158589121972, 3.1941053580405394, 5.562358978140712, -7.58739998271796, -11.899073036107, 9.130701784136786, 9.258505990178472, 14.37479860084143, -6.260148112536409, -0.9651405118599483, 14.669142297951288, 22.321730998257724, -2.264680509488763, -2.3357477673356777, -7.362335189830159, 0.20172322560533967, 0.5643387340344725, 13.110593484941818, 6.131511292253554, -7.041365079094928, -9.509460894010015, 4.361400370789112, 9.688339780780794, 9.526788306038585, 0.4813225301758545, -11.269714132849517, -17.13936373742578, 14.53732896637418, -7.077806971805615, -4.631388975870414, -11.066885494534116, -7.003339852236223, -3.6577774964130874, 10.875070086178615, -6.114517541684511, 1.629720771762591, -11.876578951569027, 4.856730329704696, 12.169454014315486, 14.08478191650143, 8.14966619036767, -3.865123032902664, 17.451220365848506, 0.6134721982382433, 3.0840386835193283, -0.1728907533414072, 1.345230371218926, 1.4085004380755672, -2.686161616593125, -6.0162024558144935, 17.939430776859396, -5.682717837628752, -5.565792059098182, 12.231991734685009, 8.31892330392285, -11.450199434225485, 17.26365486203496, 15.902727909743309, -3.6148787166453142, -16.100694453522035, -4.867095394030703, 1.697402462192891, -6.412111289517799, -14.298978239211246, -10.989046726432534, 9.692172128242458, -5.273917012721942, 7.491055894024647, -1.7955146826282586, -7.783942667336795, 8.531566697816585, -10.924903458603522, 6.322085259540609, 0.5396528387783815, -9.492637729191305, -4.231513808788706, -5.906650818489911, 3.8606969276869916, 13.956794123850642, 2.8400347347207675], [-3.920381263911488, -1.3126741591548272, 15.32584922441777, 1.183281962546468, 16.242888042848737, -2.970961021098587, -0.8798016317398465, -4.34670189457049, -4.307324874170701, -6.221399738304073, 4.328980798232928, 4.536425840459729, 18.283104469534557, -3.548046139064528, -1.1591949339081709, 10.369432264490566, -3.4980871723712017, 2.9210143613825656, -11.557173326874846, -1.9859507367543745, 5.10349241009018, -4.051100536322358, 9.118332796837425, 3.205705126660085, -7.373135924016903, -0.04980966594923486, 1.4281289126928125, -12.712762896535077, -2.4506005671160387, 12.170421518072839, -0.3517346910481802, 0.01719620740140404, -3.0252689073765566, -0.6290165485675032, 8.515523692375623, -0.26463646486765796, 4.0400011911714895, 2.4131780933777143, -15.01743912646097, 9.151456633755119, -2.6139996048206164, 15.094939393979757, -3.4732188684791434, -16.681103809761236, -4.0975199107025055, -19.99099240914923, 4.546979484859333, 0.26828626366293845, -4.857542938613239, 11.668723269334226, 12.826852612437596, -5.86190008039791, -3.8730024199027775, -6.681470783534984, -6.809259440503071, -9.546928478149773, -8.830421086356246, -7.050558060354623, 0.029628371021714388, 4.2925617739714985, -11.595670440119212, -21.549294422096384, 1.2412032350762825, -11.49936540377754, 2.0647440971197173, -7.082191692360713, 19.638921443630707, -7.2386234813069805, 2.5220385032304433, -2.199118229302529, -6.557076682862525, -19.95643535792647, 0.1506489980468393, 7.332785818480761, 6.4064927247132655, -10.228099344951557, 2.5349621670361744, -5.269921843317105, -8.807097306527725, 4.867764203241839, 2.2357419560783685, 12.0966217444014, 8.752609020322605, -5.941520981033303, -6.6314632055393785, 9.319629686063955, 3.417746476323912, 5.476869149370905, 25.56274921820206, -10.526295911769855, -29.992122407073126, -4.133232051854682, 11.61478659537336, 4.634817583346889, -1.326981183644468, -0.8384994335369411, 6.214047528571425, -4.394755602838543, 8.208856334367647, 0.15777324469344867, 8.45623645612135, 11.692804482546968, 0.9032701780157776, -13.16609797454985, 2.6365853769122625, -10.647336873766136, 0.4699612103738736, -10.384604338795048, -12.123785857034893, -1.248371532069378, 7.245117660419886, -8.129793627324357, -10.260860473984904, 4.485122960584714, 1.1573788051756362, -1.1454870513870028, 1.813764944634634, -0.12793560924111358, 5.2391316391978595, 7.41033792294379, 0.471889966825422, 0.5329181664945188, -9.679078314782865, -16.831110019867456, 1.7168481884294353, 4.635659609623178, 6.625425544847816, 11.672203530432748, -9.390877235979248, 0.6905764375439073, 4.618718745677689, -0.7915058917129657, 4.391872113073854, 6.5833376152020096, -3.1588911982390115, 3.664837579410993, 2.9157197578091414, -18.603475774672354, -18.318986031936173, 1.7889605742957684, -2.1222844762342925, -10.30757126053217, -0.05185931897941769, 4.1489775208412905, 6.672660224664724, 5.891335926570736, -3.1614601153462623, 5.757284684507045, 12.883928661552643, -15.499548049570409, 1.2115360771095878, -12.322300262543703, -12.185109660567468, 0.5609325390486932, 1.983610890168696, 4.855301828284139, -7.163203710502006, 4.873782251547055, -4.8498003442668844, -7.498303503778399, 0.15527801805946428, 10.697725715901077, 1.635556555685507, -3.3626133389775683, 5.23230149698665, -13.37287916851653, 10.186945252830355, -2.6286300268871554, -4.101662117191117, 12.5804548928543, -2.627336648480197, 17.399495214416923, -4.313431971345832, -1.2760263662259914, -2.2171305236513965, -9.917933720050605, -18.113158957932466, 14.09770236134114, -12.076057511785734, -3.2292854037350462, 3.488671761796129, -2.8250172774599647, -8.245723341870777, -0.8122542106676905, 3.9437384983746386, 4.454471921422115, 10.23602924038826, -18.423728849761808, -3.4923236516727334, 22.00982864318418, 0.33561160012089497, -9.197066636867465, 2.9731136767378787, 15.938390383835385, -4.590031134621747, -0.3670834396928876, 13.195472508982311, -7.273293813274163, 12.742935485218215, -6.456554146210691, 1.5945470258214067, -5.372837641819241, -1.0049052183840097, -12.321502936639233, 6.206647545948374, -0.5382518111880121, 8.33787035857606, 1.289819611527867, 10.94974023656048, 2.7220621370370384, -3.7717575922319977, 6.37429677380622, 15.53569557636555, -2.4298558137696666, -9.874638710074763, 10.764738258362186, 0.40401945320336197, -3.2430632786081723, -3.224086588894095, 7.475879314094173, -11.643456213602377, 19.12453611540371, -7.4551956333417175, -0.3043054839620656, -4.01768824118065, 11.649102578896288, 7.171270747904982, 0.911401838267156, -4.1512162484895265, -3.043220226028943, 1.0180144789362906, 12.602116442407555, 20.478903411775647, 0.6333442877479349, 7.906924712194465, -1.6009561978300768, -9.251954930404708, 0.7083542795054929, 8.638122520963496, 4.073086411846566, 10.415181789556016, -13.85864809606571, 3.525277952227102, 4.264570583289892, 11.947416825444446, -1.647097256843356, 1.3400143349894011, -5.905327300714716, -1.053588036618332, -7.89350593381034, 1.874999021687275, -6.253541189543292, 24.73698512567138, -1.2920815867867192, 2.7125604026251096, 3.2708455333403337, 4.974716507700981, -4.79198990044758, 12.389015429856185, -1.097665559977264, 2.0610966792784264, -9.991721466983197, -9.549954980712997, -4.31366097812104, 9.32166933469739, 6.229401832976085, -7.088966944527351, -10.400646059306126, 12.657077747542964, -3.7007089260887036, -11.160796137731626, 6.936152169885587, 2.636133129780918, 6.690654554111102, -18.80158589121972, 3.1941053580405394, 5.562358978140712, -7.58739998271796, -11.899073036107, 8.384382389100718, 8.606863379432887, 15.42228606974845, -6.260148112536409, -0.5793290979919713, 13.952480138214451, 22.28464816446599, -2.586449667682193, -2.3300240957115013, -8.292693924348765, 0.030746700663138057, 0.6834946378914595, 13.35534417839456, 6.4635436599918155, -7.405857282852366, -9.509460894010015, 3.9264877066825377, 9.886353789928943, 8.507038563831891, 0.0397383295621825, -11.819000534405099, -17.0095769601463, 14.034231887587822, -6.888012142462539, -4.592688673904053, -10.961770170827632, -7.1354443033007655, -3.671118777823822, 10.657104821652785, -6.19741981404816, 1.7142422885337851, -11.890593722305537, 4.747103549833955, 12.169454014315486, 15.090727009868754, 8.579680477581983, -3.865123032902664, 17.312945035929037, 0.7019326176381752, 2.751109263540909, -0.1728907533414072, 1.345230371218926, 1.3436881827023375, -2.686161616593125, -6.387992430980926, 17.739451430075963, -5.678704605931281, -5.565792059098182, 12.244244559431019, 8.518435132182136, -10.732234595756498, 17.41478927027219, 15.902727909743309, -3.6148787166453142, -16.141014811387546, -4.490060524678033, 1.871646118058591, -6.352118058421108, -14.298978239211246, -10.401387965071422, 9.692172128242458, -5.149660185818104, 7.310168766503563, -1.826451814161874, -7.697588123409839, 8.987076029143072, -10.882251711164376, 6.2213621557375935, 0.3054247638515205, -9.423331825075463, -4.749463266593086, -5.9988389350088145, 4.010007474227166, 13.956794123850642, 2.5967830850906255], [-3.97818746054011, -1.4248098513538603, 15.248818998398448, 1.856946341695789, 16.279554640073133, -2.3565540089459667, -0.7391605218282702, -4.738740253805998, -4.307324874170701, -6.133048740347328, 5.315696707567096, 4.621573349304826, 18.368468053914413, -2.115499125631767, -0.9557737101849748, 10.543992193004886, -3.434147712373582, 2.628783236562322, -11.480263613493172, -1.9984129777096857, 5.289137634773898, -4.887173296176922, 9.118332796837425, 2.8283220545552377, -7.878233092630626, -0.137728455128518, 1.2824134541917132, -12.712762896535077, -2.7732644408071225, 12.314434995601854, 0.3547413476482706, 0.28763868935664705, -3.0634546429686735, -0.43539376163095944, 8.370364423607818, -0.3119631458873619, 3.659852852399473, 2.1605221891293303, -15.425378056299996, 9.29343001938837, -2.8162130184296794, 15.029086359308815, -2.9602558858846817, -16.721522483434644, -4.0975199107025055, -20.815910046143646, 4.546979484859333, -0.12301800261741713, -4.740302069537409, 11.668723269334226, 13.115631569191345, -5.496456787502381, -3.2375207777174095, -6.681470783534984, -7.1514536078252355, -9.565297301655205, -9.074407255488193, -7.050558060354623, 0.08348371411562147, 4.2925617739714985, -11.945566114579679, -21.280022348506098, 2.073162118797744, -11.528437381305068, 1.3650761476322901, -7.336875523794469, 19.50050951328638, -7.960947878548725, 2.5220385032304433, -2.6464682375624626, -6.870786314939705, -20.62632393118019, 0.1506489980468393, 7.332785818480761, 6.695491653019169, -10.199369930401108, 2.5028788123509846, -5.795906932798896, -8.594545856896467, 5.055747015079033, 2.289129727859759, 11.912324390566543, 8.930658211961475, -6.292636513004238, -6.3326700425044535, 9.196038669273008, 3.2408486681750874, 5.593896644986041, 25.73838357156553, -10.642662926984949, -30.287677422568454, -4.357079459117521, 12.043199003208729, 5.205183554189879, -1.326981183644468, -0.8986107022872636, 6.280695073145214, -4.683068504482638, 8.422436342913892, 0.4699810922709312, 8.097687073069238, 12.019854630399726, 1.6211739246018972, -12.638105952219592, 3.072816052168922, -9.51637512563679, 0.7320682007163066, -10.384604338795048, -13.730717987403672, -1.9654961456117925, 7.245117660419886, -7.0247447457645, -11.12097360297585, 3.965690770194069, 1.100630596176802, -0.7215911820606083, 1.813764944634634, 0.039592820347718494, 4.982453996295197, 7.256515908147772, 0.0016467032626596712, 0.25610382553220623, -10.126015450695107, -17.006121149236563, 1.3868073248724933, 4.711763982965121, 6.2009814976503534, 11.726531964922762, -9.450587092831295, 0.6398879091780687, 4.796793642647805, -1.0935417471323874, 4.894146810820387, 6.310091656909115, -3.165012026325496, 3.447073885093414, 2.7804902025870004, -18.393898261697565, -18.128429117432397, 1.7889605742957684, -1.9809266028915167, -10.3314994242917, -0.08069637741267566, 4.204256941842459, 6.299413370149454, 6.500660291773092, -2.9789500579705415, 5.697143208059803, 13.062749093549773, -15.892910429092451, 1.2203992081289836, -12.51207990683927, -12.150334541446822, 0.47415094918686074, 1.7621021742574057, 5.158271223459751, -7.162490279733573, 5.035494309239897, -4.707146106008957, -7.4582794741667895, 0.9603966353273761, 11.498136494792755, 1.1976277318229047, -3.391824246067115, 5.1967803521895295, -12.517439979759471, 10.111611024962668, -2.8710828934412396, -4.183175646931534, 12.70242038555863, -2.691129678401698, 17.547228189263983, -5.527682258857466, -1.6389893820529151, -2.1424307099542594, -10.018320292221338, -18.113158957932466, 14.09770236134114, -12.140799183467193, -3.9278535752128874, 3.7383876070531503, -2.104557000035932, -8.702761270593276, -0.8122542106676905, 4.47302414652486, 4.787373931925702, 10.23602924038826, -18.17047899655212, -3.495319278368913, 22.974425095523184, 0.8309795278742094, -9.437855075159192, 3.648072792612098, 16.974804416397753, -4.5329775220631845, -0.3235659004949639, 13.069490144622849, -7.105797963806532, 12.817239127547388, -6.1163137665975675, 1.5796444000338346, -5.411337316281503, -0.47614817038198537, -12.606061148044452, 6.037860847723691, -0.7903318054388724, 8.33787035857606, 1.3593151611462302, 10.983687165056109, 2.9910135777123634, -3.7717575922319977, 6.316052291747177, 15.53569557636555, -2.3363487545592267, -10.769799599229623, 10.892133742204159, 0.5255428077071849, -3.4688806363005407, -2.5193250209790508, 7.388767255619559, -11.643456213602377, 18.416725883395063, -7.128747551146759, -0.30900388800196543, -2.7387734253751908, 11.783652626028596, 7.7150223864139065, 1.3107325688070735, -4.205242888557773, -3.059171009285695, 1.0180144789362906, 12.440316565428024, 20.29787108868569, -0.17372181254739735, 8.430152491385611, -1.6009561978300768, -8.709364208934495, 0.3251084770750409, 8.563312634774515, 4.022437636490732, 9.885900704452206, -12.941528315253363, 3.4914516433264695, 4.264570583289892, 12.058073501356171, -2.022821759097739, 1.1850858258868784, -6.046113279523001, -1.5687176368078877, -7.591313593848813, 1.998162548206191, -5.981175085019037, 25.729834096710857, -1.6475983237961993, 2.6782452835977564, 3.2301402469247535, 4.187854416364733, -4.897375129228405, 12.102295838081965, -1.2550874069150377, 2.0610966792784264, -9.964755860153982, -9.937444759658101, -3.81062476983981, 8.978878630870527, 6.330044559753722, -6.246600036163978, -10.6910600195774, 12.677303187228455, -3.992039245638235, -11.160796137731626, 7.617823638461925, 2.632728604759769, 7.548118192094114, -18.843392452220684, 4.7654066004816, 5.541398944473986, -7.58739998271796, -11.899073036107, 7.910648583671984, 8.920960311209233, 15.671394804386013, -6.246687958897423, -0.9651405118599483, 14.669142297951288, 22.321730998257724, -2.6644783894605975, -2.72209299799632, -7.362335189830159, -0.01564730429635014, 0.5478413807725833, 13.110593484941818, 6.4635436599918155, -7.670884937305247, -9.77498342325539, 4.336979720728051, 9.209226732184348, 8.507038563831891, -0.023906528848843436, -11.82971195322621, -17.378034130660694, 14.034231887587822, -7.077806971805615, -4.979786267652256, -11.175387265966393, -7.1354443033007655, -3.520435796295064, 10.806083742234142, -6.088451228025583, 2.657523278450159, -11.876578951569027, 4.6919470746476035, 11.861999736408707, 14.08478191650143, 8.14966619036767, -3.865123032902664, 17.396638861323034, 0.6134721982382433, 2.5382059568202915, -0.1728907533414072, 1.246670275672452, 1.3436881827023375, -2.701865501169887, -6.009898360587078, 18.075323731042182, -5.293288049961788, -4.780584206804004, 12.231991734685009, 8.437419430901905, -11.248482816119754, 17.239697241759085, 16.44015034642652, -3.4315897783355442, -16.100694453522035, -4.490060524678033, 1.8723053370506366, -6.352118058421108, -14.490508686725523, -10.989046726432534, 9.493161663253467, -5.149660185818104, 7.491055894024647, -1.7955146826282586, -7.783942667336795, 9.045954605665216, -10.432485570455782, 6.48461554584992, 0.1787471335009929, -9.492637729191305, -4.231513808788706, -5.659223512136931, 3.8606969276869916, 14.062628732470765, 2.746143704628419], [-3.920381263911488, -1.4530330761637897, 15.342180120524118, 1.183281962546468, 16.45200674389416, -2.706245479669652, -1.2992373056806825, -4.477841280211751, -4.307324874170701, -6.221399738304073, 4.328980798232928, 4.632296538816969, 18.532005084523345, -2.115499125631767, -0.9557737101849748, 10.36901271066595, -3.434147712373582, 2.628783236562322, -11.480263613493172, -1.9859507367543745, 5.289137634773898, -4.051100536322358, 9.607593889357025, 1.3062027582856088, -7.373135924016903, -0.33743173353098754, 1.4281289126928125, -12.737865962636452, -2.4537588675956177, 12.138498919459153, -0.556396921196405, 0.01719620740140404, -2.6800025680178168, -0.6575531750417795, 8.11929452309295, -0.2559438097572791, 3.6494419303227956, 