{"agent": "GeneticAlgorithm", "version": 2.0, "generation": 430, "hyperparameters": {"pop_size": 200, "elite_count": 5, "mutation_rate": 0.1, "mutation_strength": 0.2, "tournament_size": 5, "layer_sizes": [12, 16, 3]}, "population_weights": [[3.298355005208863, -1.1548879197329973, -1.5014089277605358, -2.0748569527485023, 0.13323084560059906, -1.38763574762534, -0.8059307972153457, -2.3476849830243833, 0.8680983539200632, 0.9992009858015694, -0.6293071792266678, -1.833139068549723, 2.1358831359329713, -1.4870890241302759, 1.5051208759878343, 0.7198290490804498, 0.3912666466761796, 2.1563327515645465, 2.4151624805132896, -1.5798924056210175, 0.37194469827248633, 0.7594417779296196, 0.5167456810729943, 0.2771931256900436, 0.8017176384264255, 0.3307919291622873, -2.8797748401855277, 0.6149844456873079, -2.6987230696424116, -1.4376784525579291, 1.128578180610447, 1.0575350573866726, -0.4459453224016023, 0.47358658957341637, -0.7793543079891229, 2.8668498332998333, -0.4459428703803914, 0.16729596687442538, 0.3554538568110846, -0.43316332963159393, -0.6504403613953953, 3.3704816948637943, 1.2481943765903578, -0.2884095662947725, -0.6852385687769376, 1.7727066665786821, -2.266943170635926, -0.29912264191224835, 2.041702924552083, -0.6814706695213688, -0.46651085016074495, -0.4004289008804112, 1.1213541373824587, -0.23595117901820029, -0.43893974135876423, -0.4283351769102689, 0.5084562372851257, -0.3864583774325268, -1.3337434874237943, 0.4258732870587485, 1.8233333974591186, 1.1484464882964711, 1.0403708453004068, 0.11491243019060594, 1.9455105389838068, 1.05893519024504, 0.7910262675867057, 1.8505338929137147, -0.10464730897568338, -0.7508900342381788, -1.488994708154501, 2.7705457192185854, 1.5516943288220957, -0.4226849172679747, 1.5597408787380418, -0.22847386044855153, 0.5966772008806299, -0.20595048699957924, -0.9077092928831283, 0.6976018943322019, -0.16210241232677483, 0.4445127056835958, -0.10215879792985985, -0.3853322072493663, 1.04492127200303, -0.7602112886744727, -0.1746833565584545, 0.06184042410832055, 0.21022230870151562, -0.4935180258502264, 0.5426963833790565, -0.2150776716821445, -1.8615534576760306, -0.05562067065545609, -0.3100288675574252, 0.49867289497747036, 0.896813745992308, 0.9401866661325473, -0.23925616582184003, 2.8984468756974526, -1.1879633023557732, 0.35427524711515146, 1.380757279263918, -0.03945920314608712, -0.3129058171213386, 1.682397945104521, 0.20511017449555025, -1.0474298384698268, -1.2399591974741153, 1.7854885083131806, 0.41100183883877217, 0.8944982349625841, -0.5757936535291736, 0.34242780009246465, 0.19219334843786287, 0.4941535376142236, -0.27047301713954397, 0.21965124388642163, -0.836584355156004, -0.5167175057903897, 0.36852977481053695, -0.33113516518416797, 0.4858497184480738, -0.05835461569105055, 0.19764877266002315, -0.7939500878544618, 0.39003871685392477, 0.8500880994603092, -0.16769073665616877, -0.403199396045732, -0.10873798093254561, -0.3975170511626176, -0.24801745853266005, 0.2803072653721846, 0.31047921425931524, 0.832144654992146, -0.913250793891331, -0.5350696126779046, 0.3001988741216908, 1.423515940600427, -0.06708413764225475, 0.9099899121010484, 0.129433721663981, -0.6200801354340125, 2.458127715281078, 0.7866456022303557, 1.0271267355777067, 0.7636805698516641, -0.1563527213852737, 0.3999523560362294, -0.49256026241808576, 1.325429109276243, -1.467094414907273, 0.6431807690325259, 0.3194462656965048, -1.5696828199021144, -1.1179736133763578, -0.6888560186146963, 0.4317374664900849, -1.3717465796533432, -0.6131526443047037, -2.992928653762051, -1.4255402780865007, 2.0491560064895666, 0.023960587148880386, 0.6918549277229733, 0.0929707700045992, 0.6357754225835832, 1.2979583493557916, 4.2910986981268975, 0.7600070648954589, 1.061809189824458, 2.0704467386768597, 0.9395339287666825, -0.5263540408218847, 2.320067640800536, -1.2197936006901693, 2.5197178213786477, -0.4255147234214479, 1.6267111275457966, -0.27983004507370995, 1.4973181069409092, 0.01918128146172933, -0.2605668234673447, 0.01599001377594747, 1.3193254449323488, -0.8369183197535397, -0.6514808724210422, 0.518985056043637, -0.032116959453484195, -0.19896179448953288, -0.4808237102166001, 1.1164777530599448, 0.5962798659202909, -2.803713015977835, -0.18025371855662353, -0.7768180096047619, 1.297403114960479, 0.6761405554213373, -1.182075548213766, 1.0015470642391329, -2.0462857444057443, 1.207916308897938, 0.26527296875227213, 0.4025518807993986, -0.26081249409929363, 1.5613444610824938, 0.3720880178576885, 0.08633335629622688, 1.129048952197357, 0.853914632219151, 1.2989140420867462, 1.5846090399317347, -2.139693990881755, -0.8953785838252554, 0.8108238327230891, 0.739873795829757, 0.6443688253516288, 0.3565759144398501, -2.683171355422126, 1.751144841973543, 1.337986142875673, -2.254871438248529, -0.217174876945851, 0.4326999581591384, 0.4171915680912125, -0.051496563569082575, 0.014993389777516533, -0.28016906397714836, 1.962527568424318, -2.1307005936721373, -1.8393477104303233, 0.0703102006649258, -0.17160033809041703, 0.6023883206521216, -1.537575473735098, -0.4329854610554266, 0.6904903805854468, 1.4778014037975584, 0.9799594526107311, -0.0029513095840121017, -0.043341404353742355, 0.7753924862394572, -0.3943087820107969, 0.25799195533025915, -0.5565450377997191, -2.266539458092191, -0.06976407710693736, -0.217313512418835, 0.9285409264284383, 0.24481510961761357, 0.740117485939449, -0.0933147646300427, -0.6021326951534498, -0.466612721122974, -0.3429096597554817, -0.07233248997227645, -0.8132782250888092, 1.831255188428413], [2.8227685686366155, -1.332413986152832, -1.6062741653439856, -2.48404286090347, -0.0721444156331751, -1.3597329819620754, -0.7798940972026696, -1.8690838098914264, 0.9002606624707837, 1.0862254963214388, -0.11362549468221828, -1.5102248842220636, 2.2216534887919357, -1.4861485669112897, 1.1461892628956767, 0.7581792194752057, 0.04358428466910712, 2.3235068082493244, 2.616931099070407, -1.157376352316164, 0.860323418948475, 0.7998359452661892, 0.7592240634372897, 0.454752709330827, 0.2909048492904383, -0.12275293823065828, -3.3524646822977204, 0.6058857324079618, -2.6987230696424116, -1.4376784525579291, 1.0069669922837219, 0.9325489985822146, -0.6732744480022516, 0.17304463318298927, -0.6820738212002287, 2.950063621441954, -0.47238368597058245, 0.5430907354157376, 0.3559926620313977, -0.35964131554119855, -0.5834599885527123, 3.7375771056352476, 1.138631067532178, -0.1575463139369669, -0.6417757842842652, 1.4479460827177006, -1.895819830355507, -0.29912264191224835, 1.262691607360602, -0.6875068884367499, -0.7872307206475292, -0.526959559144133, 1.1213541373824587, -0.01858264698121627, -0.45835478475729247, -0.5325426125609011, 0.2648535244590632, -0.3932199115155282, -1.0948686247872177, 0.5320426272430454, 1.8233333974591186, 0.8126160261888562, 1.8924399525856557, 0.016307856569992816, 1.9837308055953489, 0.9582952439803691, 0.8350822726727725, 1.8895533100635042, -0.07460538959720614, -0.7631423779676783, -1.7591687761570527, 2.797874023342734, 1.2829835795384943, -0.578036159137013, 1.793730710579522, -0.38591088735907125, 0.5966772008806299, 0.09160113670209523, -0.4827837555467112, 1.242794308799855, 0.606718154516352, 0.5363046996893867, -0.4530222185673471, -0.31757381525585293, 0.9268361916575805, -0.9108739164864889, -0.2299860754719954, 0.3971889197456634, 0.08023239422686473, -0.2376360700432161, 0.5212507096401345, -0.12630997366005953, -2.285096737913262, -0.692600115506585, -0.11273565066530636, 0.8519117263505708, 0.4604946743061131, 0.4797006194550448, -0.4881415288676846, 2.4466904433773227, -1.066887270271026, 0.19229476057228656, 1.032873479509104, -0.023138681374520093, -0.1252036323657604, 1.6829439331984577, 0.20511017449555025, 0.03165249963505172, -0.9901197898784858, 1.394730686971105, 0.20447138000633353, 0.5036886341488169, -0.10071068782056697, -0.012107850127669358, 0.3950715833474414, 0.9414858754333258, -0.3700623931401231, 0.7679086042222365, -1.00046044236553, -0.5167175057903897, 0.3537282889603587, -0.1677300237178176, 0.12314108975048972, -0.17736167362825928, 0.4108837319735681, -0.3107817710910723, -0.04612087002756492, 0.8500880994603092, -0.22115498527837757, -0.4673795531277016, -0.8361640251638375, -0.22340729003915571, 0.027740514767649882, 0.291336246282796, 0.42015562651867266, 0.588765009684832, -0.9155883556700477, -0.14642457078494195, 0.11842624973115205, 1.3510185436406847, 0.1822155016015315, 0.6714126017889641, 0.16783193280503986, -0.6602726762575325, 1.5900802154586224, 0.21096112240029702, 1.0092198290446097, 1.1995584529956562, -0.029780877869629848, 0.24021019822478915, -0.8879726989780079, 1.8032066599704812, -1.5420685912521097, 0.5009461246720535, 0.3194462656965048, -1.3673541523208694, -0.7091725514075669, -0.6888560186146963, 0.502733053309941, -1.508938756238876, -1.2363474143069642, -2.4818017275711686, -2.01762809949564, 2.362630027551343, -0.09641238943338032, 0.8782736614380999, 0.6666126519795894, 0.7234805971663945, 1.6789247392866269, 4.286231133981758, 1.4428602570565014, 0.9571893958833158, 1.8563055076977402, 1.1988948163576385, -0.39064529546145743, 1.9298137121031442, -1.554438872321184, 1.845089039353023, -0.4259919362423305, 1.6531343619860974, -0.5935087701488806, 1.2820772640893487, 0.581949935115784, -0.14474964857230987, 0.021727079350102804, 1.2584516827115564, -0.614279323647393, -0.8102313913680549, 0.45184255134595713, -0.1680707818058656, 0.3404266491917994, -0.5691742435171643, 1.1098197852926204, 0.49699290104569493, -2.604963283055915, -0.17608961899950415, -0.9552703921693224, 1.6625595112456135, 0.6506392809970356, -1.1154013151775053, 1.0290491292747914, -1.9991033212803553, 0.7995135275355707, 0.8701697576128736, 0.5082323727650389, -0.09172030005626527, 1.3479436800856863, 0.08430276601927705, 0.3674151713018329, 0.979090584302797, 0.8982660584678956, 1.4217690901947284, 1.487528766396249, -1.965112809509442, -0.826254119319886, 0.5741721612201839, 0.20127073706829063, 0.6969223445937263, 0.07927984992526005, -2.3243729060412193, 1.686356246579246, 1.4301204024951997, -1.624056165224653, -0.3499265531360072, 0.3709179898034833, 0.2641957211457111, 0.35508418571697287, 0.47999218780379616, -0.5075649671144435, 2.388399168047973, -2.3567997357769865, -1.3600487471772267, 0.28433293924746994, 0.36051879444058704, 0.5036336594774347, -1.3557580368232216, -1.4264197916838293, 0.707686852378167, 1.6990957653408387, 1.2214331238814937, 0.39323642126761615, -0.18816191503147317, 0.7876286960208221, -0.13953272485952484, 0.24277053513817237, -0.5303853291012955, -2.4260898535094664, -0.19217596093696215, -0.12650608489502255, 0.5996186361151208, 0.16133508205068697, 0.950469722027159, 0.050854094429806845, -1.100106740702913, 0.0887668004047717, -0.4384963120169217, -0.2793103432623052, -0.6688214689946201, 1.4551448799958213], [2.7549390325773757, -1.3525023936166167, -1.4936435263166572, -2.48404286090347, -0.797076253785863, -1.4205973369279226, -0.7771392236793917, -1.8515858448039941, 1.0871455437547224, 1.6706636932319423, -0.21475796045481732, -1.616821597611999, 2.0751389915722327, -1.6056538794557098, 1.5051208759878343, 0.5185236868765168, 0.16668776512889935, 2.1119541912544446, 2.5817627452235183, -1.157376352316164, 1.0318190868268768, 0.5874623301273805, 0.6744248576053606, 0.10118712254839025, 0.2563160225055571, 0.6705131421409147, -3.1226292232168715, 0.5078250707416326, -3.0412468798022383, -1.268083108040894, 0.5539773061030111, 0.7696136953660673, -0.863442483418654, 0.17304463318298927, -0.5875419817513357, 3.0346313733512407, -0.4098660307045339, 0.3987754804425171, 0.267195138783487, -0.36372385975819577, -0.5834599885527123, 3.3433742269818065, 1.138631067532178, 0.002501592663321721, -0.7621900851159769, 1.770065122377808, -2.573719881152302, -0.29912264191224835, 1.2570805301497965, -0.12786446995885717, -0.7557988143365622, -0.5265556000876641, 1.0774508192141243, -0.16909686133202345, -0.45835478475729247, -0.5325426125609011, 0.5698587692472628, -0.3932199115155282, -1.0948686247872177, 0.3903169187818767, 1.7465010059071622, 0.887646516530817, 1.0696010097153992, -0.23616851968219635, 2.034819606520289, 0.794077148191915, 1.1446189239422546, 2.0842697313723186, -0.1961012678052709, -0.5412312314083466, -1.7591687761570527, 2.5481126037257873, 1.2829835795384943, -0.5915004488669383, 1.793730710579522, -0.30819424559235864, 0.5966772008806299, -0.014478432506563957, -0.4827837555467112, 1.1631559273430785, 0.4050649840520044, 0.7461183460790566, -0.10215879792985985, -0.2557764625019946, 1.0736638450940816, -0.47583067204884927, -0.3401203804033709, 0.3739521051645008, 0.11481323885649716, -0.19088243432706625, 0.50905031303986, -0.12630997366005953, -2.285096737913262, -0.7994781413626347, -0.21127704270201464, 0.8786437764209047, 0.896813745992308, 0.7215037512688923, -0.661621185723072, 2.4036297305381304, -1.0475006870533095, 0.34431314642007627, 1.0547239449206127, 0.44072772160517093, -0.1608859999277672, 1.994590024985787, 0.20511017449555025, -1.1262575403112247, -1.0298318119449241, 1.1120187330031257, 0.4209564083286067, 0.6201702882881386, -0.13705005676572485, -0.012107850127669358, 0.5296602957647589, 0.4941535376142236, -0.23383737156861484, 0.9018739684006264, -1.2110630328790042, -0.5167175057903897, 1.0657484437480502, -0.1677300237178176, 0.4858497184480738, -0.23910418288812008, 0.4843220036857627, -1.0954580806878484, -0.04612087002756492, 0.8841289611894713, -0.3856328892432283, 0.04786906904922798, -0.9728487647493529, -0.22340729003915571, -0.14108749471808935, 0.291336246282796, 0.6580328310694054, 0.588765009684832, -0.9155883556700477, -0.5481963245251081, 0.1540038932282894, 1.3532696894411176, -0.027576056343100987, 0.42038408742433026, 0.21918395790063344, -0.4070213015020448, 1.6504858861193674, 0.47269763996451586, 0.7767956387147376, 0.6180637068131534, -0.10196445058437367, 0.4832202378244628, -0.6983321753366498, 1.739261016807648, -1.4938656834502013, 0.7174694094636693, 0.246347791587616, -1.3809286090239088, -1.4089020566086774, -0.5914288277796331, 0.1932797985170798, -1.3918878218125075, -1.3020449094673976, -2.4818017275711686, -2.0948746274297756, 1.8340180904062537, 0.12621362407784967, 0.8782736614380999, 0.24396278810053865, 1.2529587586877642, 1.118802580261638, 4.0722906035453725, 1.4428602570565014, 1.1492353656296121, 2.276113211625847, 1.1988948163576385, -0.3753396032467233, 1.530288815139693, -1.3973128920266336, 2.538294650869369, 0.024769772408143445, 1.7477354787724235, -0.6915685944194048, 0.7981793999952463, 0.12306943033047552, -0.31482965255648127, 0.021727079350102804, 1.271650433637695, -0.7364104296349273, -0.23964538024595577, 0.46872791962741733, -0.2524047110074018, -0.1754715657078732, -0.09351018456875412, 1.0370703566004909, 0.5960138435865738, -2.2757956213393724, -0.18025371855662353, -0.7386601387436901, 1.6625595112456135, 0.6761405554213373, -1.1154013151775053, 1.0290491292747914, -1.929318513945228, 0.7995135275355707, 0.756912538309858, 0.6109285612842058, -0.043643019937014055, 0.9989024554451726, 0.13209346971886438, 0.17471655218495877, 1.1557144664091128, 0.853914632219151, 1.4217690901947284, 1.7080812703632715, -2.3503664180635475, -1.0208620737304168, 0.8108238327230891, 0.2125365354757623, 0.7064214992261804, 0.07927984992526005, -2.3243729060412193, 1.8908210699168877, 1.4301204024951997, -1.624056165224653, -0.217174876945851, 0.5205833428196689, 0.2641957211457111, 0.07931702546045816, -0.014968003100598724, -0.13976974008133816, 2.388399168047973, -2.300505878079346, -1.8393477104303233, -0.08318526488427651, 0.15474456023621902, 0.5036336594774347, -1.861331987240598, -0.6181003437637628, 0.707686852378167, 1.6990957653408387, 1.361266284265313, 0.022165884217444937, -0.24026165678369438, 0.7876286960208221, -0.20574835656487045, 0.4273096792599929, -0.5303853291012955, -2.4260898535094664, -0.19217596093696215, -0.12959195011933305, 0.6488887788728583, 0.3534482807983851, 0.6140906345649899, -0.1363327085504335, -0.6633520079500065, 0.0887668004047717, -0.16588038071829883, -0.23526205221839147, -0.8132782250888092, 1.8550504280953222], [2.6909650051436347, -1.42814669231226, -1.6097856259840382, -2.2939659515683988, 0.2101081312728609, -1.431509150033233, -0.8059307972153457, -2.541023425627828, 1.2153972567064282, 1.7180488070012778, -0.20359891149495554, -1.5236054537471497, 2.2821187670207217, -1.4854315187001919, 1.5051208759878343, 0.8640364854300557, 0.36299853696276563, 2.1563327515645465, 2.616931099070407, -1.0938318870323034, 0.8362302338559691, 0.7594417779296196, 0.8578685302106775, 0.2771931256900436, 0.377588088251695, 0.04883810463159567, -2.8797748401855277, 0.5078250707416326, -2.6987230696424116, -1.4376784525579291, 0.7232257699685745, 1.0575350573866726, -0.6198763615613672, 0.5855843058016786, -0.8311053613685639, 3.0991279855214735, -0.4459428703803914, 0.18374335282290322, 0.3554538568110846, -0.525283301977771, 0.007838978506958902, 3.484883648848362, 1.2481943765903578, -0.22383275510204612, -0.18052264274773894, 2.009305137629357, -2.153949429623595, -0.29912264191224835, 2.2105072948653373, -0.29521417815673157, -0.46651085016074495, -0.4004289008804112, 0.1762350214781743, -0.4574504677257083, -0.45835478475729247, -1.2232470444638253, 0.4812224828580126, -0.3864583774325268, -1.3402856673803591, 1.3344123432219905, 1.7909228104871664, 1.1484464882964711, 1.0403708453004068, -0.15184155875027222, 2.04772336876157, 0.7667089524732094, 0.7910262675867057, 1.8334751401271339, -0.10464730897568338, -0.8344496103262866, -1.7302658469812826, 2.7811975055890983, 0.4317602311283806, -0.5222328373631058, 0.8567759876644294, -0.36496125870317586, 0.5966772008806299, -0.9516989740667854, -0.9077092928831283, 1.1631559273430785, 0.3624718355136104, 0.8944158866255251, -0.2588771682091547, -0.5298464129822885, 1.047934738135492, -0.8517588569780284, -0.08140816436263948, 0.45549796343656446, 0.19887408325290118, -0.30481363434455916, 0.50905031303986, -0.12372990123082467, -1.8615534576760306, -0.7947134198822489, -0.3100288675574252, 0.9558007848827701, 0.3126530402866644, 0.8595094064135662, -0.4941753998481855, 2.8984468756974526, -1.0475006870533095, 0.5610693099477182, 1.380757279263918, -0.03945920314608712, -0.25902162274742846, 1.5245982392484745, 0.20511017449555025, -1.0474298384698268, -0.9045807657768529, 1.7854885083131806, 0.33820626784116126, 0.733243849908076, -0.2555666860308522, -0.2541666506984834, 0.664058397805872, 0.4941535376142236, 0.04455292192580748, 0.7654758429891898, -1.2245593330142979, -0.4682709543654219, 0.6413819989792704, -0.09206858364320793, 0.3590764396111369, -0.17736167362825928, 0.19764877266002315, -0.777934799042138, 0.03800822063147065, 1.0425964959114524, -0.40891314197076745, -0.1815712108714404, -0.31894287946096067, -0.3975170511626176, -0.015117490533830796, 0.3505555181668638, 0.703750962862014, 0.5174899609374203, -0.9253216261023578, -0.5350696126779046, 0.3001988741216908, 1.3285885267977136, -0.027576056343100987, 1.267244308579321, -0.044419897489610075, -0.4070213015020448, 2.3315716702064684, 0.5373757077840697, 0.9318971501923743, 0.6180637068131534, -0.2880771153415651, 0.2710753153462072, -0.2637090065326688, 2.094695459291183, -1.323905053741648, 0.4518778077181613, 0.246347791587616, -1.785972883047219, -1.3587831889834872, -0.6378438891368081, 0.4317374664900849, -1.3805972714419492, -0.42108331560688783, -2.4818017275711686, -1.1412236385003063, 2.1736085598846357, -0.4094857986692615, 0.9498503647814044, 0.6666126519795894, 1.2969924436221758, 1.1809178915180496, 4.1875969697257, 0.941543561498667, 0.8018179893408993, 1.9169541784120323, 1.144902734899847, -0.3753396032467233, 2.320067640800536, -1.186578812903071, 2.6042527649427063, -0.4255147234214479, 1.7310611886959304, -0.46507876791045943, 1.2561248660015771, 0.01918128146172933, -0.2856220741917853, 0.7985148344609413, 1.3846770422445436, -0.6440959988527207, -0.6514808724210422, 0.518985056043637, -0.29227145492870676, -0.08812807194198868, -0.4808237102166001, 0.9528203903460326, 0.6898047049026136, -2.632951317468652, -0.18025371855662353, -0.7768180096047619, 1.5106710648708948, 0.6761405554213373, -1.4037356915502703, 1.0015470642391329, -2.0462857444057443, 1.1948656454491628, 0.5577869519591836, 0.5698867058021105, -0.26081249409929363, 1.5613444610824938, 0.03851844789929443, 0.08633335629622688, 1.2222425572004845, 0.9146913475146917, 1.4422702307658686, 1.5846090399317347, -2.139693990881755, -0.9962605783811838, 0.9044322662870665, 0.21215997377693327, 0.6443688253516288, 0.22311568548581018, -2.7269772604517857, 1.562503564634632, 1.337986142875673, -2.086919976325359, -0.217174876945851, 0.24540248393520606, 0.4803454778772314, -0.051496563569082575, -0.014968003100598724, -0.24452637217111362, 1.6879827820961781, -2.2261171078427107, -1.9704879026326454, 0.19609654823605363, -0.3242878089245145, 0.4053470081800247, -1.4610794636367874, -0.4316794423950957, 0.7970683902288171, 1.8480221302642807, 1.2214331238814937, -0.0029513095840121017, -0.15805256813096896, 0.7753924862394572, -0.3943087820107969, -0.24985783898527192, -0.7868895828395633, -1.83582496634228, -0.11486815357934378, -0.2842301694459173, 0.6488887788728583, 0.24481510961761357, 0.7432365962272882, -0.0933147646300427, -0.6021326951534498, -0.466612721122974, -0.3429096597554817, -0.07233248997227645, -0.8132782250888092, 1.639263046016683], [3.1675783829679127, -1.332413986152832, -1.531911605181847, -2.48404286090347, -0.4528996208485673, -1.3597329819620754, -0.6780883882938498, -2.3459412808211337, 1.3672835300878858, 0.8157043773054481, -0.8039334192196685, -1.7263377782878848, 2.2816407313803535, -1.3272211547566912, 1.5051208759878343, 1.0343708787288592, 0.4205608511232092, 2.2616967397549446, 2.616931099070407, -1.6182827806035254, 0.37194469827248633, 0.8592231746657047, 0.7150068537392673, -0.09050635195827463, 0.8488231579633365, 0.6689781917766549, -3.3524646822977204, 0.49377052353236367, -2.828484224255478, -1.268083108040894, 0.5539773061030111, 1.2779289195464814, -0.7122463769180689, 0.5160642143544854, -0.7368155937876447, 2.915062034058422, -0.3844549963953995, 0.5430907354157376, 0.48026737778962736, -0.35964131554119855, -0.08170257996102401, 3.5373651601455713, 1.030327655564474, 0.002501592663321721, -0.7475357688876473, 2.009305137629357, -2.573719881152302, -0.0557450701188356, 2.1086115859505714, -0.21333343149628245, -0.6779404085771482, -0.35540529500644547, 1.0475469004906928, -0.4574504677257083, -0.45835478475729247, -0.5325426125609011, 0.5084562372851257, -0.3932199115155282, -0.8832073374394805, 0.4258732870587485, 1.8612150767615543, 1.0949288841715934, 1.0696010097153992, -0.18081948240433499, 2.034819606520289, 0.8861107400887436, 1.1950940421655485, 1.7533144927589883, -0.013439215042752806, -0.5071640691430985, -1.7600477165882737, 2.5464672865162896, 0.9508752933081973, -0.578036159137013, 1.793730710579522, -0.4469037151570068, 0.5966772008806299, 0.06195150413592036, -0.5408749408921547, 1.1549044320923063, 0.23567694729879954, 0.4733447352596426, -0.10676970412209612, -0.3279561933666775, 1.1188179744442732, -0.41145420717309783, -0.08140816436263948, 0.3458823648865721, 0.13468402522141548, -0.2376360700432161, 0.7589193811103405, -0.03940575917028748, -2.285096737913262, -0.603470578906483, -0.3100288675574252, 0.8786437764209047, 0.4604946743061131, 0.8595094064135662, -0.23925616582184003, 2.8984468756974526, -1.0475006870533095, 0.3301454558814534, 0.7846792864672425, -0.03945920314608712, -0.1252036323657604, 1.965885908315742, 0.6197082156631548, -0.9719732681939541, -0.912581519753152, 1.8028799606504193, 0.2659291626274356, 1.083848718365678, -0.5757936535291736, 0.34242780009246465, 0.46697336132926165, 0.6619564633581319, -0.25319499374927856, -0.007810719816278636, -1.2979761621976822, -0.39436272330709865, 0.36852977481053695, -0.17098501521884618, 0.4858497184480738, -0.17736167362825928, 0.18456084080609447, -0.8910962757632719, -0.04612087002756492, 0.9897296887397345, -0.37961083039642507, -0.4495736494627162, -0.31894287946096067, -0.22340729003915571, -0.015117490533830796, 0.3505555181668638, 0.6152109898464293, 0.8613775354376009, -0.9055894835222336, -0.4066036381318268, 0.30494290488381554, 1.3532696894411176, 0.2377495276029524, 0.6714126017889641, 0.002493983411905945, -0.6200801354340125, 1.6504858861193674, 0.5373757077840697, 0.8367077244751118, 1.271831390108344, 0.06742518380551955, 0.258366983323408, -0.6927313705836462, 1.6340295984651292, -1.458671208251682, 0.7174694094636693, 0.04729462180881716, -1.5696828199021144, -1.1179736133763578, -0.5914288277796331, 0.4317374664900849, -1.1782829347728017, -0.6159975454882509, -2.4598659393559625, -1.4255402780865007, 1.9605275892853595, -0.09641238943338032, 0.9305558270555483, 0.20813295493764805, 1.2969924436221758, 1.6789247392866269, 4.286231133981758, 0.941543561498667, 0.4464180595121584, 1.8734528236011032, 1.2872112858502835, -0.34955914960331613, 1.9298137121031442, -1.2800707792369748, 2.752041384655226, -0.3881381204908458, 1.7640117873674888, -0.613654277679228, 0.7981793999952463, 0.3002572949041916, -0.14474964857230987, 0.7531728650017017, 1.271650433637695, -0.7545015235335206, -0.7087221917695519, 0.5672327896857727, -0.1680707818058656, -0.11805827165916276, -0.6106356440933953, 1.1098197852926204, 0.6746319998268284, -2.123484294958706, -0.2523226305385658, -0.9552703921693224, 1.798542025199931, 0.7586590568428431, -1.224710710590136, 1.0015470642391329, -1.929318513945228, 0.886280410303918, 0.4966823451232497, 0.5698867058021105, -0.11116667448797488, 1.2747057388031748, 0.14098951550594052, 0.17575564265789498, 1.129048952197357, 0.7947642409869496, 1.5872866351425774, 1.5846090399317347, -2.139693990881755, -1.0208620737304168, 0.6282194243548381, 0.4201606415978919, 0.8618073596726806, -0.07752017131452996, -2.267379189431118, 1.751144841973543, 1.2137296190259594, -1.624056165224653, -0.16719800298723375, 0.30758024917423155, 0.6323032757954389, 0.03011285608149833, -0.014968003100598724, -0.07556434628137075, 1.8231330257132994, -2.1289508469454583, -1.8393477104303233, 0.28433293924746994, 0.2750177614222883, 0.42113039421119186, -1.529114231361948, -0.6181003437637628, 0.8100537711880563, 1.6990957653408387, 1.2214331238814937, 0.12865597313695507, 0.20451979589317043, 1.1300103310879566, -0.10982508102247812, -0.07150008332950802, -0.7127054886256112, -2.1378406359153783, -0.0776793729739989, 0.02452945527549498, 0.6488887788728583, 0.3400105414232211, 0.7432365962272882, 0.050854094429806845, -0.6633520079500065, -0.466612721122974, -0.41245593585702567, -0.2598929349680061, -0.40315250651403767, 1.6332546032019253], [2.7951802339751755, -1.42814669231226, -1.640233133731152, -2.288797702528374, 0.22658136168853935, -1.1793353999328224, -0.8059307972153457, -2.541023425627828, 0.8941441040708258, 0.9384894000516979, -0.5983839245611665, -1.5974029928221947, 2.1837634905411676, -1.5892670110579457, 1.5051208759878343, 0.5346193789573971, 0.38001222734009393, 2.2616967397549446, 2.293484551151625, -1.537207463501158, 0.860323418948475, 0.4032394584834662, 0.4861664819269294, 0.17891385886744013, 0.0897342507782953, 0.7445213153539966, -2.8797748401855277, 0.6149844456873079, -2.6987230696424116, -1.147475760677765, 0.9415095124622521, 0.5022310165957475, -0.5912916849327807, 0.5877782392041384, -0.613770374256956, 3.192337586615306, -0.9127670142885659, 0.42057304046174465, -0.34469764030882266, -0.5244606301559579, -0.613494788698081, 3.251222711701339, 0.9301198276334799, -0.25563792592997614, -0.5859585917167333, 1.7367795344676744, -2.2073415987906824, -0.3766160746655727, 1.2394429283431196, -0.6814706695213688, -0.7786326390450227, -0.3124181191703714, 0.9798164738727076, -0.4537657790663816, -0.6173651009258202, -1.169582034071079, 0.5622647273564374, -0.26480713413285817, -0.9527950214421821, 1.489501481192788, 1.8771556919512538, 1.0939046601396019, 1.2781787296738696, -0.011853221123075006, 1.7276160871675623, 1.05893519024504, 0.7910262675867057, 1.7573635234658238, -0.26146713707633473, -0.5839643117094135, -1.6903916256432048, 2.847402112760997, 0.9809693548409116, -1.1759140509953212, 1.049153098992412, -0.8671120652768584, 0.7016011859935614, -0.0035956771910817947, -0.5793752102253007, 1.325264201503637, 0.4411497714045026, 0.6613699740163139, -0.08375277509602964, 0.01364092656112409, 1.047934738135492, -0.37909918851360347, -0.18818518999472356, 0.3204308227850598, -0.10325758889939834, -0.3961045674502393, 0.32885748478039345, -0.06599249069273107, -1.866335496922849, -0.5497942345610831, 0.23917599044320792, 0.6720475008405673, 0.3466123052697884, 0.9401866661325473, -0.2509252513484847, 2.70018604061283, -1.3249434558857918, 0.35427524711515146, 0.9517793867487241, 0.021630136835291372, -0.2162052046287522, 1.9425420586467492, 0.6956921732838597, 0.023537654350203843, -1.1878589600069562, 1.1912904109547682, 0.5298852948557397, 0.17724870990842212, -0.4098465898168291, 0.34242780009246465, 0.12767009713259692, 0.4602861519601267, -0.5354594746648674, 0.7360261828933186, -1.2593546032890952, -0.39436272330709865, 0.6518149073224486, -0.24629373907115082, 0.4858497184480738, -0.31398406426425707, 0.13884952773542503, -0.7713994623530548, -0.04612087002756492, 0.7277461632053029, -0.3006848907879578, -0.4277332012812498, -0.5844934300012372, -0.2565095334927254, -0.01070158922244216, 0.5114659674527489, 0.7051913413091202, 0.4812734432475071, 1.3076081417534844, -0.43688796726380313, 0.3264316910847771, 1.3532696894411176, 0.14777728526109646, 0.42038408742433026, 0.3120434918178132, -0.40380513513001176, 2.3785100791383416, 0.3077112306312759, 0.6914545377864514, 0.9948844568432909, -0.008190377196891904, 0.18764880948727425, -0.37853321716015, 1.3893732669384136, -1.431479949305816, 0.6431807690325259, 0.246347791587616, -1.6259586592308721, -0.9756650024507897, -0.5021856405231202, 0.4317374664900849, -1.0802243317152258, -1.4923724376502392, -2.832748486301204, -2.158858363314927, 1.9670231200708386, -0.007148639878737373, 0.9676115918427669, 0.13456988018412125, 1.2969924436221758, 0.995116145625124, 3.7824324469817285, 1.4428602570565014, 0.4464180595121584, 2.383110727330869, 1.318522446299798, -0.43838139127052406, 1.4117073316591047, -0.6148959460356667, 1.6710209082896308, -0.34168991226687606, 1.60587997563935, -0.6915685944194048, 0.5603458090254769, 0.30092759332011476, -0.4006555145147259, 0.3405850595359903, 0.9928363044781895, -1.0332568905696478, -0.91200718898379, 0.45184255134595713, -0.3405968098887494, -0.28121566108690177, -0.577740783741192, 1.1098197852926204, 0.8434945823630956, -2.3388059501799785, -0.08051860552867128, -0.47053882714066175, 1.798542025199931, 0.6539807867841739, -1.6021969652661947, 1.0075487705790662, -2.0226124362114715, 0.948461299063915, 0.6847583424641943, 0.5698867058021105, 0.096778029896565, 1.4116519825134668, 0.21067095717360348, 0.2154735489433593, 0.6961841648915202, 0.8846836360584899, 1.3521950835314531, 1.4139898079902176, -2.1524865874025556, -1.0375320078459702, 0.26201310304962516, 0.6881314751759253, 0.7666507162863307, -0.07958683248380488, -2.3243729060412193, 1.9583204200748192, 1.4022423102418455, -1.646886156025922, 0.524799278896618, 0.17107671721413834, 0.41197852531409396, -0.13750270034032125, 0.28294362507416654, -0.6408217383286745, 2.4975779447323543, -2.3127507484613257, -2.1001426171466777, -0.17596921138463695, 0.0796138682464981, 0.5560840644333915, -2.0518366968712374, -1.4078677669509383, 0.707686852378167, 2.0454954927787776, 0.819286055639097, 0.31086081609133487, 0.18130026874422828, 0.7876286960208221, -0.42801977915044426, -0.8530450256453468, -0.6655962382205703, -1.9032523175407587, -0.03789331790180792, -0.22429459918744815, 0.9033934992777436, 0.25631111326369604, 0.5691110773862915, -0.17033178534643123, -0.5266424045959348, -0.0725316693321405, -0.41245593585702567, 0.1845707896710157, -0.36323267349936966, 1.8431365468061964], [2.7168873352553935, -1.1727183603809817, -1.4936435263166572, -2.1070316049952917, -0.2278822576966092, -1.4890074416179333, -0.9374205695850617, -2.332995213296372, 1.0871455437547224, 0.9992009858015694, -0.21475796045481732, -1.828514814088938, 2.089738959765989, -1.3670371556563587, 1.3072352079830694, 0.8640364854300557, 0.11735612287241917, 2.1119541912544446, 2.5178729300097706, -1.157376352316164, 0.9168019670233861, 1.0041865373310235, 0.6475886385886769, 0.04883796315860456, 0.7113927389581871, 0.673613311558283, -2.95489102579061, 0.3508331752294568, -3.147687404396048, -1.591174019369639, 1.03088744991257, 1.0342661905227521, -0.5809395724688531, 0.18423743943676282, -0.0688685617325065, 2.885760892699504, -0.4098660307045339, 0.3987754804425171, 0.267195138783487, 0.219739718143499, -0.9752382377163625, 3.7434621218558273, 1.138631067532178, -0.30145621684395874, 0.012471041230690594, 2.009305137629357, -2.153949429623595, -0.38516278376194074, 1.262691607360602, -0.12786446995885717, -0.7557988143365622, -0.0768481194232401, 0.9828875746800262, -0.017694806980406763, -0.3889200210224688, -0.907778077329647, 0.5104005166292361, -0.3864583774325268, -0.9662443067063917, 0.5320426272430454, 1.96012535907744, 0.8181760327219687, 1.0696010097153992, 0.17949487124444666, 1.8909566491523548, 0.8476186630688335, 1.1446189239422546, 2.0842697313723186, -0.10464730897568338, -0.5186110839573882, -1.4726842769318913, 2.8778161392446924, 1.3515484989008404, -0.5915004488669383, 1.6613045535494169, -0.4469037151570068, 0.5966772008806299, -0.31870740027539746, -0.6578056593157547, 1.3200201626227952, -0.10053994863006166, 0.45403345624933017, -0.5295885294581321, -0.49580362599266975, 1.0772019404548074, -0.7444414584348897, -0.2299860754719954, 0.3739521051645008, -0.10325758889939834, -0.19088243432706625, 0.5374585728871614, 0.006137959296846712, -2.285096737913262, -0.37583585266947794, -0.2310141445837765, 0.03710446899412141, 0.6289049041709156, 0.7853003868846815, -0.3834937993556586, 3.3128387252067086, -1.3902752851724227, 0.3306837060098451, 0.8473033471919261, -0.027860249587148743, -0.29647659886919253, 1.519417205941622, 0.2889634512595219, -1.1262575403112247, -1.0298318119449241, 1.749382726334615, 0.41100183883877217, 0.493155810727094, -0.2132159555890525, 0.34242780009246465, 0.4444921002698752, 0.7274753774583721, -0.12926139692118516, -0.20714772245462915, -1.585507860359448, -0.3772623745210642, 0.4461484382182546, -0.06014155753585254, 0.3609459081811999, -0.06213295569774238, 0.42900406173031974, -0.7879851206557648, 0.32106760481218394, 0.8158024017160133, -0.3856328892432283, 0.04786906904922798, -0.5210066471774829, -0.08529278470482503, -0.11213349519610823, 0.1438027199308477, 0.6580328310694054, 0.588765009684832, -0.9253216261023578, -0.5021953411291007, 0.030496082596364354, 1.3510185436406847, -0.27639962434569343, 1.2399487228555284, -0.044419897489610075, -0.5408388325714863, 2.435471385219412, 0.7195743114151225, 0.8835128390835144, 0.6180637068131534, 0.1205335881735316, 0.4832202378244628, -0.15008774817893925, 1.9378718666892905, -1.3335860569084166, 0.5960117933600472, 0.246347791587616, -1.4914367902414076, -0.7901817101373481, -0.3259441522480899, 0.4384544214141249, -1.2899869663271626, -1.0298316805925662, -2.7561878473302746, -2.0948746274297756, 2.0274363181489803, 0.03653314734709523, 0.8782736614380999, 0.6707288005234421, 1.5082246152886691, 1.1035829489651658, 3.941764061593925, 0.9698681075344181, 1.2468559945918614, 1.8266521810561025, 1.2485395071655205, -0.5263540408218847, 2.1735642424725397, -1.479470074559514, 1.7529759036785053, -0.18147378014310278, 1.2160488460004175, -0.8765647786452009, 0.8674258213559858, 0.12306943033047552, -0.17250951051697322, 0.6736248308732338, 1.3940331805072, -0.8190043392250307, -0.48221749717076434, 0.3992849929170708, -0.4418704874709131, -0.1754715657078732, -0.5726713375484135, 1.03288796636929, 0.5954757023178421, -2.5099936822076603, -0.21146187181547943, -0.7737803159668315, 1.541922379077599, 0.8068569039677513, -1.3190978521142933, 0.8312071541211999, -2.140858579782167, 1.0632237798209958, 0.5023899018559667, 0.47120631643756306, -0.09172030005626527, 1.7245453373942536, -0.04002640068907895, 0.22028024937977403, 0.33114400775471403, 0.853914632219151, 1.362653687206249, 1.7442896373140682, -2.1361011995956027, -0.7265013298758047, 0.7252312824268937, 0.2551345182375531, 1.0921781490650702, 0.07927984992526005, -2.3243729060412193, 1.9458778667749013, 1.3074591285468682, -1.8727418947813603, -0.20219097518407603, 0.5576866931575719, 0.5383045850956503, -0.026719547863501905, 0.09548626131280016, -0.21915531354968198, 1.8231330257132994, -2.300505878079346, -1.6160414827350673, -0.41236753888400207, 0.1578274302050706, 0.3962817561803174, -1.246184858927183, -0.4736005835070291, 0.5191513616597832, 1.7064057608815342, 0.8560114659830721, 0.3816801826084258, -0.24026165678369438, 0.9881458340057906, -0.3943087820107969, -0.037507682666698045, -0.5968795687347148, -2.266539458092191, -0.162430216115997, -0.12650608489502255, 0.5555266619564526, 0.2830738399377904, 0.587853949358152, -0.17400688260950073, -0.6814153209680043, -0.16993861859932802, -0.16588038071829883, -0.07233248997227645, -0.39579366778512604, 1.5726164049935858], [1.5898326859763134, -1.35765596865234, -1.4881487160863105, -2.3245661492508636, -0.038863352626857806, -1.4143021241988223, -0.8644155921834126, -2.3536595347007196, 1.2153972567064282, 1.0862254963214388, -0.679682762929601, -1.6145902405668244, 1.5897878528796665, -1.4854315187001919, 1.4952995973683065, 0.9948374681352616, 0.2060777696081383, 2.061418355442188, 2.713772955742249, -1.098760885889458, 0.8362302338559691, 0.6498515613164576, 0.6045537912914357, 0.16223959416354355, 0.377588088251695, 0.849524210654142, -3.336869620757216, 0.7161155614256258, -2.8034625676200804, -1.4376784525579291, 0.9415095124622521, 0.7696136953660673, -0.8735814646894061, 0.32687391827124507, -0.8311053613685639, 2.959228378120503, -0.5031957539128905, 0.19945188846695694, -0.1450214423514662, -0.6128272824152271, -0.5106461398774478, 3.3433742269818065, 1.2970291688723212, -0.22383275510204612, -0.57192880962592, 2.09072803565479, -1.9860389518171104, -0.29912264191224835, 2.0989232730724003, -0.7304027908301749, -0.7557988143365622, -0.35540529500644547, 0.9798164738727076, -0.15380761863493808, -0.3743639983550911, -0.5325426125609011, 0.4869389744264042, -0.401484560695608, -0.9527950214421821, 0.6120687700095782, 1.7176226331026434, 0.8086139653485646, 1.193150217482745, 0.07723817988996906, 2.382117583736346, 0.9582952439803691, 0.8350822726727725, 2.191448916492125, -0.10464730897568338, -0.5103837012449555, -1.714114070785172, 2.797874023342734, 1.0430834309555848, -1.2052137292817593, 1.640413200696344, -0.36496125870317586, 0.5966772008806299, -0.12052746053057829, -0.5408749408921547, 1.242794308799855, 0.2926845501308775, 0.7461183460790566, -0.05558116027984056, -0.4429865562864814, 1.047934738135492, -0.47583067204884927, 0.03402976364654997, 0.45549796343656446, 0.08023239422686473, -0.49262720496084933, 0.7029737124353692, -0.04919004287281462, -2.3315415534629174, -0.5497942345610831, 0.1022529863744939, 0.9558007848827701, 0.3717126844891688, 1.0458333907130715, -0.5415999655940702, 2.6990687786314727, -1.3249434558857918, 0.5831473103430334, 1.032873479509104, 0.6854346513115213, -0.18790543173361074, 1.6829439331984577, 0.20511017449555025, 0.08036411633792995, -0.912581519753152, 1.1120187330031257, 0.6892083594996343, 0.49760330555680327, -0.13705005676572485, -0.2541666506984834, 0.664058397805872, 1.014436863894856, -0.25319499374927856, -0.11348006635680104, -1.2245593330142979, -0.4100570106586522, 0.6413819989792704, -0.09206858364320793, 0.4700406999505079, -0.06213295569774238, 0.311655257885664, -1.0954580806878484, -0.04612087002756492, 1.2572607377031295, -0.40891314197076745, -0.6690685938106045, -0.35001465274620186, -0.4618173779888353, -0.2695453349020598, 0.2582122174157288, 0.703750962862014, 0.832144654992146, 1.23865186522736, -0.19769583015932313, -0.039674348784242475, 1.3692645121598956, -0.027576056343100987, 0.42038408742433026, 0.21558281115148203, -0.5577887189707517, 2.365484888753025, 0.3077112306312759, 0.9676606516090875, 1.0981127939271522, -0.34863572095917195, 0.09007606451494651, -0.7704603817457818, 1.478829781479356, -1.323905053741648, 0.5960117933600472, 0.2867877731883142, -1.751639335990676, -0.8197761485692662, -0.7096165758053858, 0.3490242979534549, -1.6094564716918494, -1.414279030932653, -2.717435246419233, -1.2482109809451964, 1.751820552989308, 0.009003314268852536, 0.8782736614380999, 0.20813295493764805, 1.2969924436221758, 1.8021007985930086, 4.904470930227868, 1.3411290807548104, 1.1492353656296121, 2.242410331915309, 1.2403693403229712, -0.39064529546145743, 1.320895517525706, -1.380489599593599, 1.6418056314608254, -0.3233643467719491, 1.4912956819388228, -0.5626072413503247, 1.1784606780378597, 0.12306943033047552, -0.3260675108886387, 0.7985148344609413, 1.4546345876701856, -0.8088533047119093, -0.6514808724210422, 0.45184255134595713, -0.276216382475428, -0.1754715657078732, -0.41729253005232736, 1.0733060012188749, 0.6018245958250017, -2.6141157752871993, 0.013805537275109026, -0.6312610879931455, 1.798542025199931, 0.4393103755860856, -1.1154013151775053, 1.1040512530425273, -1.8498253145954033, 1.1948656454491628, 0.48323201887543943, 0.5082323727650389, -0.09172030005626527, 1.6815275165334795, 0.18531578543490068, 0.12674667594099653, 1.0814157466118004, 1.1877985898449892, 1.4020266662696288, 1.542675725744646, -1.8640600666250529, -0.9962605783811838, 0.30308246416044016, 0.2174413396827018, 0.7848659783582516, -0.01905146189720732, -2.417570670827484, 1.686356246579246, 1.401068525944161, -1.8192707202959195, -0.007783318890885849, 0.45998655714318193, 0.2036010150421947, 0.03011285608149833, 0.47999218780379616, -0.6887256049617245, 1.520853915775144, -2.288654713382586, -2.0873132398947765, 0.3338330895161105, -0.15752015880151168, 0.5036336594774347, -1.3557580368232216, -1.1861005815407006, 0.526398199385599, 1.9710355049350226, 0.4410653129040428, -0.01543581469741672, 0.620112727530757, 0.7753924862394572, -0.07959863651371131, 0.24277053513817237, -0.5968795687347148, -1.9032523175407587, -0.10115278541638979, -0.2842301694459173, 0.5861511748129078, 0.46151797951446333, 0.6511306843674723, 0.07597304939606919, -0.6814001300422928, 0.0887668004047717, -0.16588038071829883, 0.2044643171828754, -0.45137905469227163, 1.8675838586602307], [1.6506435869285356, -0.6427399027774852, -1.531911605181847, -2.4606001484387314, -0.09170846471524093, -1.3261135734863019, -0.7728006513752044, -2.5136105165682245, 1.2345601369733108, 0.8778308407251929, -0.5837350270903582, -1.6145902405668244, 1.9503599027402228, -2.0450089466297547, 1.5051208759878343, 0.8887007188641771, 0.11177259093848871, 2.061418355442188, 2.3369785364518463, -1.593568073730217, 0.37194469827248633, 0.7271443623890609, 0.6216484757223688, 0.3900863952869603, 0.5578855629320947, 0.5297356046558019, -3.382219371322528, 0.7529551982186534, -2.7092090548945698, -1.5512966109880233, 0.7419488481754355, 0.5972464750492187, -0.4379052967937788, 0.5877782392041384, -0.59517737643978, 2.915062034058422, -1.3590841097888449, 0.5248605278035805, -0.7808873410384027, -0.4838557040990447, -0.5912897383408486, 3.4709014129764686, 1.1663345901206057, -0.22383275510204612, -0.576865274950586, 2.09072803565479, -2.5518144533433538, -1.295650575465789, 2.0989232730724003, -0.3875861089396343, -0.8734349661651876, 0.006207689341112842, 0.9828875746800262, 0.001552853556790433, -0.7769200283838915, -0.5325426125609011, 0.5698587692472628, -0.8573065492853582, -0.42061958772021657, 1.1576711502758383, 1.8060403808724947, 1.149760034890162, 1.1579689544310563, -0.11738506455855831, 1.939006393737939, 0.8003368309107385, 0.8156465351118105, 1.8895533100635042, 0.07198823433005515, -0.6567326408701021, -1.7111168665056136, 2.9125961239964355, 0.7734364302365836, -1.132119415361935, 1.6613045535494169, -0.3923412889240474, 0.5966772008806299, 0.03397438914712742, -0.4509309707886142, 1.7947000115552374, -0.04694764925937414, 0.45403345624933017, -0.0814788765895368, -0.3631316711746922, 0.9504169776077827, -0.7602112886744727, 0.1749841975822092, 0.32169956666525473, 0.08023239422686473, -0.19088243432706625, 0.7029737124353692, 0.12539688978581465, -1.8615534576760306, -0.603470578906483, 0.1855840177662925, 0.8786437764209047, 0.6178013886872671, 0.5655882014142352, -0.661621185723072, 2.885006186770864, -1.1499214384618794, 0.4245747878656241, 1.032873479509104, -0.25501600613318826, -0.2162052046287522, 1.5962921921971938, 0.24879315489384543, 0.046598630527628124, -0.912581519753152, 1.5594871598357274, 0.25856103010349185, 0.49760330555680327, -0.47610111018954865, -0.07544855499859476, 0.2530106497976392, 0.7251928036798442, -0.12963826397552872, -0.11348006635680104, -1.2979761621976822, -0.5630215250823056, 0.6512324517971323, -0.20615856103404098, 0.42879934761082555, -0.32912121332689204, 0.311655257885664, -0.6121624284521496, 0.24415043428555638, 0.8158024017160133, -0.2873565256485461, -0.403199396045732, -0.35001465274620186, -0.06386026355758756, -0.12526538115574984, 0.6742490134602315, 0.6871663706970654, 0.588765009684832, -0.9055894835222336, -0.5481963245251081, 0.15079979126227716, 1.2186070997600533, 0.07684870501003493, 1.267244308579321, 0.15214368908537415, -0.7401796963716082, 2.437685800849257, 0.47269763996451586, 0.9676606516090875, 1.0981127939271522, -0.08411619697775946, 0.23864031823372328, -0.41643728535814484, 1.8032066599704812, -1.4158446374174032, 0.6422275954619275, 0.3194462656965048, -1.5881132366784112, -0.9167689420384758, -0.6888560186146963, 0.6032091210490798, -1.3918878218125075, -0.7200693778104148, -2.541191195698531, -1.7550874992610004, 1.8340180904062537, 0.02078063215200484, 0.8829889467633316, 0.20813295493764805, 1.5082246152886691, 1.014137566728058, 4.332948717099302, 1.3411290807548104, 1.1492353656296121, 1.837728978123359, 1.2392229641125037, -0.36459587668770016, 1.481887913477255, -1.48831350004887, 1.8217437354333315, -0.3233643467719491, 2.050547670045016, -0.5570353128412974, 1.1129617982891786, 0.12306943033047552, -0.39062717588100626, 0.3925641750316503, 1.4546345876701856, -0.6338184335117667, -0.7569523915461807, 0.5537753308483943, -0.21597969186511223, -0.1754715657078732, -0.5941656132960713, 1.1459380385815392, 0.890077164279771, -2.632951317468652, -0.20838873017799767, -0.6312610879931455, 1.831006913233565, 0.7154597270865036, -1.224710710590136, 0.8873382993348775, -2.219294109783403, 0.948461299063915, 0.41202741444654045, 0.4025518807993986, -0.0918811868893814, 1.2747057388031748, 0.10217010340280483, 0.19174291815966754, 1.0177359894158053, 1.1877985898449892, 1.5209212686674154, 1.4139898079902176, -1.570565272475768, -0.8559695904754672, -0.2105256708706689, 0.6020292702213984, 0.8247247327280725, 0.04149402505518455, -2.3243729060412193, 1.8931961139810638, 1.4301204024951997, -2.5998178040944695, -0.09545650012648792, 0.24540248393520606, 0.41197852531409396, 0.03011285608149833, -0.1827453208147845, -0.12715635867326291, 1.666890406023736, -2.1307005936721373, -2.0873132398947765, -0.08318526488427651, 0.018997820388444886, 0.2083217970344049, -1.5500192772864159, -0.6304777605921988, 0.5225896560438618, 2.0479204084678364, 1.0233453489149364, -0.023568413744057822, 0.6309019250565614, 0.781259032068656, -0.19738072451124422, -0.24985783898527192, -0.5821397696904701, -2.038616435157753, -0.11444757907113118, -0.12650608489502255, 0.8614821156856032, 0.4808938143288871, 0.6511306843674723, 0.07597304939606919, -1.4313923266614834, 0.4025041242537149, -0.3429096597554817, -0.11852591231211873, -0.3975358755220714, 1.5726164049935858], [1.5898326859763134, -1.35765596865234, -1.6517249136138115, -1.9535675193102215, 0.3335992474641801, -1.1231016720058218, -0.8597982849937034, -2.244151368690223, 1.1013928064344458, 0.8514592953917518, -0.7464199597810418, -1.4858677862468879, 2.089738959765989, -1.5892670110579457, 1.4695358174958049, 0.9702467225883806, 0.11177259093848871, 2.2616967397549446, 2.4395367381808373, -1.6421229159977642, 0.9532390838796524, 0.5874623301273805, 0.6045537912914357, 0.2771931256900436, 0.0897342507782953, -0.12422674431761982, -2.8797748401855277, 0.5078250707416326, -2.7537587570650164, -1.3449748087798656, 0.5439799403836244, 1.2929034161992023, -0.6198763615613672, 0.5855843058016786, -1.0680099748736764, 3.240675058315326, -0.4098660307045339, 0.16729596687442538, 0.4198758222808783, -0.4297930822475919, -0.2074526680579328, 3.3704816948637943, 1.2057842600654256, -0.19887050879529283, -0.7475357688876473, 2.183594712663705, -2.503322166812762, -0.1850881811637984, 1.5271148572969695, -0.30496501277184307, -0.41310595299372554, -0.38988667626766765, 0.3465421992014942, -0.16909686133202345, -0.5567909185540951, -1.2232470444638253, 0.47649885309729345, -0.32309899455530133, -0.9527950214421821, 1.4833693526852048, 1.8233333974591186, 0.9565698567160738, 1.9113609319226184, -0.011853221123075006, 1.8552831032627777, 1.0575150571496232, 0.7910262675867057, 2.022649928051331, 0.058180937160834285, -0.5455232312900463, -1.5041642689396142, 2.7692371328766656, 0.9949109955137053, -0.457581918991958, 1.7943028560816412, -0.8008165644656718, 0.5966772008806299, 0.019474196777274928, -0.6345392363758506, 1.242794308799855, 0.2926845501308775, 0.8685638417117608, 0.12899557252394858, -0.3853322072493663, 0.9268361916575805, -0.6926213223066504, 0.028445863479329703, 0.14332770489402674, -0.25351435638899883, -0.49262720496084933, 0.4498239079500214, -0.19838102926730133, -1.91768535349193, -0.603470578906483, -0.3100288675574252, 0.8706736258458769, 0.6289049041709156, 0.77024774752245, -0.7955586900730256, 2.5321528190057676, -1.2015236341360516, 0.26754795202112963, 1.0017779253266001, -0.15155960530159748, -0.2009958929341371, 1.411636584735246, 0.6197082156631548, 0.023537654350203843, -1.2399591974741153, 1.2731480600150014, 0.5996064969563544, 0.47921710150633545, -0.37183806240325135, -0.005975475432450111, 0.6344923523105311, 0.9414858754333258, -0.10955585557724831, 0.0700965872333788, -1.2110630328790042, -0.5213332588149381, -0.10303725694873976, -0.10594548655370162, 0.5496502049943499, -0.31398406426425707, 0.3546726976178196, -0.8360946049352498, 0.28891192992845655, 0.7277461632053029, -0.5077335427128156, -0.40227215664225635, -0.3768454338480299, -0.06386026355758756, -0.08936151164370859, 0.5595719121903495, 0.8265418890302869, 0.6643872589240117, 1.278220329192457, -0.6924057803720907, 0.030962163921812613, 1.4000785763061507, -0.027576056343100987, 1.204812233585729, 0.17837251844796692, -0.5680070852433197, 2.458127715281078, 0.7248057768785251, 0.9102669011601712, 0.9291677286563645, 0.008643525166469455, 0.3930649952681299, -0.37853321716015, 1.7753475589584446, -1.1463080402492145, 0.6431807690325259, 0.246347791587616, -1.751639335990676, -0.9756650024507897, -0.3259441522480899, 0.6086230694929352, -1.2192922618595254, -1.5343566943747469, -1.9920710384407685, -1.369701189974949, 2.026287294927108, 0.5210388228231335, 0.8782736614380999, 0.5718110040459289, 1.419977074621227, 1.8021007985930086, 4.286231133981758, 1.0076218915888993, 1.1492353656296121, 2.242410331915309, 1.273542210814182, -0.2197075078946717, 1.481887913477255, -0.6148959460356667, 1.5648516408823412, -0.1879925068524134, 1.7477354787724235, -0.4421382112167308, 0.8674258213559858, -0.204061495819927, -0.08371902280021282, 0.8964459433048375, 1.3846770422445436, -0.9533346130839625, -0.6286928865723924, 0.5672327896857727, -0.2524047110074018, -0.1746946246603333, -0.4776449070552496, 0.9549630097337752, 0.5962798659202909, -2.4512028519209546, -0.12941211726351792, -0.47053882714066175, 1.5347324663486661, 0.6020026230157516, -1.378196706511968, 1.1040512530425273, -1.8498253145954033, 0.948461299063915, 0.6847583424641943, 0.3929955839220697, -0.0918811868893814, 1.2747057388031748, 0.13209346971886438, 0.23693977386990805, 1.0643492216518673, 0.7919807676284911, 1.4422702307658686, 1.410488128851818, -2.3503664180635475, -0.7265013298758047, 0.7252312824268937, 0.6874585036647934, 1.1529731790839903, -0.07958683248380488, -2.3243729060412193, 1.7539463274090763, 1.2540582194898409, -2.010671691861309, 0.32376105559417523, 0.28900501684426816, 0.5383045850956503, -0.027954963221045286, -0.20452249548741155, -0.1517406790733708, 2.366237424625829, -2.3127507484613257, -2.02483386912017, -0.42744971148930144, 0.0796138682464981, 0.12378211651009115, -1.5357256761985272, -0.6181003437637628, 0.7862016555763799, 2.0398621084515693, 0.3340172490781258, 0.022165884217444937, 0.22863143323456112, 0.781259032068656, -0.424341533925643, 0.44477437631734074, -0.6989182311036767, -1.9494277556025075, -0.0595056679903748, -0.12650608489502255, 0.7281864172158206, 0.23456736188362123, 0.8926685951904566, -0.1404303608354353, -1.119094740854373, -0.466612721122974, -0.015053784481135035, -0.07233248997227645, -0.8132782250888092, 1.6388809753378928], [3.298355005208863, -1.1548879197329973, -1.543165179448237, -2.48404286090347, 0.13323084560059906, -1.265740394622373, -0.8059307972153457, -2.332995213296372, 1.0871455437547224, 0.8778308407251929, -0.6293071792266678, -1.833139068549723, 2.0930566099130195, -1.385129322027086, 0.8581458521325958, 0.6429805941859222, 0.22005978128559192, 2.1563327515645465, 2.4151624805132896, -1.5798924056210175, 0.34542008645132144, 0.7594417779296196, 0.5167456810729943, 0.08473937915353727, 0.0897342507782953, 0.13718653897080563, -2.8792418854257122, 0.666012986330839, -2.6987230696424116, -1.4376784525579291, 1.128578180610447, 0.9037885366627505, -0.7543863770012352, 0.698005326347103, -0.7793543079891229, 2.8864215279759495, -0.40629369392309583, 0.435458691959641, 0.46106456342527946, 0.24642722354477786, 1.3188248135239133, 3.4631440815381125, 1.2481943765903578, -0.19887050879529283, -0.576865274950586, 1.8174723238457235, -2.128057891606609, -0.1850881811637984, 1.5340505276203402, -0.6814706695213688, -0.6468232101659613, -0.4004289008804112, 1.0062176457134933, -0.16909686133202345, -0.5567909185540951, -1.2958198984962424, 0.48960947855739095, -0.4546109535171736, -0.9612201773993224, 1.4833693526852048, 1.8233333974591186, 0.8916790072709437, 1.0403708453004068, -0.15184155875027222, 1.9455105389838068, 0.9210920714694601, 1.3632706010499624, 1.7533144927589883, -0.21852843450968015, -0.5916349637734614, -1.400973101239309, 2.7705457192185854, 0.9017783108271046, -0.9807185142868564, 1.049153098992412, -0.22847386044855153, 0.5966772008806299, -0.20242163148448436, -0.7243364895588476, 0.6976018943322019, -0.12976117614270488, 0.45403345624933017, -0.10215879792985985, -0.014187254018855733, 1.04492127200303, -0.7602112886744727, -0.3709530726391842, 0.36704258272669454, 0.04219937721577529, -0.4935180258502264, 0.5374585728871614, -0.15266906012250467, -1.8615534576760306, -0.05562067065545609, -0.3100288675574252, 0.5659271752669774, 0.6289049041709156, 0.9107548511187579, -0.17538721849182456, 2.6733352550737397, -1.1331322675851507, 0.35427524711515146, 1.380757279263918, -0.15155960530159748, -0.3232618807726515, 1.682397945104521, 0.18658242776589545, -1.0474298384698268, -1.2399591974741153, 1.1120187330031257, 0.41100183883877217, 0.34346285615308436, -0.37183806240325135, 0.33238429424191385, 0.19219334843786287, 0.6057529883256846, -0.257433877866603, 0.21965124388642163, -0.836584355156004, -0.5213332588149381, 0.9075192873903487, -0.22035765844440594, 0.4858497184480738, -0.31398406426425707, 0.0782468588613838, -0.8588616432068211, -0.2668159503452823, 0.7277461632053029, -0.16769073665616877, -0.403199396045732, -0.3156266940050925, -0.44850073778196503, -0.1631277732721017, 0.2978713091721192, 0.31047921425931524, 0.5174899609374203, -0.913250793891331, -0.43688796726380313, 0.3001988741216908, 1.5526024459229804, -0.022041042720398675, 0.9099899121010484, 0.196643213191565, -0.6200801354340125, 2.435471385219412, 0.500262511097227, 1.0271267355777067, 1.1447470060547358, -0.1563527213852737, -0.18559513052823182, -0.49256026241808576, 1.325429109276243, -1.467094414907273, 0.8399690301873675, 0.306732892138985, -1.7192442491964088, -0.8325385056414463, -0.5021856405231202, 0.4317374664900849, -1.7581581335494614, -0.6131526443047037, -2.992928653762051, -1.1412236385003063, 2.0491560064895666, 0.03653314734709523, 0.8782736614380999, 0.0929707700045992, 0.6357754225835832, 0.995116145625124, 4.2910986981268975, 0.7600070648954589, 1.061809189824458, 2.3126262961723576, 0.9395339287666825, -0.4247480517297997, 2.320067640800536, -1.2197936006901693, 2.5197178213786477, -0.45629393882687097, 1.2160488460004175, -0.27983004507370995, 0.8204027545061185, -0.009827498905854673, -0.15109846934035234, 0.3925641750316503, 1.171771091950147, -0.8190043392250307, -0.5594995122265954, 0.518985056043637, -0.032116959453484195, -0.20778347654666005, -0.2556734125212555, 1.1164777530599448, 0.5962798659202909, -2.318503240379083, -0.1960645698029083, -0.7768180096047619, 1.297403114960479, 0.6761405554213373, -1.386759004267447, 1.1593645496571288, -2.0462857444057443, 1.207916308897938, 0.753455701703536, 0.4025518807993986, 0.1430790765556834, 1.5613444610824938, 0.3720880178576885, 0.08633335629622688, 1.129048952197357, 0.7693982760272386, 1.2989140420867462, 1.5846090399317347, -2.1361011995956027, -1.0171149281564773, 0.30308246416044016, 0.6031204899539286, 0.6443688253516288, 0.07927984992526005, -2.9989603541533194, 1.780600683489912, 1.337986142875673, -2.010671691861309, 0.04059925786250021, 0.3371854682251317, 0.20892718458048035, -0.051496563569082575, 0.014993389777516533, -0.28016906397714836, 1.962527568424318, -2.2148427451264796, -2.0469634804377117, -0.08318526488427651, -0.17160033809041703, 0.4004337735218255, -1.5500192772864159, -1.0380785068294642, 0.5225896560438618, 2.1965940396923047, 0.9799594526107311, -0.0029513095840121017, 0.07046306100467152, 0.8635813582984296, 0.00030952890662055976, -0.07150008332950802, -0.5565450377997191, -1.9577829082061726, -0.06976407710693736, -0.0726780826773118, 0.9285409264284383, 0.24481510961761357, 0.8926685951904566, -0.0933147646300427, -0.8211882722542683, -0.466612721122974, -0.3429096597554817, 0.3420317937817835, -0.18892757715602132, 1.831255188428413], [2.994416302139417, -1.1727183603809817, -1.8043947722424667, -2.2939659515683988, 0.2101081312728609, -1.2744345476326617, -0.8386151400316799, -2.332995213296372, 1.2153972567064282, 1.7180488070012778, -0.16791824796771998, -1.5236054537471497, 2.1358831359329713, -1.4854315187001919, 1.5176352138675278, 0.8640364854300557, 0.36299853696276563, 2.0331191046709245, 2.616931099070407, -1.0938318870323034, 0.8362302338559691, -0.32497393619661097, 0.7405130875987359, 0.2771931256900436, 0.377588088251695, 0.7723076867058142, -2.8797748401855277, 0.5078250707416326, -2.6987230696424116, -1.4376784525579291, 0.7232257699685745, 1.0575350573866726, -0.5809395724688531, 0.18423743943676282, -0.8311053613685639, 2.950063621441954, -0.4459428703803914, 0.18374335282290322, 0.3554538568110846, -0.525283301977771, 0.10377588801897118, 3.484883648848362, 1.138631067532178, -0.30145621684395874, -0.12326277825130327, 1.770065122377808, -2.153949429623595, -0.38516278376194074, 2.2105072948653373, -0.12786446995885717, -0.7010644015338057, -0.5278287112449759, 1.1332344952405027, -0.3521063578086374, -0.3915790730640127, -1.277188891879353, 0.4812224828580126, -0.3932199115155282, -0.9527950214421821, 1.3344123432219905, 1.7909228104871664, 0.8735929906444281, 1.0403708453004068, -0.12682385032709453, 1.939006393737939, 0.7667089524732094, 0.7910262675867057, 2.0842697313723186, -0.1961012678052709, -0.8344496103262866, -1.7111168665056136, 2.7811975055890983, 1.3515484989008404, -0.5222328373631058, 0.9118247531078562, -0.36496125870317586, 0.5966772008806299, -0.9516989740667854, -0.6586189935269509, 1.214170277375109, 0.3624718355136104, 0.8944158866255251, -0.2588771682091547, -0.5466227579462661, 1.047934738135492, -0.8517588569780284, -0.08140816436263948, 0.3739521051645008, 0.11481323885649716, -0.19088243432706625, 0.7823672865304819, 0.1334377873453701, -2.285096737913262, -0.7994781413626347, -0.2067278200520359, 0.605500605111455, 0.684427680372643, 0.7215037512688923, -0.4941753998481855, 2.8984468756974526, -1.0475006870533095, 0.6096827983358752, 0.8473033471919261, 0.44072772160517093, -0.25902162274742846, 1.519417205941622, 0.2737011503977861, -1.0474298384698268, -0.9045807657768529, 1.1549099175743847, 0.41100183883877217, 0.733243849908076, -0.2555666860308522, 0.34242780009246465, 0.664058397805872, 0.4941535376142236, 0.15790158221152722, -0.11337179671012004, -1.2110630328790042, -0.30652299638611136, 0.6413819989792704, -0.09206858364320793, 0.5527511917329516, -0.20348786201812177, 0.19764877266002315, -0.6241040789137066, 0.03800822063147065, 1.0425964959114524, -0.40891314197076745, -0.1815712108714404, -0.5210066471774829, -0.08529278470482503, -0.015117490533830796, 0.3505555181668638, 0.703750962862014, 0.588765009684832, -0.9253216261023578, -0.5021953411291007, 0.3127511415933285, 1.3285885267977136, -0.027576056343100987, 0.42038408742433026, -0.044419897489610075, -0.4070213015020448, 2.3513751489258836, 0.7195743114151225, 0.9318971501923743, 0.6180637068131534, 0.03919768798787025, 0.4503241578499292, -0.15008774817893925, 2.094695459291183, -1.323905053741648, 0.4518778077181613, 0.35276491063608595, -1.4291736104084443, -1.4089020566086774, -0.6378438891368081, 0.4317374664900849, -1.2435140697666545, -0.4613150621631034, -2.4818017275711686, -1.0297351857519874, 2.0274363181489803, -0.4983737113732091, 0.8782736614380999, 0.20813295493764805, 1.2969924436221758, 1.1809178915180496, 4.1875969697257, 0.9698681075344181, 1.0414069056219684, 1.9169541784120323, 1.144902734899847, -0.5263540408218847, 2.1735642424725397, -1.186578812903071, 1.77134339429011, 0.024769772408143445, 1.2160488460004175, -0.613654277679228, 1.2561248660015771, 0.046692119757487854, -0.31482965255648127, 0.1445476731212742, 1.3940331805072, -0.8438822188957127, -0.6514808724210422, 0.8084500102846224, -0.2524047110074018, -0.08812807194198868, -0.09351018456875412, 1.108522046469227, 0.6898047049026136, -2.5099936822076603, -0.18025371855662353, -0.7768180096047619, 1.541922379077599, 0.6448448077889306, -1.1501244416600849, 0.9034673797522383, -1.8133527686647863, 0.5926272246016487, 0.5577869519591836, 0.47120631643756306, -0.26081249409929363, 1.7517952129375067, 0.03851844789929443, 0.08633335629622688, 0.33114400775471403, 0.9146913475146917, 1.1031749612333275, 1.5846090399317347, -2.139693990881755, -0.9962605783811838, 0.7361192714793392, 0.2551345182375531, 0.6444434579412571, 0.22311568548581018, -2.3243729060412193, 1.9458778667749013, 1.3074591285468682, -2.086919976325359, -0.217174876945851, 0.24540248393520606, 0.4803454778772314, -0.051496563569082575, 0.09548626131280016, -0.24452637217111362, 2.4098511207575766, -2.3853128155553387, -1.6160414827350673, -0.41236753888400207, -0.3242878089245145, 0.6023883206521216, -1.4610794636367874, -1.33701074751348, 0.7970683902288171, 1.8480221302642807, 1.2214331238814937, -0.0029513095840121017, -0.24026165678369438, 0.6007425160926012, -0.3943087820107969, -0.4360212792435387, -0.6289953920689746, -1.83582496634228, -0.11060706481969852, -0.2842301694459173, 0.6488887788728583, 0.24481510961761357, 0.4860637244982643, -0.24980780383499365, -0.6021326951534498, -0.466612721122974, -0.16588038071829883, -0.23526205221839147, -0.7681430930450391, 1.639263046016683], [2.994416302139417, -1.1727183603809817, -1.8043947722424667, -2.1870811642077426, -0.797076253785863, -1.5902752602700652, -0.8059307972153457, -2.332995213296372, 1.0598982492438742, 1.1250115331703625, -0.22898514084559135, -1.7263377782878848, 2.224910712023578, -1.3670371556563587, 1.7292832161434704, 0.7396359983410976, 0.16668776512889935, 2.1119541912544446, 2.5817627452235183, -1.157376352316164, 1.2103483978381229, 0.7271443623890609, 0.7794029525015979, 0.17891385886744013, 0.29710222023168775, 0.32119181322127277, -2.865118601299333, 0.7161155614256258, -3.110702382158472, -1.4376784525579291, 1.03088744991257, 0.5972464750492187, -0.26880324608869943, 0.6901336073631409, -0.8311053613685639, 2.950063621441954, -0.5031957539128905, 0.3987754804425171, -0.24187177553280406, 0.219739718143499, -0.7096516744776656, 3.4774295962061395, 1.138631067532178, -0.26248887381904873, -0.6164072252455354, 1.770065122377808, -2.153949429623595, -0.38516278376194074, 1.2570805301497965, -0.12786446995885717, -0.7010644015338057, -0.4799306668514085, 0.9828875746800262, -0.35481505867627483, -0.6521437160041078, -0.907778077329647, 0.5305042031287103, -0.5771804712638384, -0.9527950214421821, 0.5320426272430454, 2.034999431753484, 0.9702031258050243, 1.8924399525856557, -0.12063339097805431, 1.939006393737939, 0.794077148191915, 1.1232862953739182, 2.0842697313723186, -0.1961012678052709, -0.7660241228300566, -1.7111168665056136, 2.8769624955063033, 1.3515484989008404, -0.5915004488669383, 0.8567759876644294, -0.4469037151570068, 0.5966772008806299, -0.014478432506563957, -0.6766206032205219, 1.1631559273430785, 0.4050649840520044, 0.660185494848697, -0.10215879792985985, 0.08958365787493906, 1.0772019404548074, -0.7856480292285407, -0.270886817637677, 0.3613216145512379, 0.11481323885649716, -0.19088243432706625, 0.6243098800275665, 0.10316594652405373, -1.797254022530718, -0.7994781413626347, -0.16790957480803118, 0.605500605111455, 0.896813745992308, 0.7215037512688923, -0.5097451773475522, 2.8129026067552885, -1.161906570694284, 0.3306837060098451, 0.7544944677655775, 0.44072772160517093, -0.3129058171213386, 1.519417205941622, 0.7268421292191972, -1.1262575403112247, -1.0298318119449241, 1.3034161759010692, 0.41100183883877217, 0.49760330555680327, -0.463879206868119, 0.34242780009246465, 0.19219334843786287, 0.7274753774583721, -0.23790498404308333, 0.7679086042222365, -1.2110630328790042, -0.30652299638611136, 0.6435806392327974, -0.22526676988640476, 0.3609459081811999, -0.2660314271933032, 0.42900406173031974, -0.6241040789137066, -0.04612087002756492, 1.0029140097314642, -0.3856328892432283, 0.04786906904922798, -0.5210066471774829, -0.08529278470482503, -0.09965336146923587, 0.23517316436087293, 0.6580328310694054, 0.7751499952123065, 1.2186668155685016, -0.5350696126779046, 0.030496082596364354, 1.0990420867230548, -0.027576056343100987, 0.42038408742433026, 0.1949155093429778, -0.4070213015020448, 2.3513751489258836, 0.7195743114151225, 0.5826435640670038, 0.6180637068131534, -0.11981563476368629, 0.4832202378244628, -0.5539383121651505, 1.8032066599704812, -1.4938656834502013, 0.5960117933600472, 0.3194462656965048, -1.4291736104084443, -1.4089020566086774, -0.435667550922319, 0.4384544214141249, -1.2411696749610888, -0.7686612760351371, -2.1633593056890867, -2.0948746274297756, 2.2249125968341814, 0.04591806311197415, 0.8782736614380999, 0.20813295493764805, 0.6648024365925983, 1.673620260826096, 4.028206012996594, 0.9698681075344181, 1.1492353656296121, 1.8266521810561025, 0.8930215213787395, -0.4532675012825552, 2.1735642424725397, -1.48831350004887, 1.6924636404248328, 0.024769772408143445, 1.2160488460004175, -0.48416553569251897, 1.5241887844631123, 0.12306943033047552, -0.37397488112462435, 0.3405850595359903, 1.4287492294157267, -0.7364104296349273, -0.5704839187364702, 0.6879000745267143, -0.2920240734336522, -0.1754715657078732, -0.25544053350473706, 1.3441205139890333, 0.5962798659202909, -2.5099936822076603, -0.2551024270857991, -0.7737803159668315, 1.541922379077599, 0.5584807755528238, -1.7949110336681293, 1.9926873432969812, -2.0226124362114715, 0.5242912907074752, 0.6067950992791749, 0.47120631643756306, -0.09172030005626527, 0.9989024554451726, -0.04002640068907895, 0.20672540098211362, 0.3966383013703341, 0.853914632219151, 1.4010030297720153, 1.3860267615379593, -1.520880064996481, -0.9295699369517687, 0.7361192714793392, 0.2738394145664574, 0.6444434579412571, 0.07927984992526005, -2.3243729060412193, 1.9584076845206435, 1.3074591285468682, -1.9346956440950482, -0.217174876945851, 0.5576866931575719, 0.31597516958674426, -0.051496563569082575, 0.09548626131280016, -0.2888073457088853, 2.388399168047973, -2.300505878079346, -1.6160414827350673, -0.41236753888400207, 0.1578274302050706, 0.6023883206521216, -1.246184858927183, -0.6181003437637628, 0.6556704192797884, 1.690477469380089, 1.361266284265313, 0.022165884217444937, -0.24026165678369438, 0.9881458340057906, -0.26993934701260597, 0.4273096792599929, -0.6289953920689746, -2.526727103512538, 0.08924905814158703, -0.12650608489502255, 0.5555266619564526, 0.3819976290295166, 0.587853949358152, -0.24980780383499365, -1.0115814869954842, -0.2989394102171187, -0.20030968615334682, -0.24883810329635608, -0.36323267349936966, 1.8550504280953222], [1.5898326859763134, -1.35765596865234, -1.4881487160863105, -2.151404556738439, -0.038863352626857806, -1.3261135734863019, -0.8059307972153457, -2.3536595347007196, 1.0871455437547224, 1.0862254963214388, -0.7002220131773736, -1.5292434562793757, 1.5897878528796665, -1.2987572918413701, 1.4528036533854558, 0.9948374681352616, 0.2060777696081383, 2.3235068082493244, 2.5817627452235183, -1.157376352316164, 0.8773101304238957, 0.8592231746657047, 0.6744248576053606, 0.3655921839359158, 0.5578855629320947, 0.6615315679507928, -2.865118601299333, 0.7161155614256258, -3.147687404396048, -1.4376784525579291, 0.9415095124622521, 0.7696136953660673, -0.796014436914903, 0.5877782392041384, -0.09792904098991233, 3.0894370073312425, -0.5031957539128905, 0.7226428667170429, -0.9143862870699067, -0.4297930822475919, -0.7096516744776656, 3.251222711701339, 1.4355781191505916, -0.11825640856586259, -0.576865274950586, 2.09072803565479, -2.5518144533433538, -0.1850881811637984, 2.0989232730724003, -0.386963260021961, -0.5871056260402476, -0.053823550830577827, 0.9798164738727076, -0.16909686133202345, -0.14455556956573828, -1.2232470444638253, 0.4869389744264042, -0.44116255119263276, -0.9527950214421821, 1.4833693526852048, 1.8224334389387409, 0.8916790072709437, 1.8924399525856557, -0.1756438231552583, 1.9837308055953489, 1.1586670353069763, 0.9870243381354008, 2.191448916492125, -0.10464730897568338, -0.5916349637734614, -1.4726842769318913, 2.797874023342734, 0.9017783108271046, -0.5915004488669383, 0.7987647241334667, -0.38591088735907125, -0.25476653233315705, 0.010048540419568715, -0.4827837555467112, 0.7690929860571686, 0.2926845501308775, 0.7461183460790566, -0.10215879792985985, 0.018294532288474302, 1.0637644763612508, -0.7730783173834531, -0.2299860754719954, 0.36704258272669454, 0.0005519774225606483, -0.2650281375620799, 0.5374585728871614, -0.3135868230626395, -1.875769799859302, -0.559945329020139, 0.1022529863744939, 0.6959804238599963, 0.3717126844891688, 0.7502223392025746, -0.661621185723072, 2.6733352550737397, -1.0197423971453643, 0.33262223882012454, 1.0547239449206127, 0.6854346513115213, -0.2162052046287522, 1.7737678343212122, 0.20348816145724302, 0.031371190916110805, -1.10032352918509, 1.1120187330031257, 0.25292637832404863, 0.34346285615308436, -0.13705005676572485, 0.33238429424191385, 0.366215623246411, 1.014436863894856, -0.25319499374927856, -0.11348006635680104, -1.4365627166149406, -0.4100570106586522, -0.14556579484268317, -0.38030736912832236, 0.469354417477002, -0.31398406426425707, 0.311655257885664, -1.0938882107215555, -0.1314547539887263, 1.2572607377031295, -0.3918900324395055, -0.6690685938106045, -0.35001465274620186, -0.488028685309576, -0.2695453349020598, 0.5511356672841731, 0.42015562651867266, 0.832144654992146, -0.9253216261023578, -0.14642457078494195, 0.20700371212558832, 1.3692645121598956, -0.027576056343100987, 1.204812233585729, 0.25764459479044827, -0.5577887189707517, 2.365484888753025, 0.3077112306312759, 1.0106409850846991, 1.0981127939271522, -0.02611021348834282, -0.21070611183665483, -0.5018350642220998, 1.6400642805212713, -1.4155465486650936, 0.6431807690325259, 0.2467931628886029, -1.751639335990676, -0.8197761485692662, -0.22586978943087016, 0.6857077098040253, -1.7581581335494614, -1.414279030932653, -2.717435246419233, -1.1412236385003063, 1.751820552989308, 0.009003314268852536, 0.8782736614380999, 0.20813295493764805, 1.733742040637361, 1.8021007985930086, 4.071775010683061, 1.126996599720669, 1.1492353656296121, 2.242410331915309, 1.2392229641125037, -0.4532675012825552, 1.4624215423456992, -1.380489599593599, 2.872697429075267, -0.3233643467719491, 1.2182533375694793, -0.6019241768448902, 0.8674258213559858, 0.12306943033047552, -0.39062717588100626, 0.021727079350102804, 1.4287492294157267, -0.8190043392250307, -0.561847488026883, 0.3015084554472061, -0.27429790268058196, -0.24073861987081852, -0.41729253005232736, 0.9711440550139097, 0.5962798659202909, -2.271058848315173, -0.1960645698029083, -0.5985562832391874, 1.6625595112456135, 0.2875845322821894, -1.5244782349803498, 1.0290491292747914, -1.9991033212803553, 1.0328750361384298, 0.807728467847378, 0.45889543199437166, 0.1430790765556834, 1.5613444610824938, 0.07490486460461718, 0.11080773758587865, 1.0177359894158053, 0.8982660584678956, 1.2798716173885811, 1.487528766396249, -1.4689714732201082, -1.0375320078459702, 0.30308246416044016, 0.6031204899539286, 0.7848659783582516, 0.04149402505518455, -2.3085636118073616, 1.686356246579246, 1.2540582194898409, -2.028507415922978, -0.007783318890885849, 0.45998655714318193, 0.2033401396644585, 0.03011285608149833, 0.39645792412928355, -0.13976974008133816, 1.9863446584601485, -2.288654713382586, -1.6160414827350673, -0.12359076178626285, -0.3242878089245145, 0.5036336594774347, -1.5500192772864159, -1.280872206718193, 0.7079746004807479, 2.2447787291877708, 0.3732732927293533, 0.25605276032760615, 0.6309019250565614, 0.8191167679823878, -0.07959863651371131, 0.24277053513817237, -0.5303853291012955, -1.9032523175407587, 0.08924905814158703, -0.23073693447049423, 0.5861511748129078, -0.03426938084115813, 0.6511306843674723, 0.07597304939606919, -0.6088488302296942, 0.43791012948058183, -0.16588038071829883, 0.2044643171828754, -0.7947658126999981, 1.4551448799958213], [1.5464122235162725, -1.2036720448571618, -1.6512766410952682, -2.48404286090347, -0.0721444156331751, -1.294359308445083, -0.6036474307287127, -2.4768997697768222, 1.4544439111923375, 1.6645442482413038, -0.11362549468221828, -1.7263377782878848, 2.2216534887919357, -1.3670371556563587, 1.3200991650214726, 0.537404632767261, 0.32695365444651886, 2.188485154267421, 2.616931099070407, -1.4833413740778911, 1.1532054466005128, 0.8592231746657047, 0.3001568084584809, 0.23706400925967636, 0.03566135476689676, 0.5457706487913847, -2.95489102579061, 0.25020234792241053, -2.9478907855521426, -1.072121166062341, 0.8011434073793112, 0.6246300693120361, -0.7568154577862197, 0.5798215094052871, -0.7793543079891229, 3.2043236015021126, -0.5607811308183799, 0.5430907354157376, -0.522547996279861, -0.441797183190245, -0.5834599885527123, 3.3795762985434825, 1.138631067532178, -0.19898941539314652, -0.5102433033331388, 2.09072803565479, -2.1931622359869576, -0.7065226333037374, 2.06316324353256, -0.40481011640244263, -0.8874258835540133, -0.3581056314161763, 1.2948705932893172, -0.017694806980406763, -0.43893974135876423, -0.5325426125609011, 0.38167197100992034, -0.6740700832406223, -0.32303836346716025, 1.361201727700852, 1.680678560047625, 1.1484464882964711, 1.8924399525856557, -0.20906406259600038, 1.7276160871675623, 0.8861107400887436, 0.9496059026883116, 1.8258372327896566, -0.1961012678052709, -0.7631423779676783, -1.7591687761570527, 2.6115961721461147, 1.32880354387216, -0.578036159137013, 1.0824862762986383, -0.840358053060775, 0.5270375156963631, 0.046235834112692095, -0.3582298190872503, 1.5354612809852588, 0.4835338086840843, 0.38835061872175386, -0.4115726753567742, -0.31757381525585293, 1.2238025108785866, -0.29047315904913346, -0.1790038008846166, 0.45549796343656446, -0.1554915194424287, -0.49262720496084933, 0.6525572374626148, -0.2452203998190407, -2.0432377987852846, -0.713711108747235, -0.17072553040278093, 0.710312129524709, 0.421643813077832, 1.1724851611513847, -0.6484062575430833, 2.765548101970464, -1.2015236341360516, 0.3336660053564283, 1.032873479509104, 0.2703426034578683, -0.2162052046287522, 1.5200453508560725, 0.20511017449555025, -0.03167625831001808, -1.2410358180897916, 1.7854885083131806, 0.202161921023428, 0.17724870990842212, -0.5757936535291736, 0.34242780009246465, 0.3950715833474414, 0.6420149559666273, -0.5256200466617744, -0.11118766112556014, -1.7953098470130395, -0.39436272330709865, -0.4541723910117482, -0.33113516518416797, 0.12314108975048972, -0.069315133141676, 0.17034844211524053, -0.8946415258897262, -0.2424805947559806, 0.8841289611894713, -0.4141041307007047, -0.4319851545791493, -0.7092560142691261, -0.2565095334927254, -0.015117490533830796, 0.2582122174157288, 0.6152109898464293, 0.588765009684832, 1.278220329192457, -0.48308723582407137, 0.30494290488381554, 1.3520483588348011, 0.016775847301738915, 0.6714126017889641, 0.3120434918178132, -0.16883742694166828, 1.5900802154586224, 0.4838068034112234, 1.0020474818191234, 0.9291677286563645, 0.01095115459244228, -0.1228513659150879, -0.5861766916111846, 1.739261016807648, -1.319653458324122, 0.6431807690325259, 0.306732892138985, -1.481748698409915, -0.7644510221571884, -0.2548427559218468, 0.4317374664900849, -1.1883801638293616, -1.2363474143069642, -2.2993220739528937, -1.1376833313746495, 1.9328202874315, -0.0029174258855143714, 0.9910585445938099, 0.20813295493764805, 1.581334506773048, 1.5983702561821185, 3.8349062248928902, 1.509356268799089, 0.8568725111621378, 2.2229106719442298, 1.197592637164487, -0.4247480517297997, 1.481887913477255, -1.380489599593599, 2.7411155371580347, -0.38525789077851047, 1.6669068140985766, -0.30499104030394136, 1.2820772640893487, -0.016252580750228045, 0.6907000339833457, 0.5301937737203416, 1.1494974377826086, -0.673424696121751, -0.7605048621239663, 0.3311906622605356, -0.1680707818058656, 0.23409631192332875, -0.5078788443799495, 1.1098197852926204, 0.6746319998268284, -2.4512028519209546, -0.18025371855662353, -0.7768180096047619, 1.535392263539646, 0.6539807867841739, -1.3038289178242521, 1.0075487705790662, -1.9991033212803553, 1.2347985896309408, 0.36361924893939795, 0.4755142562003393, -0.26081249409929363, 1.2747057388031748, 0.08503607280959324, 0.07597343687586561, 0.6470799547173187, 0.7500536289640303, 1.3521950835314531, 1.7442896373140682, -2.1524865874025556, -1.0208620737304168, 0.29202485075940593, 0.20127073706829063, 0.9416057468695741, 0.22311568548581018, -2.3243729060412193, 1.686356246579246, 1.2973535448631943, -1.624056165224653, -0.16719800298723375, 0.36558656944862944, 0.2641957211457111, -0.0689988833730599, 0.4416039860087765, -0.11118792297225756, 1.9863446584601485, -2.440519025001525, -1.6160414827350673, 0.28433293924746994, 0.0796138682464981, 0.2083217970344049, -1.4897235437725855, -0.4736005835070291, 0.5225896560438618, 1.697206735765898, 1.1242899300156155, 0.39323642126761615, -0.03494581995471606, 0.7876286960208221, -0.07959863651371131, 0.24277053513817237, -0.5303853291012955, -1.6969033234633064, -0.11432585137625242, 0.048768586287406435, 0.9878497577445613, 0.06065643755106301, 0.5691110773862915, -0.3619693916902024, -0.9609974358599869, -0.16993861859932802, -0.4384963120169217, -0.056468600999737, -0.8686710951238548, 1.7858521441421977], [1.6666180989009685, -1.3363788764492206, -1.6111888621199995, -2.497487239705735, 0.016551277916011152, -1.38763574762534, -0.8059307972153457, -2.244151368690223, 1.306673592471463, 1.7878877008712553, -0.7464199597810418, -1.7378836232098136, 2.089738959765989, -1.4870890241302759, 1.4695358174958049, 0.8321911895357983, 0.45694768359354776, 2.1537615353609145, 2.5817627452235183, -1.5798924056210175, 0.3823275385089491, 0.5854135417044949, 0.4861664819269294, 0.10155575458049261, 0.29710222023168775, 0.6705131421409147, -3.3524646822977204, 0.6149844456873079, -3.2502703454781945, -1.2693986535236281, 1.1051462247242962, 1.0575350573866726, -0.6198763615613672, 0.08132327007331783, -0.9113334799598819, 2.685059291239454, -0.4459428703803914, 0.2921476558759855, 0.3554538568110846, -0.7391012547874707, -0.13331997045351432, 3.5702128209359065, 1.256309846959004, -0.16893447931010486, -0.6852385687769376, 2.0598924434863455, -2.1321931624725403, -0.29912264191224835, 1.220637300908974, -0.23771906367347378, -0.7021513608127922, -0.5185272137758055, 1.0425445545751744, -0.4574504677257083, -0.3707877358510592, -1.2232470444638253, 0.48960947855739095, -0.3864583774325268, -1.3402856673803591, 0.46637470258267966, 1.7709983542288512, 1.0526735171585075, 1.0403708453004068, -0.12682385032709453, 1.8196920430883325, 0.8985727082644434, 1.3764189776779203, 1.9427375781494456, -0.48974998513369433, -0.7323725927687024, -1.488994708154501, 2.7705457192185854, 0.5326485431910779, -1.1759140509953212, 1.049153098992412, -0.4469037151570068, 0.3889846661831976, -0.20595048699957924, -0.7243364895588476, 1.1403311537224403, 0.2926845501308775, 1.0114109348767597, -0.09418518844413158, -0.5298464129822885, 0.8530318529581684, -0.8517588569780284, -0.3304897699089411, 0.14332770489402674, 0.03747817922629729, -0.3581618612764182, 0.50905031303986, -0.19401837333780625, -2.0432377987852846, -0.5213302733744903, -0.2356781188015052, 0.8786437764209047, 0.6097077817826576, 0.9107548511187579, -0.3082942823244236, 2.4036297305381304, -0.9935016001888002, 0.5610693099477182, 1.0058602463563187, -0.03945920314608712, -0.2162052046287522, 1.625480936746274, 0.39917125064248515, -1.0474298384698268, -0.7890756573086024, 1.1912904109547682, 0.7387625050462148, 0.541001210370023, -0.37183806240325135, 0.2905454251011186, 0.455595550688328, 0.5917201435651815, -0.27047301713954397, 0.06939105958064423, -1.2593546032890952, -0.5167175057903897, 0.4538153770711237, -0.22035765844440594, 0.45442890958378973, -0.23910418288812008, 0.24268802329366326, -0.9976616371079507, -0.04612087002756492, 0.7697390300087248, -0.16769073665616877, -0.5146989698549024, -0.17873246025263564, -0.06386026355758756, -0.3058946753157664, 0.2582122174157288, 0.5790796360036379, 0.832144654992146, -0.9360210421916142, -0.5350696126779046, 0.32940597502826097, 1.3285885267977136, 0.3328818857624635, 0.5906901248552563, 0.25564118458879515, -0.18935438197448237, 2.145883362512547, 0.7007853226241373, 0.882054534387094, 0.7636805698516641, -0.06265304574245523, 0.4832202378244628, -0.4519413869534344, 1.7841194957539117, -1.1463080402492145, 0.4518778077181613, 0.3194462656965048, -1.5168293960041899, -0.9756650024507897, -0.5914288277796331, 0.6036512159050749, -1.4267113841003616, -1.5343566943747469, -2.865542056231433, -1.3859915083254855, 1.8340180904062537, 0.07702297513379673, 0.6918549277229733, 0.8475962398529528, 1.0055677557345357, 1.8430707617475879, 3.7824324469817285, 1.0076218915888993, 0.9052683534203021, 2.0414438966416006, 0.9395339287666825, -0.42031648476137523, 1.481887913477255, -0.5064592337707676, 1.7349717394453927, -0.23347453238904353, 1.2160488460004175, -0.4421382112167308, 1.2975965403388237, 0.12306943033047552, 0.04146937241223195, 0.614954910754232, 1.4287492294157267, -0.7257232944930249, -0.27920004623812006, 0.6361939756360706, -0.251049813949803, 0.06502342047007623, -0.27797470329808255, 0.9809600067204365, 0.4804839660034405, -2.5099936822076603, -0.18025371855662353, -0.47053882714066175, 1.297403114960479, 0.6761405554213373, -1.6021969652661947, 1.9128779432446739, -1.871346060500298, 1.0486484364716961, 0.26527296875227213, 0.45889543199437166, -0.20666346573279828, 1.6007414569331033, 0.3710389900238031, 0.20672540098211362, 1.0643492216518673, 1.0468989872851377, 0.9735179177030926, 1.7946096233442057, -2.1908918635543175, -0.7817209801715447, 0.4525194959960829, 0.6874585036647934, 0.7881315702996425, 0.20372235741608546, -2.5186586416294006, 1.751144841973543, 1.3785990222867455, -2.086919976325359, 0.30869788438010337, 0.36558656944862944, 0.6323032757954389, -0.08266031221887297, -0.22131068809726895, -0.24452637217111362, 1.8231330257132994, -2.1307390148985506, -1.8393477104303233, -0.11204215680174111, 0.17749338025311506, 0.4544751703198696, -1.3653766520763064, -0.4711113691769968, 0.6904903805854468, 2.0454954927787776, 0.4410653129040428, -0.0029513095840121017, 0.7169467313378423, 0.7876286960208221, -0.5013868674554416, 0.24277053513817237, -0.6989182311036767, -1.6740292216246624, 0.3284685310995122, 0.14503581001958038, 0.9285409264284383, -0.010945938937640565, 0.8028189264739238, -0.17033178534643123, -0.4808414538334071, -0.3744436713345338, -0.16588038071829883, 0.09417291207357711, -0.17140235909539653, 1.646103647134558], [1.5898326859763134, -0.8935294082431249, -1.4722500152040432, -2.103331785746167, -0.4528996208485673, -1.38763574762534, -0.7798940972026696, -2.541023425627828, 0.8680983539200632, 1.6645442482413038, -0.7464199597810418, -1.882267499298813, 2.1837634905411676, -1.0988516880602877, 1.2422940692764202, 0.5346193789573971, 0.22005978128559192, 2.2616967397549446, 2.556778069389545, -1.6421229159977642, 0.9067751030319412, 0.8692761280086914, 0.7529963090094067, 0.2771931256900436, 0.023979344699011834, -0.18516330037039844, -3.0030781513148823, 0.4254918504572293, -2.6987230696424116, -1.072121166062341, 0.7232257699685745, 0.5994642759811473, -0.6198763615613672, 0.5855843058016786, -0.09792904098991233, 3.1202602551399816, -0.4098660307045339, 0.6792554837948248, -0.20330174386678887, -0.8235523976340471, 1.3188248135239133, 3.3704816948637943, 1.256309846959004, -0.477403433744761, -0.6424858232280081, 1.5457651779237893, -2.2789278411653187, -0.291190646302215, 2.1863387343713456, -0.4653678860869318, -0.6950056733534629, -0.3124181191703714, 1.0627385338141535, -0.3597765707995243, -0.45584640589613823, -0.6447176989277881, 0.48960947855739095, -0.26480713413285817, -0.557864186548642, 1.3399542627583192, 1.7955555869095459, 0.9565698567160738, 1.6943105283805129, -0.011853221123075006, 1.8909566491523548, 0.8476186630688335, 0.9407123813312949, 1.7229736976829744, -0.35157899647467694, -0.5412312314083466, -1.488994708154501, 2.8778161392446924, 0.33205106900438175, -0.5056586400627019, 1.0824862762986383, -0.4050410612872776, 0.5966772008806299, 0.06195150413592036, -0.6716895577915355, 1.325264201503637, 0.25106789612149577, 0.5480804476041029, -0.4516262327263258, -0.2720996175735751, 0.8262546034133894, -0.42409846108409277, -0.18818518999472356, 0.13682748804125944, -0.10325758889939834, -0.3965263262704711, 0.4498239079500214, -0.14879340513015799, -2.0432377987852846, -0.6197119678441021, 0.1855840177662925, 0.7276389015061117, 0.5121591477028365, 0.9017267695130853, -0.661621185723072, 2.602850349491245, -1.1502889801083431, 0.46686335854092276, 0.4189844009042575, 0.0701227942646424, 0.06731437995765852, 1.361407192566204, 0.6197082156631548, -1.182680607566672, -1.3932761858949756, 1.1912904109547682, 0.32666857590046894, 0.591079723771179, -0.4098465898168291, -0.07771899437648688, -0.12398717178512049, 0.6057529883256846, -0.23790498404308333, 0.06939105958064423, -1.9283253265399651, -0.39436272330709865, -0.10303725694873976, -0.19863773322877787, 0.6143902699000163, -0.06213295569774238, 0.4108837319735681, -0.7225570668536309, -0.04612087002756492, 0.8158024017160133, -0.3856328892432283, -0.1815712108714404, -0.03972811648835731, -0.22340729003915571, -0.08890493768066977, 0.3505555181668638, 0.7118212749351926, 0.8241971015397853, 1.3076081417534844, -0.44533354581273915, 0.11842624973115205, 1.4296790491346179, -0.27639962434569343, 1.2046032690517499, 0.04941144069705358, -0.600422743348838, 2.2207216736392206, 0.6074160745305667, 1.133927421275747, 1.3056708810557531, 0.03288482338587869, 0.15139027088556684, -0.40136927897426844, 1.5304234653718012, -1.5672392291816597, 0.6431807690325259, 0.246347791587616, -1.6259586592308721, -0.8325385056414463, -0.5547118124964532, 0.6086230694929352, -1.1883801638293616, -1.4923724376502392, -2.4818017275711686, -1.7719799670899055, 1.8340180904062537, -0.0029174258855143714, 0.9676115918427669, 0.20813295493764805, 1.2969924436221758, 0.9676260780193513, 4.286231133981758, 1.6642938481323253, 0.4464180595121584, 1.8734528236011032, 1.488967775698881, -0.5745756191081333, 2.1826090364057866, -1.4832031492714404, 2.6329891178616665, 0.18802797727388892, 1.9617889901055388, -0.4421382112167308, 1.0712297735835916, 0.3282037328005387, -0.05786631265769898, 0.614954910754232, 0.9928363044781895, -0.8190043392250307, -0.27920004623812006, 0.5672327896857727, -0.1680707818058656, 0.025142534762032154, -0.392469301574909, 1.03288796636929, 0.6411537374024135, -2.318503240379083, 0.2810362935214111, -0.47053882714066175, 1.6621638132599765, 0.6761405554213373, -1.1154013151775053, 1.0015470642391329, -2.0618570824763527, 0.948461299063915, 0.5723939209352867, 0.45889543199437166, -0.26081249409929363, 0.9989024554451726, 0.08689982107222896, 0.3802702398732536, 1.129048952197357, 0.8846836360584899, 1.4422702307658686, 1.4139898079902176, -2.226660258801621, -1.0375320078459702, 0.7252312824268937, 0.4093541031980161, 0.7666507162863307, 0.22311568548581018, -2.499279470365357, 1.7539463274090763, 1.4022423102418455, -1.646886156025922, 0.30869788438010337, 0.33956294914175744, 0.5383045850956503, 0.03011285608149833, -0.06670560039391653, -0.11083854843724189, 1.6415578566361841, -2.20520062343955, -1.9407505884459797, -0.019822111300400846, 0.0796138682464981, 0.4364604492090019, -1.3653766520763064, -0.492006632895591, 0.3796347773398767, 1.5862880985721017, 0.39471539050438675, 0.18054154262246017, -0.03494581995471606, 0.8635813582984296, -0.4525779688009204, 0.44477437631734074, -0.6989182311036767, -2.038616435157753, 0.13769183931670181, 0.09420887328523533, 0.8286592575262829, 0.16412659803419932, 0.8574766222099285, -0.17033178534643123, -0.9609974358599869, -0.3228272762960934, -0.3030666751925695, -0.2207167544613492, -0.10091254023977901, 1.6388809753378928], [3.1675783829679127, -1.42814669231226, -1.6839506499677028, -2.3851700978491572, -0.0721444156331751, -1.38763574762534, -0.8597982849937034, -1.8690838098914264, 1.4544439111923375, 0.9992009858015694, -0.11362549468221828, -1.633264010139718, 2.081843900844728, -1.4870890241302759, 0.8581458521325958, 0.9166950498189597, 0.36299853696276563, 2.061418355442188, 2.616931099070407, -1.4833413740778911, 0.860323418948475, 0.9298875459699858, 0.3001568084584809, 0.22662835939058798, 0.5912155795826555, 0.5784184596192207, -3.3524646822977204, 0.5078250707416326, -2.6987230696424116, -1.266861615351511, 1.1564650901149098, 0.9325489985822146, -0.6732744480022516, 0.5798215094052871, -0.613770374256956, 2.6585496070583354, -0.5031957539128905, 0.435458691959641, 0.4919059524082504, -0.35964131554119855, -0.08488878274132658, 3.487101751212922, 1.1407243771035642, -0.21995100374846555, -0.6417757842842652, 1.8174723238457235, -2.2073415987906824, -0.6371087543588705, 2.1863387343713456, -0.4653678860869318, -1.083152988158958, -0.29900821572053105, 1.1213541373824587, -0.5813177172862407, -0.41617292134812595, -0.5073402791329139, 0.3744137880608558, -0.45107400792480595, -0.48589926155790325, 1.548610461301251, 1.8815730709254737, 1.1680256595857654, 1.0403708453004068, -0.19480522221395782, 2.032011666182935, 0.869902758779367, 1.294588416490015, 1.996730366058622, -0.21852843450968015, -0.7631423779676783, -1.7506480899964822, 2.7692371328766656, 1.38631084360313, -0.3677279035184552, 1.640413200696344, -0.4469037151570068, 0.4902537884528312, 0.06195150413592036, -0.4827837555467112, 1.0185233159487108, 0.1918831619907619, 0.5120333670752641, 0.12899557252394858, -0.4021689517150427, 1.0495075879138807, -1.022740334687214, -0.2299860754719954, 0.06184042410832055, 0.28027831546220267, -0.44741397326562876, 0.6788528340270612, 0.17831049169849153, -1.875769799859302, -0.05562067065545609, -0.11273565066530636, 0.42120263257922586, 0.4604946743061131, 0.9071661533091021, -0.5803702277724683, 2.602850349491245, -1.066887270271026, 0.39112935522395903, 0.9517793867487241, 0.16837994159171826, 0.07212231970210922, 1.740734537735346, 0.20511017449555025, -1.0474298384698268, -1.090770294083663, 1.4361253362504216, 0.6892083594996343, 0.40559037030192735, -0.37183806240325135, 0.07662718010871267, 0.664058397805872, 0.6057529883256846, -0.23790498404308333, 0.7679086042222365, -1.246700850220528, -0.4682709543654219, 0.4538153770711237, -0.22035765844440594, 0.49783847231874234, -0.19407289423907972, 0.22575736946072908, -0.8946415258897262, 0.3303381860365535, 0.8158024017160133, -0.22115498527837757, -0.4173275027532963, -0.8361640251638375, -0.32729990098345624, -0.05194162631733629, 0.5875424635626962, 0.732150958696338, 0.832144654992146, -0.4211237984208419, -0.5350696126779046, 0.41915639417845835, 1.4220127540458083, 0.1133188797091666, 0.42038408742433026, 0.196643213191565, -0.44761330695035817, 2.69166426333218, 0.5889251757812686, 0.59580195603269, 1.1447470060547358, 0.008643525166469455, -0.14718832646247368, -0.37853321716015, 1.7867517447544514, -1.319653458324122, 0.4558727865914062, 0.1416218069551588, -1.6225612588718836, -0.7315542129167355, -0.5914288277796331, 0.3490242979534549, -1.2192922618595254, -0.7200693778104148, -2.380821461292105, -1.2862058531546405, 1.8023090750200395, 0.08133314979383206, 0.9676115918427669, 0.5735215740933608, 1.581334506773048, 0.995116145625124, 3.8033180786489287, 1.0707117396878252, 1.2468559945918614, 1.832666164715482, 1.2418654265983489, -0.3764782023948453, 2.1268107546541763, -1.380489599593599, 1.7626565168579684, -0.45629393882687097, 1.1608978492561557, -0.5905230821556956, 0.5438635417306642, 0.12306943033047552, -0.14474964857230987, 0.5301937737203416, 0.9928363044781895, -0.614279323647393, -0.91200718898379, 0.45184255134595713, -0.017907036817309263, 0.3404266491917994, -0.392469301574909, 1.1098197852926204, 0.6411537374024135, -2.4512028519209546, 0.24082643917007318, -0.9552703921693224, 1.297403114960479, 0.8007904125533047, -1.5898467553378977, 1.0290491292747914, -1.8028467317276375, 0.948461299063915, 0.8701697576128736, 0.4877234328088137, 0.016014247276897056, 0.8949947928569503, 0.0011252904264702213, 0.3674151713018329, 0.979090584302797, 0.6256122997118622, 1.3521950835314531, 1.7845138705436518, -2.0781432485415587, -1.0461835364431227, 0.30308246416044016, 0.20127073706829063, 1.2078177038887916, 0.18632256994244023, -2.9989603541533194, 1.780600683489912, 1.3177150655962606, -2.028507415922978, 0.30869788438010337, 0.3709179898034833, 0.5855861000429483, -0.027954963221045286, -0.22131068809726895, -0.21915531354968198, 1.8943057121857452, -2.316008188248962, -2.214776981412119, 0.048826212692698615, 0.1255914833819138, 0.4281623997765789, -1.4639189033363795, -0.8015948054442862, 0.707686852378167, 1.6990957653408387, 0.522131633720587, 0.39323642126761615, -0.18816191503147317, 0.6918644713440545, -0.5277680631302798, 0.24277053513817237, -0.5834541934282909, -1.8163204183045205, -0.09524770043723688, -0.12650608489502255, 0.9153462327360402, 0.16412659803419932, 0.7889784523097945, -0.0933147646300427, -0.6088488302296942, -0.0725316693321405, -0.41245593585702567, 0.2044643171828754, -0.6644328692299938, 1.4551448799958213], [1.5898326859763134, -1.437337250358017, -1.406261140155539, -2.3851700978491572, -0.16792384014087544, -1.2208088235419614, -0.7728006513752044, -2.209427153883386, 1.1796319084667861, 1.6645442482413038, -0.7464199597810418, -1.882267499298813, 2.1837634905411676, -1.517911518956147, 1.5528159150650613, 0.8321911895357983, 0.22005978128559192, 1.7480809584710126, 2.4730768981291122, -1.6421229159977642, 0.8773101304238957, 0.8592231746657047, 0.7529963090094067, -0.09050635195827463, 0.0897342507782953, 0.7559916406476836, -2.880880421277643, 0.7161155614256258, -2.6987230696424116, -1.4376784525579291, 0.9415095124622521, 1.0408271889378689, -0.993642917571773, 0.5877782392041384, -0.09792904098991233, 2.915062034058422, -0.5031957539128905, 0.5867782251708238, 0.4919059524082504, -0.8235523976340471, 1.3188248135239133, 3.3433742269818065, 1.138631067532178, -0.18119370622021827, -0.8531136954266734, 2.0569370890212038, -2.266943170635926, -0.29912264191224835, 2.1692378311169302, -0.4653678860869318, -1.0627359484880996, -0.35540529500644547, 0.3465421992014942, -0.3597765707995243, -0.6399087680837847, -0.5670468671139854, 0.6127050156866785, -0.32309899455530133, -0.557864186548642, 0.687933907480815, 1.96012535907744, 0.9565698567160738, 1.6618148986545367, -0.1697964592404276, 1.939006393737939, 0.8985727082644434, 1.3764189776779203, 1.8990561054259631, -0.4363202934219872, -0.7508900342381788, -1.7111168665056136, 2.797874023342734, 1.0100506664768545, -1.2398911167612938, 1.6613045535494169, -0.38591088735907125, 0.39883826343588874, 0.06195150413592036, -0.5821059684902186, 1.3200201626227952, 0.2926845501308775, 0.5480804476041029, -0.3337925487171738, -0.4429865562864814, 0.9268361916575805, -0.7730783173834531, -0.22263786441683453, 0.3054383836264854, -0.2125358528169555, -0.48933622299971336, 0.377230749831145, -0.08771572632408221, -2.0432377987852846, -0.5070657531008684, 0.1855840177662925, 0.7968818154381622, 0.6516062605970654, 0.9017267695130853, -0.661621185723072, 2.602850349491245, -1.068670530729179, 0.2748259411190896, 1.0547239449206127, 0.2187243655978765, 0.06731437995765852, 1.361407192566204, 0.41867568462088733, -1.0474298384698268, -1.3932761858949756, 1.2571246204851365, 0.202161921023428, 0.34346285615308436, -0.4683125016883691, -0.07771899437648688, -0.12398717178512049, 0.6308063795225946, -0.25319499374927856, 0.5931539829370986, -1.246700850220528, -0.39436272330709865, -0.10303725694873976, -0.10594548655370162, 0.5250928769075682, -0.17275795298616145, 0.4108837319735681, -0.8002989791931244, -0.04612087002756492, 0.7162777660667798, -0.4176625132111965, -0.7932970258299678, -0.35001465274620186, -0.32729990098345624, -0.14108749471808935, 0.5511356672841731, 0.7051913413091202, 0.530894729191627, -0.9253216261023578, -0.5481963245251081, -0.039674348784242475, 1.4296790491346179, -0.038680246505859335, 0.4794273394064449, 0.04941144069705358, -0.631695755313269, 2.2207216736392206, 0.6074160745305667, 1.198011127916589, 0.8203180806888958, 0.03288482338587869, 0.09007606451494651, -0.40136927897426844, 1.5304234653718012, -1.4158446374174032, 0.5647083051347911, 0.246347791587616, -1.751639335990676, -0.9756650024507897, -0.5547118124964532, 0.37720853210642713, -1.1883801638293616, -1.4923724376502392, -2.418186511441458, -2.0948746274297756, 1.8340180904062537, -0.0029174258855143714, 0.9663160880123968, 0.13456988018412125, 1.530448007422044, 1.8021007985930086, 4.286231133981758, 0.7600070648954589, 0.4464180595121584, 1.8462336457897293, 1.488967775698881, -0.4247480517297997, 1.481887913477255, -1.4832031492714404, 2.6329891178616665, 0.18802797727388892, 1.614124153039108, -0.928092627220184, 1.0712297735835916, 0.3282037328005387, 0.6907000339833457, 0.021727079350102804, 1.171771091950147, -0.8190043392250307, -0.637452997360179, 0.6650921490999883, -0.1680707818058656, 0.12290564816155497, 