{"agent": "GeneticAlgorithm", "version": 2.0, "generation": 466, "hyperparameters": {"pop_size": 200, "elite_count": 5, "mutation_rate": 0.1, "mutation_strength": 0.2, "tournament_size": 5, "layer_sizes": [11, 16, 3]}, "population_weights": [[0.9893583930514749, -1.5472498538273647, -1.0685578292067763, -1.0099204565924988, 2.401740374082977, -2.317196202500976, 1.3880148968132058, 0.3337628931767649, -1.833534944195212, 0.4706762052279762, -3.7621205344860926, -3.3956675416276796, -0.6077224299541149, -1.992348496671142, 1.5442513189065137, 3.6692208757608546, 1.206111085152245, 1.1613065933381468, -0.5362453490130525, 1.92379504272244, -1.0014727699027424, 2.7547817515022457, -3.707696387766688, -1.142193827785599, -0.8025206516102946, 1.1234227963528376, 3.534840574804428, -0.16794184795124395, 0.04188751781749922, -1.4692397516085474, 1.5129098102777527, 0.41372065614837517, 1.2290740360640262, -1.9527954609461133, -0.03210991908173824, -0.8398642696678078, 2.2808741157128134, -0.4457956252850632, -0.11444904246951923, -0.9188463942875011, 0.384198831317314, -1.6300516992886287, 0.9717030532049162, 4.612189738349393, -0.9350460938096543, 2.068868979587767, -3.165639068519816, 0.2832786805247245, -2.557874221590906, 0.4424585004358021, 0.7474396493516591, -0.12776867613787618, 0.78837295641322, 0.22529131628315285, 1.6528091266654252, 1.1976386184398202, -0.7156056592937823, -0.691239870561499, -1.0777322741075057, -1.6134461079362696, -0.1111765140077767, -0.8081808438425866, -0.6894770676251953, 2.1404077772289885, 0.1652814003646238, 0.2713478129500276, 0.9253660338950892, 0.08355412963214587, 2.7592435111410705, 4.07304916798704, -1.1285368630028731, 0.23765863838110413, 0.9068622533858157, 1.5330206622961307, 0.6421092228525316, 0.9692269085991904, -0.6163308738615432, 0.9750321731931755, 0.44212649326308495, 0.13937784299031447, 1.7887431283055273, 1.087440895194522, -0.4221985947981019, 1.9514285214376201, 1.665588877922449, 0.05682108473544081, 0.5273547997371921, 0.3346156993191139, 2.3466777268650625, 1.4315362096339843, 1.596477980551021, 0.4621007176507397, 0.9242809413484694, -0.737843790812477, 0.8353559173087131, -0.7077089443255026, -0.06267098190040504, 0.14659046933442121, -1.6584412461791247, -1.3602356966643931, 0.08728949012843867, -0.7334890956428329, -1.0954121110834634, -0.29182819391441206, -0.884759663077903, 1.635468240428371, -0.996776837981276, 2.415510368476868, -1.6563219528530284, 1.7594168774429089, 0.8408282669944362, -0.23227129239936511, -0.45672208314132273, 0.03234081102950068, 1.9825451282282527, -1.187413290957505, 0.4973059109995413, -0.42982812091150735, 0.034790402048017144, 0.2845438829263337, 0.9156520645660334, 2.6084567005572743, -0.3205850095019769, -0.32468150534957085, 0.2596704914817963, 1.1171656442291968, -0.3888893848884598, -0.5580929239803704, -0.35990625033753315, 0.26374022888049375, 1.3627272430488164, -1.3058223309460164, -1.1080316930184435, 0.0867252149378526, -0.10642662768761385, 0.16435300162047947, -0.09483559766350647, -0.30052321026924883, 0.07694862680777524, -0.035139723008525414, -0.48646563692473876, -0.2889366306258385, -0.838409561206152, -0.38735675719582674, 2.7823859078463276, 1.229541798639334, 0.20871352113439323, 1.0052823601728638, 0.03329635757671559, -0.9705981651282614, -1.3578846900205264, 1.571899429605166, 1.521165521826555, -0.6568670974615021, 0.6782962816862167, 1.022787977829343, -1.3029032797132267, 0.0548019086532663, -0.5963427958600063, -0.3274000723750701, 1.8982576710607195, -1.7577303720376936, -0.7257401177747661, -0.7740096346867971, 2.348975646417927, -0.5616385294324745, 1.5956811458849922, -0.22796483623958835, -0.1985205370355694, 0.31519099037923687, -3.617032217013709, 3.8577821254338884, -2.0243701566184633, 3.236112130586005, -2.7267819261523374, 3.0125344631383224, -0.8228753506572031, -1.6822246890583397, 1.5748362459506295, 0.47612620739200384, -1.400792221694198, 0.12528163639638495, 1.4080306462587149, 0.43681593494860793, 0.0035478300847465727, -0.9345851045291245, -1.5103001559109062, 0.09103325948197913, -0.6133452983346896, 0.931394534392221, -0.30193178796495906, -0.23929839340291098, -2.036340639688507, 1.2357101311913918, -1.2288751620251857, 2.068301482427057, -1.5831837180223831, 0.0492283629650334, 1.7002405590990777, 0.49851063262698236, 1.7011405080199014, 0.7622141544295672, 1.1536323550083287, 0.7633574569483021, -0.7047702660320048, 0.6007268066027016, 0.1849103128735542, -2.30058277664396, 1.4025218144751386, -2.0216445824401545, 2.105684481246011, 3.7769018708682704, 0.2450671241331822, -0.541087008086776, -0.5517462032495202, -2.646465038317091, 0.11058095536209575, 1.1633005719085614, 1.7044472401648199, -1.555196518115206, 1.1642529902448984, -0.9187092125922264, 1.4401357546260585, -3.096167903278836, 0.25691928234763506, -0.0960043318648234, 0.19692546010013645, -0.2631081249582891, -1.5875926965609795, -2.3364882210937843, -0.6497504893327344, 1.6693979633061036, 1.9804043072953643, -0.36348594290818853, 1.1501080447769074, 0.6610434643372398, -1.0349919505602032, -0.2824049559805358, -0.5496095100922495, -1.5585622208681167, 0.992718744509713, 0.13313485026008956, 1.8757598809933802], [0.3199702777042387, -1.356259402657314, -1.1774341642474324, -1.2917838282228822, 1.825402744862269, -1.644629099233259, 1.5178595927624632, 0.38606964461905346, -0.5253306363022843, 0.41864474611330893, -3.723263391195507, -3.5333869712745494, -0.6719836809856229, -2.5273890954486933, 1.2015077041934168, 3.3120753133191627, 0.7329299656041024, 1.1752340209238044, -0.7193148699113837, 2.308162989937835, -0.9590265729121233, 2.9697168735426884, -3.488791767862252, -0.6222569848216277, 0.34175868906130236, 1.2637773236917975, 3.6347755797217216, -0.3612497006546097, -0.19937153681991598, -2.4853368453843196, 1.7035268561645427, -1.9405322346158993, 1.5988671575397677, -2.10234518138909, 0.004314356728098198, 0.4214336813344881, 1.7157105474862855, -0.036999296946301885, 0.20931226858985075, -1.1061169840794098, 0.05746655175592605, -1.1875657999407767, 0.7820758799521285, 4.078644773286262, -0.8323752982937349, 1.8858838468053716, -3.0674668036489248, -0.6493089562971446, -2.365461454926831, 0.3584336551841698, -1.546880665128994, 0.3958093500264656, 1.8471484371183045, -0.10005000410859677, 1.3496707550829008, 0.32069494785847014, -0.42615071395690884, -0.6797160972942519, -0.7925406779557564, -1.7371661270279948, 0.06370512420784247, -0.8110324725743229, 0.5155207891048782, 2.548944802477249, 0.4252950970508767, 0.03617254656221086, -0.7577530599096429, 0.08355412963214587, 2.1640882079373496, 4.286780219462597, -0.958334241726667, 1.0020367507143262, 1.261923320036154, 2.120006284718749, -0.24084448412537318, 1.2072941213425188, -0.44177680943822983, 1.2038363986296847, 1.7891526549525034, 0.5451538687860878, 2.7908783775926307, 1.4239438563399183, -0.6314758337355222, 1.9514285214376201, 1.777346019029192, 0.2584510989405975, 0.9630857620478447, -0.036112199693155746, 2.5007542483830196, 2.0600147896921923, 1.4483433172830884, 0.0706727279434525, 1.3502442054294228, -0.548118024525154, 0.8353559173087131, -0.9063532633597389, -0.2808255342864447, 0.7558714513728918, -1.3768155195933942, -1.6299130014495773, 0.3190941106294791, -0.9521217459101539, -1.0954121110834634, 2.3524362988363605, -1.1099086921948684, 1.5106613879217394, -1.3834179102464985, 2.485277718216714, -1.6065300365779505, 1.8702072820584443, 0.419109346853779, -0.4873263588823707, -0.956331089779052, 0.3943817725084489, 2.338614265513775, -0.6229709434703278, -0.7289100125080044, -0.027527237841050295, 0.4238574918372699, 0.4055291375856844, 1.92271531493958, 2.7100931770030456, -0.18951872781430049, -0.16335366982607893, 0.3822185087611598, 1.1290641538835824, -0.691700537811503, -0.7392380139071881, -0.3363325037614084, -0.14101084055116303, 1.0536799409821478, -1.2035195517745907, -0.9092535748089575, 0.22854329782516403, 0.6083969942233992, 0.16435300162047947, -1.4594126955965683, 0.12453729982589429, -0.43917801584569516, -0.18724932280139522, -0.6327681951723688, 0.2023094641652738, 0.21980601525427967, -0.16799921812716864, 2.5230161279042793, 0.9147985649382253, -0.2975798451862197, 0.5793093860856865, 0.19740573250907603, -1.3935908273285147, -0.3326466518741577, 1.381329735498655, 2.732212415297638, -0.12051691830435342, 0.8664290338413597, 1.40966609587826, -1.6033646226163714, -0.8880300938497295, -1.0698339938991186, -0.7492893714268438, 1.8982576710607195, -1.7284175547552885, -1.155233718727871, 0.16780021953079316, 0.7987532171823721, -1.1322840225421795, 2.2056660642502246, -1.1400703871945916, -0.47602890414646115, 0.07734324828860988, -4.232915097580375, 4.02619313150869, -1.6807580686049879, 3.1026842038086624, -3.385899951513506, 3.110679285047385, -1.1565857073636283, -1.9910080511866965, 1.7402309614450922, 0.4692861653498558, -1.5072681844254492, 0.3837407382213263, -0.00665112296633813, 0.5947997657108931, 0.012384113985745598, -0.5982598845150587, -1.86425250008162, -0.5958053107147823, -0.3409737365137777, 1.5193334479397342, -0.9392756924718265, 0.09188905472389942, -1.2763094067972087, 1.3696954993213046, -1.6004517471265622, 2.4179854011918667, -1.392772985452935, 0.03578366945172079, 0.8449564691867122, 0.6514922656737427, 1.3071032079593012, 0.7248123537594854, 1.2277660998058941, 0.9164415720297696, -1.342295399368472, 1.0209802533265597, -0.4663878922341975, -2.319791448470985, 2.1133476570144256, -2.9621267601430565, 2.3795445293769575, 4.259146798660533, -0.6530089811219468, -1.1604002001409899, -0.18851932885652167, -2.646465038317091, 0.7511919167829215, 2.039835589135711, 1.9736940878353417, -0.4835791680227412, 0.8142211758086787, 0.7889250397348748, 1.7102401835574121, -3.252894249526417, 0.4109377400943175, 0.8813487857176899, -0.059780605684693955, -0.34273702481341056, -0.5648417619079551, -2.3364882210937843, -0.9690289670192451, 1.7230086502270294, 1.8442935998152814, -0.09187630629006537, 0.8167313838078049, 0.2077827393595351, -0.9491733523933055, 0.1216067801295101, -0.6002701146580505, -1.2643161007349504, 1.2755004710038935, 0.6558430083386422, 1.3422316908961096], [0.7310752704412674, -0.4985791585182678, -1.0873475363185405, 0.0635816398656077, 1.747621677257328, -2.890010221345517, 1.8338541633919978, 0.35525333654283253, -0.10691640577481143, 2.594499672425594, -3.3440168803678034, -3.4924466803279968, -0.6994115772496999, -1.7303809365332705, 0.8330194862771799, 3.64164104956295, 1.2448429968228356, 1.1412929698083645, -0.684951538019071, 1.0248774752997276, -0.8258650380094943, 3.1596670489056398, -3.100516430197118, -0.5095855374442945, 0.6733419039739392, 1.250643936337421, 3.7502663419130093, -0.6134322082527073, 0.5199755880508771, -2.2429990055659728, 1.259212176627037, -1.9405322346158993, 1.3058379355591663, -3.02933590958437, -0.6932740705344507, -0.649026155448094, 2.1271922577676277, 0.17969355962360478, -1.1934058285690856, -1.055379484815815, -0.10267711403499685, -0.6933023262737693, 1.0782632709108018, 4.785109630911029, -1.2346011962720862, 2.750108328495666, -2.941941010968662, 0.29786066213263707, -2.7880314655167355, 0.7149948859397133, -0.8133589290262554, 0.28224327211076183, 1.0181095016215398, -0.40019713761489356, 1.0688962350838682, 0.6092153493527693, -0.7156056592937823, -0.9054781636975358, -1.5107545573048629, -2.228635037292142, -0.7446662586797405, -0.5274707878962235, -0.4555010192571781, 1.9729523668093336, -0.7710216969213517, 0.7042683425026228, 0.7591898445534647, 0.802765707924255, 2.178203477588599, 3.660166797286785, -0.9923310899517078, 1.0806619634350159, 1.1810247736368915, 0.06464590625926092, 0.3951539268818426, 0.8043183843477424, -0.591744481769561, 1.0596145601860594, 0.7419630933864898, 0.4744522313668145, 2.0692585295275943, 0.4580744280353918, -0.6473849703113943, 1.5823283041920546, 2.293730510688971, -0.11105356033294529, -0.015863253436294578, -0.036112199693155746, 2.5374001696483273, 1.8257462936885616, 1.5191613662234695, 0.24715411435865503, 1.0809549716295814, -1.6438571756683542, 0.8017111993022261, -1.0737154410511802, 0.020461886314116384, 0.7556764769029432, -1.315239523171045, -1.6279056243800265, 1.1886415082545683, -0.39630588806506883, -0.19481845729455866, -0.3398067452202327, -1.1099086921948684, -0.12516694905987769, -1.1034418262935555, 1.4626818485268114, -1.4190966017991846, 2.4251271696866805, 0.38219316530263847, -0.8217334821375225, 0.08592924025283732, 0.1291474317247078, 1.9274143458424657, -0.7869003986730354, -0.7289100125080044, 0.009670365420237581, 0.40767113418101963, 0.16856457216221846, 2.2665054991143068, 2.7100931770030456, -1.1175556565928244, -0.18412781370190057, 0.2596704914817963, 0.7070533120671032, -0.8797396529471848, -0.4793362263875771, -0.4456702693578909, 0.26374022888049375, 1.3890751567199762, -0.7833812957643772, -0.821085686379198, -0.02969549863314097, -0.06590176833662365, -0.08851055799324901, -0.2670801026900169, -0.7082871675411937, -0.33152376285467344, 0.2103621904668803, 0.12622521959636107, -0.3809963175026833, -0.13286214887828646, -0.36805258589395384, 2.877514130663133, 1.1006593339830035, -0.4208122212026354, 1.895522504773122, 0.26603411755569667, -1.7841318948639058, -1.3203745687145236, 1.571899429605166, 2.391133903971475, -0.39012870462921345, 0.6782962816862167, 1.40966609587826, -1.3934295690009562, -0.2588903417624983, -0.7206895205822795, -0.8953610383417333, 1.0902088323819545, -1.6617244389795347, -1.0584797183231611, -1.6157809648526393, 1.797060097823101, -0.783436007770062, 1.1047524625765788, -0.12789401255753938, -0.13810527172714798, -0.5917373825297019, -4.4269164234301615, 3.515857288776862, -1.9556867718222872, 2.6857328437258894, -4.593081826488502, 2.1366305043480596, -0.8228753506572031, -1.5158115579527511, 0.38534286773692583, 0.5044845073355688, -1.3638584619582144, -0.6027161566410887, 1.3565557427747386, 0.6543182565998149, 0.0481914277632062, -0.17127781885244436, -1.1163171250167165, -0.1340055519847777, -0.1341965047909534, 1.2658537325757453, -0.7520153646942406, -0.06998959650725661, -1.4912000459819805, 1.3696954993213046, -0.24297157138541298, 1.5132548774124805, -2.4264283608969874, 0.7192742038306452, 1.6026278965828815, -0.07885339786720277, 1.023327758605721, 0.5515831939168474, 1.0926815867373265, -0.08049521328424947, -1.3549766170754916, 0.5639978044080995, -0.3754293917612974, -2.627625542671066, 2.034481358369385, -3.074945713616216, 2.097347728446361, 4.056569354244422, -0.08207777810861283, -1.0177749199091293, -0.08494241379686714, -2.968535981468399, 0.6609002620769524, 1.5571620483697286, 1.9756896789347795, -0.6951505622374711, 0.6626434168509218, -0.6666263994280409, 1.4455276631069565, -2.2429544948294753, 0.46920319071039807, 0.3279220332155751, -0.16905636880981448, -0.34273702481341056, -0.5450957301759082, -1.9149550993443512, -0.26109056479977877, 1.6693979633061036, 2.199241690693248, 0.28871877176713884, 1.394652887827698, 0.4110452979814885, -1.0349919505602032, -0.014358893203880105, -0.25516589805540063, -1.2795156936707113, 1.069316366988576, 0.5457390664198783, 1.4295324137193886], [0.3199702777042387, -1.3940420248231609, -1.0685578292067763, -0.18159016756894736, 2.1346586580138, -2.890010221345517, 1.5017739707699327, 0.08358111561001769, -1.8270133011278604, 0.5053601973328757, -4.053257524535963, -3.3956675416276796, -1.2965532755089066, -2.61612932394618, 0.717213145898627, 2.8719327162777186, 0.7329299656041024, 1.4309633225706238, -0.3896767318845089, 1.914385539469578, -1.7114464868934778, 2.6113185201779503, -2.7596146901842813, -1.2536163788547379, 1.0774591815680865, 1.0430182462175284, 3.529467539058392, -0.255063901713404, 0.5673664037947634, -1.8995963309116175, 1.1223611747840376, 0.41372065614837517, 1.5775718160233134, -0.7639773063837003, -0.2638008696583267, -0.3838718454506241, 2.0020228963324276, 0.25586537949283367, 0.5598637826027354, -1.6984861567219338, -0.04121697411827968, -0.6417974705651104, 0.4176944860009275, 4.641044249202565, -0.6315001897524253, 2.838319552781312, -3.165639068519816, 0.06036784387092395, -2.231771674856551, 0.7882787951609798, -0.7026794593353967, 0.5768689219475389, 1.0320131320301278, 0.9595071838474353, 0.7188643809341138, 0.8195597409155848, -2.3078196234411013, -0.8493200440638708, -0.4721431089706314, -1.493104959035532, -0.4700387055656785, -0.7665199755950681, -0.19710806768594696, 1.7830460403928894, -0.2561358405636528, 0.6543673042364204, 0.6637284511221601, 0.19847883700592822, 2.7592435111410705, 2.8581791255059636, -0.7945437310043506, 1.0096283782442093, 0.848091272613408, 0.32370359980656577, 0.5815118252400483, 1.0754895970955074, -0.3644532114855489, 1.2445397769326192, 0.24466666947886945, 0.6767882297806254, 1.830233224056758, 0.3735032823464434, -0.989832138856628, 1.2871639445194296, 2.253826878601462, 0.14122344715676638, 0.2126557406799447, 0.43247719211014807, 2.5007542483830196, 2.1692410437238134, 1.651578010007601, -0.03935415209410875, 0.5795964771990916, -0.7173381115189534, 0.892413128622269, -1.17751956598102, 0.25925828216115876, 1.6308628693566207, -1.6584412461791247, -1.9095043508118545, 1.0179213290953664, -1.800545204572121, -1.2635159964121956, -0.31171966781104093, -0.8258194287614042, -0.35287255620697333, -0.8589068649767253, 2.392434344426364, -0.9909515683180286, 1.7521737599387248, 0.5593386537003033, 0.03600373210656377, 0.06171715366184512, -0.2752497432045195, 2.0703029504863895, -1.187413290957505, 0.7975678717371193, -0.17321924295968866, 0.3836253422248973, 0.3517397034573354, 1.4431572036835298, 2.5139440875626953, -0.13519418464226762, -0.32468150534957085, 0.8167287393964567, 0.7074868740933712, -0.2827584618254427, -0.5073729748346821, -0.24270870481658313, 0.5294627822912152, 0.4916565673730287, -1.296671745306809, -0.8132668849399186, -0.009403652138954166, -0.2757722421887274, -0.35512233138149957, -2.193768508884138, -0.4554168911531325, -0.6615221062496142, 0.1273832953655202, -0.6327681951723688, 0.031540878174401765, -0.1224594132750059, -0.3346765460614031, 2.1596020284303434, 0.9100296092831002, -0.429327203993315, 1.8994877626961788, 0.13816784599606075, -1.439015989136624, -1.1166501294140585, 1.571899429605166, 2.3173833787433376, -0.30351412639829406, 0.9521701627189962, 1.40966609587826, -2.0417188768458647, -0.8880300938497295, -1.060713538684904, -0.8592409539464034, 2.2234909353067565, -1.5492377740436472, -1.1946127920551879, -0.8839494722905449, 2.4047983361494314, -0.4151639113700035, 0.9326730952028879, -0.13047771982616904, -0.6711707039296974, -0.20333897840265652, -4.49589288090305, 3.3024344178884313, -2.0243701566184633, 2.9294301246266596, -2.8004303241975874, 3.761006303507359, -0.8257237908135977, -1.428353419445278, 0.9613959764299326, 1.3670849816889996, -2.300525345173162, -0.4807907726184681, 0.5428880433523826, 0.49791495147631254, 0.37385301810804517, 0.25557434688836067, -0.9972487067645787, -0.5462152619090741, -0.07181298307955092, 1.1860526955166524, -0.6771455686293459, -0.007371997455099921, -0.7837978390263974, 0.8482844196520454, -1.5304095134271634, 2.2273142801521777, -2.4264283608969874, 0.10630509697174262, 0.974269596926563, 0.10315698026597392, 1.20549027598954, 0.827236258736876, 1.0209149665135442, 1.153492983011748, -0.5058843687894691, 0.40743832701462596, -0.3754293917612974, -2.1383610218020355, 1.3998721180729645, -3.1060674287669556, 2.097347728446361, 4.230574888961523, -0.2555241765334726, -0.6773068783013041, -0.12062145876809913, -2.7708430032067453, 0.9029924972906379, 0.8830998613470404, 1.747137491852735, -0.6298325383651515, 0.8307829004529602, -0.6021142032100388, 1.4039289463532583, -2.5439021930750756, 0.43108771617748376, -0.7885415591221985, 1.1089998193661406, 0.12755924406404334, -1.3293041439218571, -1.7041607027679173, -0.4347286793140429, 1.4062126441480014, 2.025111926242926, 0.16707822581446224, 1.1852478325729947, 0.4418278181550429, -1.236077290213509, 0.2673782185645509, -0.31393474073231553, -1.3208554701597717, 0.8751204240766253, -0.10044656173254843, 1.5700817481712166], [1.7060175874499781, -1.5642796786751092, -0.9402686946923211, -0.7838552307855768, 1.7155240893689783, -2.317196202500976, 2.5426878649980402, 0.37707590271953434, -0.6207723053956612, 0.1703670589846248, -3.7621205344860926, -3.6559102850419682, -0.6736435989220068, -1.9225821394802671, 1.5442513189065137, 3.6692208757608546, 1.5904134044280465, 1.4126498827886573, -0.33405776694760053, 2.2433365711279056, -1.187327184925735, 2.798531153031454, -3.707696387766688, -1.7803109328363416, 0.867442941953958, 1.1234227963528376, 4.025971069474506, -0.5208969835773921, 0.8769187858736578, -1.4692397516085474, 1.7035268561645427, -0.7518098770856998, 1.5988671575397677, -0.8322634968912646, 0.3191834592755841, -0.8398642696678078, 1.8176268430685716, -0.015581562908322882, -0.11444904246951923, -1.1553357503532613, 0.09085209854104742, -1.2615101204266546, 0.5182742420222097, 4.297745367347495, -0.6315001897524253, 2.870944568493086, -2.8271422459595286, 0.2248438447807923, -2.5372695051657095, -0.16725125029528692, -0.4387558079566581, -0.12776867613787618, 0.8902434720866856, 0.22529131628315285, 1.778726652396061, 0.9032546470709273, -0.42615071395690884, -0.863913933899089, -1.6349471701345994, -1.7537307857831683, -0.1111765140077767, -0.47943468441882153, -0.4555010192571781, 1.763793154493856, -0.7710216969213517, 0.3335765661877421, 0.7601017988686563, 0.10617614642862291, 2.7592435111410705, 2.5915740627453143, -0.8886460780965069, 0.9532220587573045, 1.0728041382103417, 0.06464590625926092, 0.7048476930000785, 0.7150755108068245, -0.282173436058899, 1.1362597693399035, 0.08430298550017123, 0.9976337678871172, 2.2396541596315176, 0.5580850552696646, -0.44996737105981977, 1.9514285214376201, 1.7047712111811357, 0.37335482949047977, 0.2857104954078331, 0.3346156993191139, 2.3466777268650625, 1.7850655615871664, 1.649741132439511, 0.5258506550399585, 0.7336705865961967, -0.737843790812477, 1.8607549156500323, -1.0737154410511802, -0.3185300230897236, 0.7556764769029432, -1.5883801357146634, -1.6279056243800265, 1.3807433612520617, -0.7334890956428329, -0.6585580757423294, -0.3398067452202327, -1.1099086921948684, -0.17141887628565378, -0.8710957211183237, 2.080087434393198, -1.4190966017991846, 1.7594168774429089, 0.7049558523161191, -0.3687200685239973, -0.7033443302734544, -0.36718804160624663, 1.7125663062907843, -0.6552745887531155, 0.7975678717371193, -0.15916808292385165, 0.001489607686714342, 0.3879096445458522, 2.347688809704075, 2.6084567005572743, -0.001672939936709389, -0.3712025380007828, 0.2596704914817963, 0.15934465217420585, -0.691700537811503, -0.7126763227528825, -0.35990625033753315, 0.2757318679821927, 1.1191754741721711, -1.5683735027033823, -1.1080316930184435, 0.24928551318872694, -0.29165054027884596, -0.13525803885239307, -0.32402028134848887, -0.30052321026924883, -0.23234790645446718, 0.040793633628370296, -0.33208516295612694, -0.21808190574850728, -0.20779010760831357, -0.9623167588157178, 2.750456061566857, 1.229541798639334, 0.3856805337587563, 1.0052823601728638, 0.03329635757671559, -0.852779049798779, -0.3326466518741577, 1.571899429605166, 2.391133903971475, -0.5363291240717522, 0.6782962816862167, 1.0098324520760587, -1.6265791103031946, -0.2946723849332, -0.621855765993066, -0.8614629055761249, 1.8982576710607195, -1.7280972237028296, -0.9203749932103553, -0.7923079267554742, 2.348975646417927, -1.1322840225421795, 1.8120598413264581, -0.12789401255753938, -0.08828827122840288, -0.5560244263898821, -3.7858509389230193, 3.673151614904249, -2.0243701566184633, 2.877557768715957, -3.0403319837123233, 3.0125344631383224, -0.8228753506572031, -1.1401905013853326, 2.0929642867212386, 0.3588162661663745, -1.5072681844254492, 0.2627412201203009, 0.535799506932152, 0.5947997657108931, -0.16745657013504914, 0.39400547676926795, -1.2714386619134292, -0.5008763047310045, -0.7765729592773234, 1.5193334479397342, -0.982022645650685, -0.24457811962810022, -1.3620960602032905, 1.3696954993213046, -1.648589133496563, 2.292288951255225, -1.7538798228861818, 0.7811946232215677, 1.4022608099482483, 0.008836548907427522, 1.7480904665366883, 0.7622141544295672, 1.0496759006428051, 0.34645928067584564, -0.648603150447138, 0.40743832701462596, -0.03836278788970851, -2.502580929011844, 2.1133476570144256, -3.3058483596419226, 3.171929322846664, 2.5003953003429444, 1.175784120827369, -1.1286545180007757, -0.040202127604897664, -3.2794882751989767, 0.04055394916430871, 1.1633005719085614, 1.776527142450134, -0.5436615712698106, 0.7102719864405064, -0.6065473135289934, 2.1573222032136408, -3.3042341261769304, 0.25691928234763506, 0.6470453614577656, 0.12701169985640387, -0.18634363642534246, -1.6155791414214065, -1.4880720506464173, -0.48867461056214323, 1.1143515058699067, 2.025111926242926, 0.19149540312322802, 1.394652887827698, 0.7163268852459327, -1.1206833073120719, 0.15354178443416827, -0.5496095100922495, -1.5585622208681167, 0.8751204240766253, 0.19688100866210706, 1.4644535085949695], [0.4466748613951736, -1.3940420248231609, -0.9002273165129241, -1.4318414650646134, 2.006116814683966, -1.54449090182555, 0.3216151522921707, 0.3490913743139847, -1.9549075202107766, 0.6809883315969969, -3.6003144090049792, -2.925941703398884, -0.7273861399779876, -1.7976859133801275, -1.0342510045865554, 3.4091546998676034, 1.8426969326845104, 1.599178380921958, -0.3043241115435761, 2.1444153850863716, -0.8902434692654385, 2.71167060449355, -3.0156188599855835, -0.6850682072248659, 0.9900564346508919, 1.0430182462175284, 3.529467539058392, -0.3314050281236748, 1.491535541879922, -0.7228255119136137, 0.5205781423653082, -0.4552335025844272, 1.2452051616548259, -1.106389467049365, -0.2638008696583267, -0.051481381861602074, 2.190330356599287, -0.04436684056120051, 0.27989400638316553, -1.2618778105584498, -0.35767831879358525, -1.3692538736142752, 1.1367179095356854, 4.249343004490721, -0.6315001897524253, 3.3570771626767186, -3.0815882353287734, 0.28868855245497804, -2.8846688033813974, 0.42061601771332613, -0.5463100157554724, -0.12776867613787618, 0.7049359887045306, -0.266776523580171, 1.1811614086272026, -0.10240555838466026, -3.1432299001752666, -0.863913933899089, -1.2806775857768724, -1.6134461079362696, -0.7627139666864994, -0.8081808438425866, -0.7490048558312045, 2.1404077772289885, 0.9719164553872034, 0.04683505542501799, -0.6255985606465353, 0.4661958249810711, 0.7011519047397781, 2.8449249421711333, -1.3884732664727086, 1.164522362875592, 0.848091272613408, 0.07207474185567514, 0.23786979918254164, 0.7150755108068245, -0.67536714069092, 1.51245735834918, 0.04281924189590175, 0.915590008329046, 1.8922702383198233, 0.6765599586925095, -0.6314758337355222, 2.287813855901645, 2.253826878601462, 0.625901530440285, 0.35972552883119424, 0.4710904271921564, 1.6991868336369096, 1.1486894719111633, 1.8513157755253487, 0.5258506550399585, 0.7336705865961967, -1.7496064776929439, 0.9736729752582357, -0.9018211116261733, 0.020461886314116384, 0.7556764769029432, -1.4713073686991724, -1.5754041088780972, 1.0179213290953664, -1.5837326787024304, -1.2597459671645317, -0.08893958120581194, -1.084154935305396, -0.17141887628565378, -0.35310835033360927, 2.392434344426364, -0.9909515683180286, 2.0716963171557548, 1.180575074389232, -0.5643869526504862, 0.06171715366184512, -0.2752497432045195, 1.4527663791366041, 0.6201578764916821, -0.5498298731739243, 0.1250487040008053, 0.40767113418101963, 0.34286784868709463, 1.6158737115973822, 2.753042768580574, 0.10908790816351695, 0.16019942990047625, 0.8273448001768943, 0.8150041049884691, -0.9519829369351906, -0.5580929239803704, -0.09064249537532265, -0.3787454841462867, 0.017917535926663383, -0.9182499749069304, -1.1515022026124542, 0.22854329782516403, 0.15701347700259002, -0.39350461825533395, -0.3003845481863274, 0.1494752103364207, -0.5635251256563308, 0.040793633628370296, -0.07412205337398681, -0.4647080889893838, 0.35136407651983403, 0.0732291313938021, 2.4814078273267763, 1.3799248865628573, -0.5570100923261695, 1.0376332037673774, -0.8578327828298309, -0.7872716771988724, -1.3203745687145236, 2.0091684949335225, 2.3123479705802295, -0.524104347020976, 0.8300364457087115, 0.8883470592501926, -1.6265791103031946, -0.4182029044660553, -1.4025235837220327, -1.1536633385361124, 1.3421543181603361, -2.853099668685212, -1.155233718727871, -0.17440694789027805, 2.417675824093718, -0.8918779760014066, 1.3866095909943617, -0.13047771982616904, 0.15238997340418367, -0.48520498454064065, -3.5538063883004876, 3.752080114192333, -2.0243701566184633, 3.123788895359052, -4.296725812442856, 4.073896726210048, -0.8228753506572031, -1.853931524222187, 1.074577549107588, 0.47612620739200384, -1.6703902108930764, -0.07413354202462322, 0.4383072857549212, 0.43681593494860793, 0.37297893380508595, 0.363105830593884, -1.5465969654414444, 0.2852871954336217, -0.6133452983346896, 0.3523281079649871, -0.720242076229957, -0.05163616369844372, -1.0104871485365172, 1.4785212467949014, -0.8168007954001677, 1.5132548774124805, -1.5831837180223831, 0.10630509697174262, 0.8342619063261137, 0.6514922656737427, 1.4973221016599978, -0.03675903387695789, 0.5155257680954708, 0.2408696830781118, -1.0593115314915063, 0.9680270961820263, -0.3754293917612974, -2.7010891578272287, 1.6926927386043649, -3.3228424306917455, 2.097347728446361, 4.284124303671774, 0.9081284781299177, -1.2134149091555275, -0.054150821707538696, -3.284462409293721, 0.4637275884204397, 0.8663024366324685, 1.7797296495511912, -0.6298325383651515, 0.7173893039351714, -0.9187092125922264, 1.8478166427955238, -2.7636620042379754, 0.46920319071039807, 0.8813487857176899, 0.12701169985640387, 0.40298754838729, -0.603463179589382, -1.9149550993443512, -0.40665085359676395, 1.524635182448939, 2.025111926242926, -0.13695227882053318, 0.3475033443557814, 0.2508043966671723, -0.8824644452057889, 0.15354178443416827, -0.5936517082345395, -1.2643161007349504, 0.8751204240766253, 0.1814506385445061, 1.9637441722694047], [1.4993412151677543, -1.5472498538273647, -1.2891312294490458, -0.4973534817144553, 1.7614934598790195, -1.6180483475830734, 1.443608513569281, 0.3440874699983434, -1.9549075202107766, 0.4170567933087576, -3.6976074139297523, -3.059473499921034, -0.7700171201814826, -1.7767390230459696, -0.7059259685306287, 3.0077494502714286, 1.4861872732212085, 0.8603141665693883, -0.0014094147398977857, 2.507063713027725, -1.312829871509515, 2.6113185201779503, -3.6103656742411605, -1.142193827785599, 1.3169870853395274, 0.932157674007893, 3.4838375692928496, -0.4898728096317132, 0.45499689509317165, -1.8788897161701983, 1.0144885984089518, -0.29886444709178345, 1.1740852912744197, -1.7098795123771402, -0.6932740705344507, -0.07040971327694785, 2.024552340132158, 0.23535371445172634, 0.03616683549013544, -0.7065812978287804, -0.24154134754008494, -0.9310941189908583, 0.9861264570095437, 4.667830771364888, -0.8599953929562978, 2.7948519857976266, -2.603341521764267, 0.8401829944335175, -2.584148274977343, 0.3676044607864786, -0.8001094535625314, -0.12776867613787618, 0.5892137811193427, 0.22529131628315285, 1.9563132835980033, 0.6092153493527693, -0.42615071395690884, -0.8357057523019199, -1.3329742838406835, -1.9368420205371244, -1.2407268640871103, -0.6039652740313596, -0.33452281281084806, 1.9550458561530244, 0.7969325075445354, 0.7617267828878966, 1.0439788439697715, 0.26131224317654006, 2.538367665167374, 3.8416762696356823, -0.9774306470501412, 0.6949330048628843, 0.7295554901637584, -0.15891027815489778, 0.6112137625198903, 0.3138326540585365, -0.3643312111653658, 0.9284683477301638, 1.8075873518279273, 0.4744522313668145, 1.9106268385245535, 0.7391968083298927, -0.6314758337355222, 1.4686543542490584, 1.2603658114881084, 0.24604473295336154, 0.2857104954078331, 0.900983819327792, 2.0626540913927545, 1.6646632812008, 2.0800467930388984, 0.9357655298376918, 1.296925970476412, -0.29021419107242064, 1.717636901089925, -0.816129428641114, 0.09986558435736594, 1.2522031065143115, -1.112201281915222, -1.315814779437421, 0.07690802929431129, -1.903592037256653, -1.0652549820693233, -0.3398067452202327, -0.809218433708816, 1.7693377938530352, -1.3032228393534162, 2.415510368476868, -1.4190966017991846, 2.2419497506792934, 1.0019755581896501, -0.8043282582672167, -1.181283680729154, -0.008561810449695922, 1.9554063156614767, -0.3940765029019333, 0.9138259789640267, -0.39841761609469784, -0.07576768615816745, 0.21761381340874378, 1.6372507140682906, 2.8125574383446135, -0.47454500375831354, -0.19900955263523248, 0.2921093403450728, 0.7070533120671032, -0.34589182673143487, -0.4793362263875771, 0.0729406310817857, 0.7988728045951545, 0.3583703450995751, -1.37450447064789, 0.04657397614582594, 0.06003288964140027, 0.6083969942233992, -0.16385742283575738, -2.420084154136091, -0.21001988876109817, -0.33152376285467344, -0.035139723008525414, -0.07412205337398681, -0.26594604138075745, 0.24146803925531798, -0.389555008455232, 2.7680316337141786, 1.2251408084307789, -0.34260802837697757, 2.068431980274003, 0.3894287003003254, -0.7872716771988724, -1.3912970021993092, 1.571899429605166, 1.9442540865819988, -0.39012870462921345, 0.7861013725032427, 0.5253562714082132, -1.1669028150820278, -0.7049075569371557, -1.229493038778529, -1.6792979295606127, 1.9984245447326197, -1.7813443378140015, -1.155233718727871, -0.26338860483154497, 1.838370664524611, -1.0469618958008013, 1.7636292721798754, -0.3800476664202133, 0.15238997340418367, -0.47959253472903374, -3.785372009814908, 3.842966112202347, -2.125850261168718, 2.6755473026138104, -3.424502318174489, 2.2680576324361326, -0.8456817656223838, -0.9992349782743818, 1.6876664351642818, -0.18310621931229365, -1.5072681844254492, 0.3568514221182483, 0.7135400475471139, 0.5175920955782086, 0.0481914277632062, 0.363105830593884, -1.0575468626848485, -0.3506013944441103, -0.6133452983346896, 1.7119621053030283, -0.7309693603940038, -0.1728362111726669, -1.3620960602032905, 0.709078580284313, -0.9432083730244152, 2.4771683015140202, -1.5096549960145176, 0.03578366945172079, 0.8342619063261137, -0.25105992014986006, 0.21159965874471978, 0.49711501466822994, 1.0209149665135442, -0.08049521328424947, -1.2487694028446004, 0.40743832701462596, -0.43710426898268573, -2.25960161525185, 1.566059512894221, -3.513971247232143, 2.76304055339274, 4.3781965843396895, -0.2555241765334726, -0.8743476086357271, -0.18851932885652167, -3.1553008797127555, 0.6239199837009684, 1.0562034508692504, 1.4444597736938851, -1.3584981164469563, 0.8661994146823928, -0.9738843216084699, 1.2675158823224002, -3.148799294334328, 0.46920319071039807, 1.0348376997087092, 0.2395930542719532, 0.5375868884980857, -1.614923157828137, -1.7041607027679173, -0.45670961347633987, 1.6693979633061036, 2.2167694096939052, -0.6333152422781154, 0.969361124272392, 0.17284105524318194, -1.105059683798668, 0.15354178443416827, -0.5936517082345395, -1.524071728900957, 1.152895420789615, 0.1172136728214146, 1.8757598809933802], [0.4466748613951736, -1.5472498538273647, -1.0685578292067763, -0.7997243039293347, 2.11138210112611, -1.5090971840847116, 0.6253538720378096, 0.10384449439717608, -1.899996640872473, 0.858410290781692, -3.7621205344860926, -3.3956675416276796, -0.6994115772496999, -1.8104491428196587, 1.5077757961468863, 3.6692208757608546, 1.5904134044280465, 1.2360956473877165, -0.42795532417213833, 1.8086064560426283, -1.187327184925735, 2.798531153031454, -3.707696387766688, -0.8455059881973233, 0.34175868906130236, 1.1234227963528376, 3.529467539058392, -0.5615464414067736, 0.04188751781749922, -1.83391915628286, 1.794480097718071, 0.22908687243831474, 2.106007915529453, -0.8322634968912646, -0.09548677113265934, -0.9650617781988211, 2.008889212489582, 0.10498960091391787, 0.34892584436711305, -1.217213527345554, 0.05746655175592605, -1.6300516992886287, 0.9717030532049162, 4.5248034529211, -1.3658681157350254, 2.864150849667798, -3.5146347898233783, -0.18042968569916668, -2.4972574394711375, 0.02310174815457204, 0.053060473579518375, 0.13351212153705055, 0.7049359887045306, 0.9595071838474353, 1.6229029481655948, 0.7873960170424504, -0.6079736349060731, -0.99974413230001, -1.0940047718730956, -1.8946049422023743, -0.7782860367594489, -0.8597541775657981, -0.4445681142263955, 1.9915854946405538, -0.3392197632669779, 0.3335765661877421, 0.8485538972826664, 0.4802612112631408, 2.256962786445926, 3.8416762696356823, -1.1439845992644035, 1.0820001592651398, 1.3430255000057183, 0.06464590625926092, -0.2544712316484731, 1.0754895970955074, -0.37120120174526616, 0.8342192334479028, 0.24466666947886945, 0.9976337678871172, 1.9117957586924548, 1.2051058722557348, -1.1446139829198385, 1.5823283041920546, 2.1205612802392846, 0.4109559275641966, 0.2857104954078331, 0.3346156993191139, 1.7220027247918008, 1.3515719269236408, 1.4483433172830884, 0.30132546311228275, 0.9287034264900887, -0.737843790812477, 1.3050408210421092, -0.7077089443255026, 0.016281406830931877, -0.045780224096173217, -1.2489309006531535, -1.6279056243800265, -0.5931886586206159, -0.7334890956428329, -0.7435841666905632, 2.278206082901824, -0.4762984203471, 0.03183804380105182, -1.3834179102464985, 2.401844760874018, -1.2149431240880273, 1.897704352450814, 0.6605176876808411, -0.571087690863311, -0.7033443302734544, -0.0895975225176996, 2.850223457006492, -0.9324682112222493, 0.4973059109995413, -0.12294835737344668, 0.16819051732624232, -0.5035397848461062, 1.2504973185191708, 2.6084567005572743, -0.45760994641829805, -0.25781794802004765, 0.2596704914817963, 0.42538519027660326, -0.5124048424197349, 0.016568622683301226, -0.24270870481658313, -0.163314250520361, 0.40179985135526236, -1.3058223309460164, -1.041386778846492, 0.0786087026181086, 0.13606683081940918, -0.13525803885239307, -0.3003845481863274, -0.30052321026924883, -0.18264679840970055, -0.22444508588580625, 0.015425496285086604, -0.8177744655716449, -0.1224594132750059, -0.38735675719582674, 2.7680316337141786, 1.229541798639334, 0.20871352113439323, 1.0052823601728638, 0.13816784599606075, -0.9705981651282614, -1.3912970021993092, 1.571899429605166, 2.0788725335406393, -0.3694743673734221, 0.5446244658217159, 1.6096501686663878, -1.1669028150820278, -0.8880300938497295, -1.4375561362781701, -0.8537981656959746, 1.9677534939791874, -2.0268751744741054, -0.8429124650589717, -0.7740096346867971, 2.348975646417927, -1.1322840225421795, 1.0880545248055864, -0.6775428875226281, -0.6711707039296974, 0.32821754198810343, -4.057023907247811, 3.8577821254338884, -2.0243701566184633, 2.5677376164503762, -2.874532988714372, 4.073896726210048, -1.230355572958531, -0.9992349782743818, 1.7970502343960963, 0.0899719125569117, -1.3775738379204123, 0.23915877331411395, 0.535799506932152, 0.5947997657108931, 0.06488743548853917, 0.2583924567130309, -1.2714386619134292, -0.1340055519847777, -0.862459429002516, 1.3400385592074526, -0.30193178796495906, 0.27769791654792925, -1.3620960602032905, 1.3696954993213046, -0.8076469442818468, 1.7890100021371762, -1.5096549960145176, 0.7364976583420996, 1.9379086396649357, 0.765186034190329, 0.7842854284119095, 0.7622141544295672, 0.5155257680954708, 0.7633574569483021, -0.8311443313218911, 0.6007268066027016, -0.3623462615071889, -2.637815303619548, 1.6926927386043649, -2.3577901847696503, 2.412471217679096, 4.284124303671774, 1.0263654938254971, -1.1286545180007757, -0.12062145876809913, -3.358890979602826, 0.09293609862027594, 1.0359082905700459, 1.7044472401648199, -0.5436615712698106, 0.7102719864405064, -1.0223176489822683, 1.4039289463532583, -3.3042341261769304, 0.1210925976345643, -0.25301797310261104, 0.12701169985640387, 0.5645142043702889, -1.544814592394444, -1.8629145988376485, -0.7120328576221026, 1.3959561497740474, 2.1129593530704183, -0.3166262244373182, 1.3175051290325257, 0.4418278181550429, -1.0349919505602032, 0.009909727614255515, -0.5496095100922495, -1.7601331290485935, 0.8751204240766253, 0.19688100866210706, 1.4644535085949695], [0.3199702777042387, -1.1814993471476873, -0.428327922199087, 0.8421179194279108, 1.9233710567245106, -2.309755776335313, 1.8338541633919978, -0.6849664444906094, -0.9870724335489518, 0.12659214218434406, -3.6596962142252814, -3.5241006882038746, -0.6994115772496999, -1.946614372706731, 1.4739836318163444, 3.8018351709120024, 0.7584421869963326, 1.121409565979749, -0.7193148699113837, 2.009097884963185, -1.8309725640030063, 2.635700959595849, -2.945158690688754, -0.5095855374442945, 1.058526285432772, 1.4905794644273196, 4.092662241820407, -0.5138396797808531, 0.5199755880508771, -2.2429990055659728, 1.125265398016294, 0.1021849547451559, 2.086008230916749, -1.4046538211970852, 0.004314356728098198, 0.4214336813344881, 2.1271922577676277, -0.04857733978413027, 0.24964342047855193, -1.0575552240259685, -0.08524901099886711, -1.0710050452832152, 1.149243832247086, 4.924261819835775, -0.5397200926494362, 2.864150849667798, -2.7339321891949866, -0.08893544350847249, -2.4972574394711375, -0.1565736994355513, -0.5369920426141205, 0.28224327211076183, 0.8902434720866856, -0.03833318755488602, 1.3715271023702762, 0.5825548928018325, -2.3078196234411013, -0.7224570579504167, -1.0665051517846023, -1.6369623571893375, -0.7151403002945161, -0.5274707878962235, -0.9002826666794588, 2.531756992008553, -0.09246539159017819, 0.609957929958149, -0.2300175942558616, 0.7195053911649343, 2.538367665167374, 3.838800153915981, -0.1255256279814622, 1.0806619634350159, 0.9818588017073343, 0.06464590625926092, 0.6421092228525316, 0.6777264834431453, -0.4246883835117823, -0.7467748564020534, 0.06835249275450689, 1.013323178481328, 2.1330014629101366, 1.4218853905574629, -0.6473849703113943, 1.5823283041920546, 1.7639672583617068, 0.14122344715676638, 0.48673403621927674, 0.5430927758471957, 2.1751883884721956, 1.2962653526614016, 1.554035038018007, 0.24715411435865503, 0.9020401263682739, -0.939571380985464, 1.2387324210130426, -0.7924097239148294, -0.14529214533939505, 1.7527648676596255, -1.4713073686991724, -1.5326331247544887, -0.43614511322049526, -1.3829245919006707, -0.2278251640030025, 2.0765385463346657, -1.1305102310365926, -0.12516694905987769, -1.3073831219055938, 2.002515493406981, -1.2479956528506728, 2.4251271696866805, 0.7808551134179935, -0.8217334821375225, -0.7033443302734544, 0.186978672007876, 1.5463804560674652, -0.7556980824459307, -0.916678382912296, -0.619358144852864, 0.40767113418101963, 0.2488855761310132, 2.327434667173611, 2.3857168957890873, -0.2517844206174829, -0.16335366982607893, 0.2596704914817963, 0.7938992272124114, -0.2635351172058428, -1.3276326819634485, -0.24270870481658313, 0.26374022888049375, 0.40179985135526236, -0.7833812957643772, 0.05968305018063458, -0.02969549863314097, 0.9187140473202994, -0.2373110189356244, -0.6130887882855254, 0.022540607440472628, -0.18264679840970055, 0.04260729563154057, -0.35241828599818215, 0.009086993192128967, -0.17346102135878416, -0.9623167588157178, 2.877514130663133, 1.4707226526947383, 0.20871352113439323, 0.5935383965524901, -0.32164577690024276, -0.43028615867288145, -0.6335623869262903, 1.4092027354106968, 1.1413480017677586, -0.40925482816188385, 0.8664290338413597, 0.7615338007278166, -1.2883450121132618, -0.6621005772943517, -1.2110470547272594, -0.7520260765571808, 0.3081675898978657, -1.7280972237028296, -1.0584797183231611, -0.28045602557285065, 1.3211434847213912, -1.207651693842164, 0.9326730952028879, -0.09485476846765456, -0.6866393325209521, -0.5560244263898821, -4.143209103369753, 3.4309517717286537, -2.014786972063846, 3.8923760891783536, -4.593081826488502, 3.1644941162333846, -0.8607335983067791, -1.6822246890583397, 1.663408527293609, 0.21259910791153375, -1.4428101727632165, -0.6027161566410887, 0.5900770006756352, 0.5574546280648897, 0.0481914277632062, -0.17127781885244436, -1.0283644457186127, -0.4264271300045106, -0.5247407018894059, 1.7081171814751201, -0.7520153646942406, 0.09188905472389942, -0.7460269685754963, 1.3760093760170125, -0.93308785647145, 1.5132548774124805, -1.5096549960145176, 0.11915499336064381, 1.7026479147816753, -0.2865863865545224, 0.21159965874471978, 0.5515831939168474, 1.3070827525563125, 0.7633574569483021, -0.6806873797276067, 0.12130981092426896, -0.49606588594380174, -2.627625542671066, 1.7442563523575532, -3.011511477466552, 2.831470985208963, 4.0716847209797296, 0.0295617333819935, -0.928065198773599, 0.12772516070416806, -2.7730161696570583, 0.86377829844555, 2.0586143030125204, 1.4444597736938851, -0.28259975549032607, 0.5019576674615656, 1.1950107206134422, 1.7056422944604814, -2.015036042169331, 0.171427427821051, 0.8813487857176899, 0.30033850658773165, -0.003412306412303806, -0.5644869986516154, -2.143613920172717, -0.26109056479977877, 1.4062126441480014, 1.9497744955383607, -0.18666887473719673, 1.3787870635681845, 0.6935037735778525, -1.415419200750932, 0.009909727614255515, -0.16193750525459488, -1.7052364991258198, 0.8816311986295566, 0.5457390664198783, 1.3422316908961096], [1.111695339180971, -0.8841101554370704, -1.2891312294490458, -1.2420405751157935, 2.249492370644983, -2.890010221345517, 0.9743911444546638, 0.10384449439717608, -1.833534944195212, 0.4706762052279762, -3.4159816622412884, -4.210679068134152, -0.922106858669817, -2.0416599315612936, 2.1018432486864835, 3.6692208757608546, 1.4037679488508377, 1.121409565979749, -0.11038786610118254, 2.420695945399622, -1.7114464868934778, 3.1434491211021998, -3.707696387766688, -1.143992341820183, 1.1607469944959432, 0.9884091765164927, 3.6347755797217216, -0.18772499769342865, -0.3764380035818865, -2.0903515522683533, 1.0015529862855022, 0.1021849547451559, 1.5463239042461887, -1.9859524155942125, -0.1959370812485677, -0.6147558543602566, 2.2993069318394888, 0.10498960091391787, 0.5598637826027354, -1.3114757329565965, -0.31388879901996797, -0.579638311436578, 1.0851470916762127, 4.924261819835775, -0.6315001897524253, 2.068868979587767, -2.8915036697597767, 0.2584538339927147, -2.239531471941886, 0.6310818005228215, -0.4387558079566581, 0.3958093500264656, 0.9381051544280814, 0.26723457118396243, 1.353723841800381, 0.42245216979688116, -0.36306975002062597, -1.2782017427469894, -0.908756501334611, -1.3338990727565319, -0.1111765140077767, -1.1680259087396978, -0.9002826666794588, 1.9421441759971867, -0.7710216969213517, 0.06554085617318262, 0.37175573134952267, 0.1405767417361346, 0.8401414910574827, 3.542761740805326, -1.2926961215881236, 0.9532220587573045, 0.9068622533858157, 0.06464590625926092, -0.2544712316484731, 0.9692269085991904, -0.6163308738615432, 1.1680108967852094, 0.24466666947886945, 1.0498216677739038, 2.545998569169707, 0.16111366397017995, -0.6314758337355222, 1.8947780181297804, 1.4047166829913436, 0.24604473295336154, 1.1779393653569628, 0.43247719211014807, 2.3466777268650625, 2.7096361635730872, 1.7600692805951859, 0.8802895218604243, 1.1705304241042445, -1.1830435098774466, 1.3566747822509198, -0.7924097239148294, 0.2712516396626556, 0.7556764769029432, -1.4713073686991724, -1.7651403290691536, -0.43614511322049526, -0.9521217459101539, -0.9235745840530435, 2.0765385463346657, -1.1305102310365926, -0.04792049769718189, -0.5343667363914061, 2.002515493406981, -1.4190966017991846, 1.4842787153874717, 1.1241545237025163, -0.571087690863311, -0.7033443302734544, 0.3636056575772749, 1.9504656142266499, -0.7058501630420613, 0.4973059109995413, -0.619358144852864, 0.40767113418101963, 0.8338774882626186, 1.7205419756852882, 2.7300242131625736, -0.4826855025973688, -0.7186021104849714, 0.17422803798862538, 0.9355518830530973, -0.3888893848884598, 0.2812300090040146, -0.35990625033753315, -0.001158407468249828, 1.6406665805564664, -1.3058223309460164, -1.0525764070902561, -0.009403652138954166, -0.10715333411830724, 0.10656792280572687, -0.08955509790471372, 0.022540607440472628, -0.43277790561601825, 0.06249376366853971, -0.42891675923651507, -0.21902101921503075, -0.8199962793207706, -0.17953728016502782, 2.750456061566857, 1.374526135912626, -0.3399291649562849, 2.135878980029809, -0.8913726520605856, -0.789101954736589, -1.3134463209269154, 1.330947991943762, 1.521165521826555, -0.6568670974615021, 1.0597059327890732, 1.3711038265229047, -0.7701677911827591, -0.24899255710394208, -1.0149239392587326, -0.7492893714268438, 1.8167751932583351, -1.844400338690433, -0.7073363518357317, -1.5473682310721775, 1.6136851832075265, -0.5616385294324745, 1.4308141796625058, -1.1400703871945916, -0.3830340692361355, -0.8052982860492657, -3.769691386401351, 4.079384795825689, -2.8469500798444165, 3.0313536525668883, -2.970615274744422, 3.0983052985929618, -0.8456817656223838, -1.627985401523849, 1.074577549107588, 0.4692861653498558, -1.5230083342403238, 0.12528163639638495, 0.535799506932152, 0.46640436482080233, -0.20705613035586265, 0.39400547676926795, -1.5654633942333418, -0.27797185671692043, -0.9813073514517415, 0.7291285860812968, -0.30193178796495906, 0.5613651937986146, -3.441742147236075, 1.472465993288023, -1.1518042118054037, 1.7531103598980546, -2.1167608559424416, 0.6099839002711861, 1.9768240927258063, 0.055958240698890854, 0.8407542150799313, -0.002290611583746882, 1.1446329680158236, 0.7633574569483021, -0.5996671247435941, 0.40743832701462596, -0.33965932130770604, -1.8114151859318814, 1.4213723128773916, -3.074945713616216, 2.486236605478655, 4.0716847209797296, 0.7502727867692045, -0.8362614824904973, -0.18851932885652167, -2.821801682247837, 0.5833301581302066, 1.1706799407942676, 2.2042418109770536, -0.951660398847587, 0.7678303601347105, -0.6021142032100388, 1.7697472027025203, -2.015036042169331, 0.32712043386280476, 0.9699449047682047, -0.15127186598594972, -0.3447031328577825, -0.9556078112233293, -1.4850608982911973, -1.0790121480912782, 1.524635182448939, 2.2167694096939052, 0.19149540312322802, 0.7911130138528449, 0.3604803726215682, -0.8807614841589557, -0.08999679652148988, -0.31393474073231553, -1.1618522317519089, 1.118389327763248, 0.21896565034343757, 1.6739413009492132], [0.09855325283048769, -1.5472498538273647, -0.4299295858764422, -0.36895957810455704, 1.7614934598790195, -1.216284582847211, 1.443608513569281, 0.2735490215945786, -1.9549075202107766, -0.17671042204679824, -3.6976074139297523, -3.3224146926850167, 0.0619211630167856, -2.094500504706318, -0.7198891871808151, 3.5502713743779513, 1.5430015724033772, 0.9850485632533721, -0.009572871859595433, 1.92379504272244, -1.7204039751253655, 3.1434491211021998, -3.6103656742411605, -1.2445607653688315, -0.16185342367100464, 0.9138956100495719, 3.6347755797217216, -0.5138396797808531, 0.36430407930922926, -1.6539190575312157, 1.6574954119855085, 0.14313370626754582, 1.4073228304639214, -1.106389467049365, -0.6932740705344507, -0.04127942846959465, 2.024552340132158, 0.23535371445172634, 0.25382888021462247, -1.8000408074358212, -0.24154134754008494, -0.9310941189908583, 1.1367179095356854, 4.838530762520846, -0.5896802125605618, 2.5776119828033, -2.515318179329289, 0.04278892191544893, -2.617514944109935, 0.3676044607864786, -0.5846411912959193, -0.12776867613787618, 1.0320131320301278, 0.22529131628315285, 1.173143716453477, 0.722717799637522, -0.42615071395690884, -0.8493200440638708, -0.908756501334611, -1.7660408051991838, 0.23289691539785173, -0.6039652740313596, -0.6597892568145398, 1.9365424298300915, 0.7969325075445354, 0.7042683425026228, -0.39047477646165746, 0.4802612112631408, 1.3414997932971144, 2.973865973131034, -0.7814565779938988, 1.0806619634350159, 0.848091272613408, 0.10263508972757929, 0.07236380921703822, 0.3267994510017538, -0.3643312111653658, 1.1680108967852094, 0.7600806761638407, 0.7868345588120311, 2.0692585295275943, 0.8138783994765479, -0.6314758337355222, 1.4686543542490584, 1.6994369938790648, 0.14122344715676638, -0.004413268970013817, 0.2393552314312717, 2.0626540913927545, 1.6646632812008, 1.8513157755253487, 0.3053050521179465, 0.7918903485422506, -1.8415392605362173, 1.717636901089925, -0.7422706825967234, 0.020461886314116384, 0.25473690548802436, -1.345927378072165, -1.9095043508118545, 0.07690802929431129, -2.0076947123099202, -0.9707516458728023, -0.05065599864220288, -0.5181107314354327, 1.8067337460207762, -1.3032228393534162, 2.415510368476868, -1.343343737281763, 2.2419497506792934, 0.6605176876808411, -0.4873263588823707, -1.181283680729154, 0.1291474317247078, 1.6712803921082664, -0.3940765029019333, 0.9138259789640267, -0.662425792430288, -0.07576768615816745, -0.281782227312229, 1.7205419756852882, 2.9861360417362772, -0.47454500375831354, -0.8248774248579234, 0.8167287393964567, 0.8405429263406139, -0.290375094934485, -1.52325785339615, -0.35990625033753315, -0.3471414815178381, 0.3583703450995751, -1.37450447064789, -1.0525764070902561, 0.38898031881033934, -0.2703364652980659, -0.41935270338937564, -0.09483559766350647, -0.2851685433213165, -0.3919814919703164, -0.035139723008525414, -0.6779330226815375, -0.44402827574648474, -0.10097848324552952, -0.7469444680922336, 2.430383949138109, 1.2251408084307789, -0.8612268193371919, 0.4487336221145277, 0.3894287003003254, -0.61885818115582, -1.0581618589255053, 1.1831576792124072, 2.284704399095479, -0.19462355162701783, 0.39762122533515354, 2.209344583682984, -1.1669028150820278, -0.7049075569371557, -1.4375561362781701, -1.1453088519142942, 1.9984245447326197, -2.2763990219804024, -0.26107836252406036, -1.5473682310721775, 1.1874065815679853, -0.8918779760014066, 1.3866095909943617, -0.25578937971553856, -0.8579051450625328, -0.3877987459133451, -4.242352294717345, 3.842966112202347, -2.8469500798444165, 3.123788895359052, -3.424502318174489, 2.2680576324361326, -0.8456817656223838, -1.627985401523849, 1.4336442295232752, 0.4692861653498558, -1.6304852453458611, 0.24541155231542974, 0.8557102072088344, 0.5644744222435497, -0.32625525708835235, 0.363105830593884, -1.5654633942333418, 0.02250012343616082, -0.4110093462610927, 1.4318935836604934, -0.7309693603940038, 0.38655905975552546, -1.7789091896892792, 0.5886471188720378, -1.599925496626386, 2.3306339256974566, -1.5096549960145176, -0.12730386718625228, 0.8251848277068127, -0.4988990398273139, 0.21159965874471978, 0.28075929930577426, 1.0209149665135442, 0.7633574569483021, -0.5058843687894691, 0.40743832701462596, -0.3816692238208677, -2.057218237376004, 1.566059512894221, -3.8420349196823524, 2.76304055339274, 2.5003953003429444, -0.2555241765334726, -0.22139359165996064, 0.6178684883730085, -2.821801682247837, 0.04055394916430871, 1.1381338551689986, 1.9028175745463038, -0.6096539492549755, 0.7102719864405064, -0.9738843216084699, 1.2675158823224002, -3.148799294334328, 0.21655823304360794, 0.7858683301603689, 0.4041676836437355, -0.3447031328577825, -1.1872325638157635, -2.353526997899717, -0.40665085359676395, 1.7071758051486454, 2.3004300447615322, 0.32575326646131875, 0.6524770371746628, 0.09745721237415839, -1.0462881674831215, 0.04844991248000055, -0.31393474073231553, -1.7601331290485935, 1.118389327763248, -0.09270132245947998, 1.4959318397940997], [0.4466748613951736, -1.4499192992113208, -1.274390722541278, -1.4840851565188025, 1.75172493667311, -1.2216291385928868, 1.7569252394083454, 0.2697950917274149, 0.32515022754187417, 0.36146542869751286, -3.982201382349557, -3.616417176910085, -0.19282060604547926, -1.9225821394802671, 1.1269783153695705, 3.6692208757608546, 0.7329299656041024, 1.4309633225706238, -0.20905040103663713, 2.6068796471845914, -0.7739434036288602, 2.640828911981052, -3.629242270630989, -1.4979955429065053, -0.9993709133985827, 1.37259873413102, 3.9280996918004174, -0.5138396797808531, -0.41013196746836245, -2.50705241271848, 1.6574954119855085, -0.756001670720068, 1.7724393306185444, -1.6347461723425347, -0.07557613242777811, 0.4214336813344881, 2.6023455866135365, 0.0788450077933237, 0.13171068633570723, -0.857019165195368, -0.04121697411827968, -0.6862468955447748, 1.149243832247086, 3.9611130269096195, -0.41558560746275164, 2.8575416398758016, -3.1028064714808092, 0.0024066836039467465, -2.494569254665092, -0.20793734011798637, 0.08013063442810994, 0.3118153239560489, 1.8471484371183045, 0.32985336149846445, 1.3150258382320617, 0.8890564541177421, -2.3078196234411013, -0.9668183137702523, -1.1166186058250018, -1.6134461079362696, -1.5361465496368996, -0.8081808438425866, 0.4027268838335699, 2.438798372057845, 0.06713432677192502, 0.04683505542501799, 0.5586560752552137, 0.050416261701522365, 1.1090026946422995, 3.379231491712885, -0.7877976235827003, 0.9309187641169056, 0.1276954277764386, -0.19977508462502935, 0.6294756158802179, 1.0754895970955074, -0.20063412130082292, 1.496937363850691, 1.7891526549525034, 1.0291795859374886, 2.1330014629101366, 0.45922015339026834, -0.5653101075933373, 1.8794955271027243, 2.1205612802392846, 0.6667742207172016, 1.2646259498882912, 0.5602935539890741, 2.0626540913927545, 1.5352823076589317, 2.3277475010856254, 0.38263071790074665, 0.8880257635256759, -0.6457259626544193, 1.2387324210130426, -1.3723946373773988, 0.2970516477191055, 0.9695183860446398, -1.4713073686991724, -1.2780406429546236, 0.07690802929431129, -1.7992650858694803, -1.0954121110834634, -0.09924726799122666, -1.1099086921948684, 0.8633207149679771, -0.8545389789299779, 2.1674580137981883, -1.3549290036685395, 1.4542242345519008, 0.9523818622371648, -0.9040895402095377, 0.08592924025283732, -0.008561810449695922, 2.146573597668457, -0.8106864453538783, -0.7010322782911591, -0.20530130410112132, 0.40767113418101963, 0.1173898011167433, 1.1788769760677869, 2.081587342096115, -0.11409074284504109, -0.25781794802004765, 0.1278277519480338, 0.8405429263406139, -0.290375094934485, -0.5073729748346821, -0.24270870481658313, -0.3471414815178381, 0.5449287009111128, -1.7258038661591644, -0.26121190891903423, 0.5829069956812669, -0.06590176833662365, -0.0704218553317546, -2.2341669133445907, 0.1494752103364207, -0.18264679840970055, -0.035139723008525414, 0.13748069373389982, -0.4879645072156219, -0.1823422332197264, -0.6036470504570791, 2.3237468177271245, 1.2798667235737295, -0.16007349210029237, 0.7333076270603054, 0.13816784599606075, -0.7066662114498798, -0.3326466518741577, 1.571899429605166, 2.732212415297638, -0.6443248232525264, 0.7733937941531156, 0.5897827472849497, -1.4991492719969874, -0.32582808767935106, -1.348421616985122, -0.7721126085357574, 2.1239188755509635, -1.0503455556710128, -1.0963846317429602, -0.8332060737864749, 2.348975646417927, -0.41765584039138337, 0.960888905198753, -0.15283726345482967, 0.036816072459646465, -0.5560244263898821, -4.865371206067598, 3.9657281863398945, -2.9667606414824226, 3.8923760891783536, -3.1018942960998785, 2.4276099807591045, -0.7842178858189723, -1.627985401523849, 1.074577549107588, 0.052217841409085385, -1.5072681844254492, 0.7160189333993721, 0.9638283419626936, 0.46640436482080233, -0.21045937861450692, -0.9148166994531749, -1.7006767056723806, -0.4718183721467217, 0.35349359759226745, 1.5193334479397342, -0.9135584546878912, 0.38655905975552546, -1.3620960602032905, 1.4866309032103078, -1.6457757913355988, 1.6239766396126898, -1.4070869339543377, 0.18493807556851252, 1.8251761389373726, 0.20737222140961165, 1.3071032079593012, 0.16110805690541163, 1.1563572716645123, 0.7633574569483021, -0.6635056804544519, 0.021503787739037994, 0.2520368472937717, -1.7993851983421638, 1.0447366505199371, -2.8813292450188093, 2.231881634760026, 4.056569354244422, -0.5010320395847855, -0.6773068783013041, -0.12062145876809913, -3.1089951923614523, 0.5833301581302066, 1.5199700023357239, 1.6992405417226584, -0.8534695919408477, 1.0841825751761474, -0.5085534706090584, 1.4515229867031363, -1.6792083867991894, 0.25691928234763506, 0.7858683301603689, 0.3224156260764094, 0.5267829379665877, -0.7797227628184207, -1.9149550993443512, -0.6678815360691185, 1.4329183211402898, 2.2094285777146303, 0.4452013818234488, 0.7340416873213296, 0.34918207082915714, -1.4952043000890356, -0.34093461656515744, -0.6306564632729037, -1.7466308864168132, 1.1925548554706422, 0.2416825196730119, 1.6121157795376846], [0.4785653311105118, -1.6006157351177994, -0.9002273165129241, -0.7838552307855768, 1.7155240893689783, -2.1610159755720177, 0.3970203217646283, 0.35525333654283253, -0.6990836410465752, 0.6977212313533049, -3.5442312791324206, -3.405805521176249, -0.7654803077794914, -1.9769598632667615, 0.8109744419618959, 2.8719327162777186, 0.9942221068482017, 1.5015594743652478, -0.1945689539969625, 2.2029098949653654, -0.8258650380094943, 2.6708109787623555, -2.661451638556898, -1.2883451627497036, 0.34175868906130236, 0.527281440726952, 3.4994397792587044, -0.3314050281236748, -0.3151643149976929, -1.83391915628286, 1.6574954119855085, -1.9405322346158993, 1.5363079417911691, -1.6860750182208495, -0.2638008696583267, 0.4214336813344881, 2.1271922577676277, 0.25908058055297034, -0.02846338963594619, -1.1061169840794098, 0.25531991955629973, -1.1875657999407767, 0.9861264570095437, 4.612189738349393, -0.22797744581180657, 3.02554915471571, -3.048255502169242, 0.5032929238963535, -2.3992553508148964, 0.3584336551841698, -0.3524308858587324, 0.5911634800192965, 1.8471484371183045, -0.40019713761489356, 0.8230075330321481, 0.9032546470709273, -0.791086247816663, -0.6980647626177471, -1.2806775857768724, -2.0679492866325604, -0.7659015765537751, -0.5966799521465624, 0.5155207891048782, 1.9915854946405538, 0.9780280585285658, -0.12041243190136156, 1.1516637983201696, 0.802765707924255, 2.3643919947381002, 2.8908791684058315, -1.1439845992644035, 1.164522362875592, 0.8689644959549352, -0.2727988592664957, 0.28637257149543915, 1.2922138897170259, -0.6581147853151696, 1.0281451576128038, 1.9856088560006824, 1.0498216677739038, 2.0423187491588375, 0.4902111788692737, -0.9460497103277238, 0.9358178856044537, 1.8642366882229822, 0.6667742207172016, 0.9630857620478447, 0.4710904271921564, 2.9486016923997864, 1.1486894719111633, 1.5191613662234695, 0.5258506550399585, 0.9287034264900887, -0.6226199524201036, 1.3445116943401818, -1.0737154410511802, -0.3185300230897236, 1.206320600110093, -1.315239523171045, -1.7326564460010212, -0.18150373285758123, -2.2597417029903024, -0.17427205333427714, -0.014321084762255812, -1.084154935305396, 1.3741389756238491, -0.5591692411562931, 1.259254885703719, -0.9909515683180286, 1.897704352450814, 0.5345073010743884, -0.4873263588823707, -0.85373957769613, 0.1291474317247078, 1.9844913875469998, -0.21337586644486672, -0.9719462322409862, -0.6670004832638761, 0.2241299673566031, 0.3879096445458522, 2.1496735174669728, 2.1771382089939277, -0.001672939936709389, 0.08232475524424823, 0.4042605645043583, 0.7070533120671032, -0.7318939123815221, -0.7114605652421448, -0.25049636267454145, -0.3787454841462867, 1.1459814203405576, -0.9145316588145325, -0.8607563613421092, 0.22854329782516403, 0.15701347700259002, 0.2436947229163147, -3.256975386669183, -0.7106919781084535, -0.43917801584569516, -0.06311780125926891, -0.07412205337398681, -0.5361070841769477, -0.20779010760831357, -0.6036470504570791, 2.7680316337141786, 1.2080669267470205, -0.34260802837697757, 1.895522504773122, -0.16493192959144198, -1.0043073773458544, -1.3068326380393471, 1.1831576792124072, 2.1519208593874284, -0.8314779323291281, 0.4884513073364153, 1.5724713052472128, -1.3686263823007707, -0.7049075569371557, -0.7206895205822795, -0.7492893714268438, 1.0102267585287896, -2.206384879861459, -1.0418906964343608, -1.0017133532307851, 1.838370664524611, -0.60618561992651, 0.7381207437787644, -0.21602543504389013, -0.40761798019138473, -0.6427916459650717, -3.7482928007077585, 3.709895201886468, -1.9141694576419521, 3.0931149186164992, -4.082664833259849, 4.116549388561918, -0.8257237908135977, -1.627985401523849, 1.8331899250618306, 0.21259910791153375, -1.355845666955019, 0.572696182033946, 1.1278510919463747, 0.8061550085633821, 0.0481914277632062, 0.6446339547381325, -1.3539546563148634, 0.01691420028653575, -0.862459429002516, 0.7291285860812968, -0.5383678224651293, 0.4379335288336561, -0.6711868305391635, 1.2357101311913918, -1.5788812618612795, 1.6868757875878533, -2.4264283608969874, -0.3108123014288876, 1.049594762969541, -0.29200204059959656, 0.24056306297188437, 0.20154825788528663, 1.1582864869215945, 0.2408696830781118, -0.8311443313218911, 0.23768355141819353, -0.06862078593445109, -2.031837012817886, 1.283175934735132, -3.021721124082454, 2.097347728446361, 4.3781965843396895, 1.175784120827369, -1.12643383868586, -0.17317030145226883, -3.2012360278698027, 0.5033609713994069, 1.3951818948039734, 2.4221839285152504, -0.6951505622374711, 0.7685267211853363, 0.7889250397348748, 1.4039289463532583, -3.2924625315328218, 0.46920319071039807, 0.6460227460984098, 1.1928677145326034, 0.5645142043702889, -0.7450597152901691, -1.7041607027679173, -0.6813144169351889, 1.7471153273643565, 2.768350280799717, -0.1625801268979832, 1.1956672743472745, 0.4418278181550429, -1.105059683798668, 0.15354178443416827, -0.36483546727784183, -0.9943550187343174, 1.152895420789615, 0.3835936544087625, 1.3575835192204855], [0.5090367351643723, -1.478280104109484, -1.234508929160238, -0.7666992115284408, 2.401740374082977, -1.5861277416693216, 0.5519426862887258, 0.10384449439717608, -1.833534944195212, 0.3054935850223856, -4.16835072897494, -3.444191992382466, -0.7654803077794914, -1.9077031385064396, 1.6942704350092557, 3.0077494502714286, 1.372130024070888, 0.567600558115577, -0.6824223833357799, 1.92379504272244, -0.7739434036288602, 3.1434491211021998, -2.661451638556898, -1.475866126253663, 0.9900564346508919, 0.9996498959945422, 3.534840574804428, -0.16794184795124395, 0.36430407930922926, -2.0908431379880192, 1.6474052597445203, 0.41372065614837517, 1.1463147823377877, -1.619838809561705, -0.14070641111127213, -0.07040971327694785, 2.2808741157128134, 0.08463307146178436, 0.25382888021462247, -1.8219918335500467, 0.25531991955629973, -1.6300516992886287, 1.299656658349258, 3.9611130269096195, -0.6315001897524253, 2.838319552781312, -3.165639068519816, -0.1839235601647644, -2.2914265052344467, 0.3676044607864786, 0.06892407987041259, 0.3958093500264656, 0.78837295641322, 0.9595071838474353, 1.5149995132634615, 1.022156976506533, -0.6835489284742392, -0.99974413230001, -0.7925406779557564, -1.7660408051991838, -0.7446662586797405, -0.9959754369617995, -1.349614158159571, 2.899330664160237, 0.9515753094112904, 0.3335765661877421, 0.7591898445534647, 0.5314950355379878, 2.3643919947381002, 3.8416762696356823, -1.3884732664727086, 1.164522362875592, 0.848091272613408, 1.5330206622961307, 0.24546921232368013, 0.438888045678465, -0.2965327123229305, 1.298641429626597, 0.6328092993917852, 0.6767882297806254, 2.2957649951029655, 1.0873062302196215, -0.9644311836597695, 1.5823283041920546, 2.1205612802392846, 0.5822993445783817, 0.48673403621927674, 0.3983294478325051, 2.1430984518647245, 2.4554115544257415, 1.5191613662234695, 0.9357655298376918, 0.9287034264900887, -0.8091944337082496, 1.4186554306697052, -0.6248929693099369, 0.020461886314116384, 0.14659046933442121, -1.2552679184780522, -2.009129834802166, 0.07690802929431129, -0.736219457605977, -0.9904518482940183, -0.05065599864220288, -1.1099086921948684, 0.5811829100933847, -1.0715255602363143, 2.407984781025542, -1.4190966017991846, 2.2419497506792934, 0.9341439990969739, -0.546965864609405, -0.21046411479463467, -0.008561810449695922, 2.5608198213957554, -0.5212618826079549, -0.6794870849816721, -0.35781480845028935, -0.07576768615816745, 1.0697984770752371, 1.1788769760677869, 2.3857168957890873, -0.584054378495723, -0.5699508854453125, 0.8167287393964567, 0.8930914910403609, -0.3888893848884598, -0.7114605652421448, -0.24270870481658313, 0.24525443058652593, 0.3583703450995751, -1.37450447064789, -1.019123430368534, -0.677284524875504, -0.37905053490068125, 0.11457248229568268, -1.5453392509782011, 0.1494752103364207, -0.8726966378091598, -0.22444508588580625, -0.3599092865431918, -0.44402827574648474, -0.5990974901794606, -0.8970162811597462, 3.408577620053781, 1.2251408084307789, -0.6904962968371576, 0.7333076270603054, 0.3894287003003254, -1.2101985251399454, -0.9282210139861558, 1.571899429605166, 1.9529370481793566, -0.5509955670858108, 0.5353571649074316, 1.022787977829343, -2.0417188768458647, -0.7829136008070567, -1.4375561362781701, -0.7492893714268438, 1.8982576710607195, -2.680351457110385, -0.26107836252406036, -1.0017133532307851, 1.6826054318216253, -0.3395438886155583, 1.723920329343315, -0.26705737780231487, 0.15238997340418367, 0.31519099037923687, -3.5854126629935887, 4.1537350421977575, -1.55719743404779, 2.581646287272858, -3.6107035603947146, 4.073896726210048, -0.21483717625620186, -1.6822246890583397, 1.6876664351642818, 0.052217841409085385, -1.400792221694198, 0.7160189333993721, 0.9938713408386186, 0.567182067224383, 0.41668606643790274, 0.4937463198391069, -1.7006767056723806, -0.3001397687901065, -0.4110093462610927, 0.3523281079649871, -0.9545848878303439, -0.1728362111726669, -1.9127789434776932, 1.3646810624745709, -1.599925496626386, 2.0967697163963717, -1.6182808343860047, 0.6197905246736387, 1.7002405590990777, 0.5372394011010512, 0.20088289569068904, 0.559541328627122, 0.5155257680954708, 0.8011515811921813, -0.7557777969692463, 0.6081241941593869, 0.2520368472937717, -2.407713688365451, 1.283175934735132, -3.389769758036313, 2.2203311651194553, 4.103315961365917, -0.2555241765334726, -0.6177630154738976, 0.016301224842152906, -2.7708430032067453, 0.11058095536209575, 2.0586143030125204, 1.843705940706673, -0.6298325383651515, 0.16355546851003372, 1.1950107206134422, 1.265250871666369, -3.575350289508372, 0.29439197989096433, 0.7157321897408689, 0.12701169985640387, -0.17137906672516595, -1.614923157828137, -1.6787170715015278, -0.13130387432162385, 1.4476730051620774, 2.6228080790574047, -0.36348594290818853, 1.3175051290325257, 0.3630164322016257, -1.3920774145415389, -0.09677895419307497, -0.6306564632729037, -1.7601331290485935, 0.992718744509713, 0.1172136728214146, 1.623950179565158], [0.22937467058648497, -0.8841101554370704, -1.2891312294490458, -0.5675981849448143, 1.686238048619867, -1.852693232811448, 2.5426878649980402, 0.17294386449372026, -0.9870724335489518, 2.594499672425594, -3.4750964015363746, -3.361202442805249, -0.6736435989220068, -1.946614372706731, 2.1018432486864835, 3.8982446489275935, 1.3147689404904108, 1.1752340209238044, -0.11038786610118254, 0.9782331901700747, -0.8366161029437907, 3.1434491211021998, -3.6103656742411605, -0.733556195427203, 1.1607469944959432, 1.4905794644273196, 3.9015516765192415, -0.5138396797808531, 0.3883870240356486, -2.2429990055659728, 1.7035268561645427, 0.1021849547451559, 1.4073228304639214, -1.6860750182208495, -0.1730191792396899, 0.4214336813344881, 2.2993069318394888, -0.04857733978413027, -0.201997560898598, -0.9783063675647007, -0.04121697411827968, -1.2615101204266546, 1.0851470916762127, 4.924261819835775, -1.1201580309492867, 2.864150849667798, -2.8271422459595286, 0.6194235771802549, -2.773906382127919, 0.5600281440972865, -0.4387558079566581, 0.5725855135086582, 0.9381051544280814, -0.1252460308626831, 1.2044502811095825, 0.5825548928018325, -0.35105315935826154, -0.6767171173557062, -1.0694654496697475, -1.8998969776430448, 0.23289691539785173, -0.5966799521465624, -0.9002826666794588, 2.531756992008553, -0.09246539159017819, 0.609957929958149, -0.09124102956712883, 0.1405767417361346, 0.8401414910574827, 3.7262716353625818, -0.4315252785858803, 0.6588875476470712, 1.1810247736368915, 1.5330206622961307, 0.015851534100862652, 0.9692269085991904, 0.0751426785477371, -0.7467748564020534, 1.863119563053363, 1.0498216677739038, 2.1330014629101366, 1.4218853905574629, -0.8532960344768092, 1.6522215727034253, 1.7047712111811357, 0.14122344715676638, 0.2857104954078331, 0.49311004815387693, 2.1751883884721956, 1.896605062872659, 1.5496320101446737, -0.15012085569328537, 1.1705304241042445, -0.8913779394062986, 1.2068564200196228, -0.7924097239148294, -0.37751075906791165, 0.7556764769029432, -1.4713073686991724, -1.7998472619286245, -0.7398122356395032, -1.1306462388213085, -0.6585580757423294, 2.0765385463346657, -1.1305102310365926, -0.12516694905987769, -1.3240659965559847, 2.002515493406981, -1.4190966017991846, 1.7228528646546644, 0.7808551134179935, -0.3923025959165382, -0.7033443302734544, 0.1291474317247078, 1.7142515804937284, -0.5584111965013407, 0.19241396087305876, -0.619358144852864, 0.6531033641745739, 0.3517397034573354, 1.7205419756852882, 2.0279475628628583, -0.45760994641829805, -0.16335366982607893, 0.17422803798862538, 0.7386325706305967, -0.3888893848884598, -0.5580929239803704, -0.0303305226285826, -0.001158407468249828, 0.40179985135526236, -0.7833812957643772, -0.9975955391695578, -0.4832535991229127, 0.9187140473202994, -0.13525803885239307, -0.08955509790471372, -0.14190181899300838, -0.18264679840970055, 0.04260729563154057, -0.42891675923651507, -0.06178898834182445, -0.2385022238010382, -0.17953728016502782, 2.750456061566857, 1.374526135912626, -0.3399291649562849, 0.5935383965524901, -0.32164577690024276, -0.43028615867288145, -1.097403386420608, 1.4092027354106968, 2.3703389017422687, -0.40925482816188385, 1.0597059327890732, 1.3711038265229047, -0.7701677911827591, -0.7464962906743353, -1.104287762035333, -0.6494968072385015, 1.8167751932583351, -1.7280972237028296, -1.294095475314941, -0.32622381629945596, 1.3211434847213912, -1.6224467203839192, 1.4308141796625058, -1.1400703871945916, -0.9850417433137784, 0.11236803166920958, -3.7858509389230193, 3.4309517717286537, -2.8469500798444165, 3.8923760891783536, -2.970615274744422, 3.188628149689126, -0.8456817656223838, -1.627985401523849, 0.38534286773692583, 0.5091950424483639, -1.5072681844254492, -0.6027161566410887, 0.535799506932152, 0.5574546280648897, 0.23510498592098267, 0.39400547676926795, -1.5654633942333418, -0.6449419338620429, -1.0014667331954044, 0.7665372819093677, -0.6047098107567586, 0.5613651937986146, -3.441742147236075, 1.3745384789095252, -0.93308785647145, 1.7531103598980546, -1.5096549960145176, -0.1473874123759074, 0.9302933902426951, 0.055958240698890854, 1.1780336490764984, 0.31514088080708585, 1.445138244396456, 0.7633574569483021, -0.7452386992534398, 0.12130981092426896, -0.3623462615071889, -2.4751756647278365, 1.4213723128773916, -3.358773079920164, 2.3653529379565756, 4.0716847209797296, 0.0295617333819935, -0.8362614824904973, -0.09825227860244579, -2.821801682247837, 0.86377829844555, 2.0586143030125204, 2.0020302959421716, -0.6298325383651515, 0.5019576674615656, -1.0723978207163714, 1.7697472027025203, -2.015036042169331, 0.171427427821051, 0.8813487857176899, 0.4041676836437355, -0.3447031328577825, -1.565851627249311, -2.143613920172717, -0.29799236542804103, 1.4062126441480014, 2.2167694096939052, 0.32575326646131875, 0.8167313838078049, 0.6935037735778525, -1.1058305783151199, 0.15354178443416827, -0.06999775198569493, -1.8371879682140848, 0.8170748301823928, 0.41707425079034566, 1.3422316908961096], [1.1849806155204872, -1.570148634238373, -1.0574497635897793, 0.0635816398656077, 2.1346586580138, -2.890010221345517, 0.15639840841226293, 0.38606964461905346, -0.6990836410465752, 0.5053601973328757, -4.2905457544231025, -3.669378041526606, -1.2965532755089066, -2.3720152522478957, 0.717213145898627, 2.8719327162777186, 0.33255242173085914, 1.4309633225706238, -0.5216972696364461, 1.914385539469578, -0.8902434692654385, 2.7547817515022457, -2.7596146901842813, -1.2536163788547379, 0.055918335406778374, 1.0430182462175284, 3.529467539058392, -0.255063901713404, -0.5114772005390805, -1.8995963309116175, 1.3220952621961637, -0.24626268509208182, 1.5775718160233134, -1.0850106407662459, -0.37970871435390907, -0.3838718454506241, 2.0020228963324276, 0.25586537949283367, 0.5598637826027354, -1.6984861567219338, -0.04121697411827968, -0.6417974705651104, 0.5151015282912308, 4.641044249202565, -0.6315001897524253, 2.5732021476795555, -3.165639068519816, 0.35724122655533774, -2.0919603539374028, 0.7882787951609798, 0.053060473579518375, 0.5768689219475389, 1.0320131320301278, -0.10005000410859677, 0.7188643809341138, 0.8195597409155848, -2.3078196234411013, -0.8493200440638708, -0.4721431089706314, -1.493104959035532, -0.07795619521078079, -0.7665199755950681, -0.19710806768594696, 2.2265246867275743, -0.2561358405636528, 0.7778231893874729, 1.2847492635327291, 0.19847883700592822, 2.7592435111410705, 3.7370858353413894, -0.7945437310043506, 0.9532220587573045, 1.5047659921534946, 0.32370359980656577, 0.7630977004163099, 1.0754895970955074, -0.3644532114855489, 1.2445397769326192, 0.24466666947886945, 0.6767882297806254, 2.7908783775926307, 0.3735032823464434, -0.989832138856628, 1.2871639445194296, 1.695495820839228, 0.1327840334623229, 0.2126557406799447, 0.21382279259907386, 2.5374001696483273, 2.033204610583054, 1.7651108550961896, 0.8802895218604243, 0.5795964771990916, -1.8397001979262397, 1.3562446387817548, -1.17751956598102, 0.25925828216115876, 0.6152789646186703, -1.6584412461791247, -1.9095043508118545, 1.0179213290953664, -0.7334890956428329, -1.2635159964121956, -0.31171966781104093, -1.2623943284048045, 1.5165054404665408, -1.1250920794711683, 2.002515493406981, -0.9909515683180286, 2.084239930229216, 0.5593386537003033, -0.8898051212366809, 0.06171715366184512, 0.7565189389871048, 1.9844913875469998, -0.6229709434703278, 0.7975678717371193, -0.17321924295968866, 0.2787022561838481, 0.3517397034573354, 0.5949723278560346, 2.5139440875626953, -0.46781567326892537, -0.32468150534957085, 0.8167287393964567, 0.8405429263406139, -0.2827584618254427, -1.52325785339615, -0.24270870481658313, -0.3787454841462867, 0.4916565673730287, -1.1696585592917244, -0.8132668849399186, -0.009403652138954166, 0.03979013475513982, -0.13525803885239307, -0.217944485017883, -0.4554168911531325, -0.6615221062496142, 0.1273832953655202, -0.6327681951723688, 0.031540878174401765, -0.1224594132750059, -0.48598573046183985, 3.1417059040638033, 1.5309740903972036, -0.429327203993315, 1.8994877626961788, 0.13816784599606075, -1.439015989136624, -0.886589772800893, 1.4092027354106968, 2.3173833787433376, -0.12051691830435342, 0.9521701627189962, 1.40966609587826, -1.1669028150820278, -0.8880300938497295, -1.3933209594853913, -0.24710306816885508, 1.5125324274208267, -2.206384879861459, -1.1946127920551879, -0.8839494722905449, 2.4047983361494314, -0.2888529982203324, 0.9326730952028879, -0.13047771982616904, -0.6711707039296974, -0.20333897840265652, -4.242352294717345, 3.883316794310959, -2.8469500798444165, 2.551079358979202, -4.082664833259849, 3.761006303507359, -0.0058458860308609195, -1.428353419445278, 0.9613959764299326, 1.3670849816889996, -2.1810517200380155, 0.3043329162584485, 0.2947345581454951, 0.49791495147631254, 0.20577946180519027, 0.25557434688836067, -0.9972487067645787, 0.073360412391336, -0.07181298307955092, 1.323471772526223, -0.6771455686293459, -0.007371997455099921, -1.6049598182405973, 0.9637606218923161, -1.2120913540516711, 2.2273142801521777, -1.8070368176218026, 0.4225994272630365, 0.974269596926563, -0.07208471526177163, 1.20549027598954, 0.20154825788528663, 1.0209149665135442, 0.4466098184967269, -0.5626404603194183, 0.40743832701462596, -0.3754293917612974, -2.413885717295041, 1.3910492802651808, -3.350633112384023, 2.097347728446361, 4.419072877969541, -0.2555241765334726, -0.6773068783013041, -0.12062145876809913, -2.7708430032067453, 0.9029924972906379, 0.8830998613470404, 1.8188142783572088, -0.7662231370066246, 0.8307829004529602, -0.6021142032100388, 1.4039289463532583, -2.5439021930750756, 0.43108771617748376, -0.3282944654031743, 0.04830186685234078, -0.24435202241890286, -1.3293041439218571, -1.8219610303550342, -0.4347286793140429, 1.7471153273643565, 2.043263256273416, 0.16707822581446224, 1.1580164514842333, 0.1133248018267021, -0.8976921696390632, -0.2651478102727584, -0.7264781403624517, -1.3208554701597717, 0.7292169271050906, 0.3221827590394577, 1.2315083734531882], [0.4893138698141927, -1.415270327367208, -0.8818406720842287, -1.2917838282228822, 1.8895718174466312, -1.5090971840847116, 0.5519426862887258, 0.38606964461905346, -0.4699191134704544, 0.782198719200895, -3.532455218864966, -3.5333869712745494, -0.6994115772496999, -1.723417438746257, 1.965231833118129, 3.5772875876151806, 0.33255242173085914, 1.1993806968493268, -0.4914137210516573, 2.2444512142738082, -0.8258650380094943, 2.7266787259069813, -3.5079775089644554, -0.447442376176333, 1.2303534244607433, 1.0112886063815394, 3.6347755797217216, -0.5355543338789635, -0.5852463116226803, -2.016513886227679, 1.5129098102777527, 0.41372065614837517, 1.2867442270183649, -1.3809461679918666, 0.004314356728098198, -0.051481381861602074, 1.7157105474862855, -0.13564364565090306, 0.12483105262077203, -0.7993111120274295, 0.3826644215454357, -1.0732543315864518, 0.8207109317621128, 4.884582093618881, -0.8499456775462627, 2.6736366938584952, -2.8915036697597767, 1.051949500379775, -1.7500509849437043, 0.7586307794700775, -0.520927974416243, 0.3958093500264656, 1.8471484371183045, -0.41641942750555694, 1.496007717338688, 0.9032546470709273, -0.7156056592937823, -0.9503701510326747, -1.3575144432644246, -1.7597862463341838, -0.06602975901400343, -0.5966799521465624, 0.5537113138530767, 2.1404077772289885, -0.10482107749589586, 0.04683505542501799, -0.07822945805902012, -0.18904398174488252, 1.5730998194349322, 3.7262716353625818, -0.25626581238316615, 1.0020367507143262, 1.3171362603318477, -0.24849533170492816, 0.29053360245346616, 0.3138326540585365, -0.248952188094465, 1.2038363986296847, 1.4670504187970117, 0.915590008329046, 2.100558337508317, 0.6331796335659309, -0.6314758337355222, 2.3238422955171383, 1.6442592989145606, 0.5223850873685428, 0.1185983106399073, 0.35225325562521775, 2.623386901272763, 1.7236617967581245, 1.7893075031193593, 0.09354907797856188, 1.3502442054294228, -1.7496064776929439, 0.8017111993022261, -0.7046575489333956, -0.3185300230897236, 1.1296235550178206, -1.2378425065237102, -1.6299130014495773, 1.268439980766902, -1.153550643513708, -0.969555606162156, -0.08893958120581194, -1.1099086921948684, 1.5165054404665408, -1.0987574132506621, 2.002515493406981, -1.6097583239292241, 1.5652967510605604, 1.0058447722403892, -0.827220050556736, -0.9893300117192054, 0.513608961872893, 2.338614265513775, -0.6229709434703278, -0.7289100125080044, -0.26918432643854556, 0.541278788647681, 0.32925720437949335, 1.544330001775804, 2.753042768580574, -0.4029998586797902, -0.16335366982607893, 0.8273448001768943, 1.220733862118739, -0.4388711507974152, -0.2714710540762312, -0.39944562599338607, 0.24525443058652593, 1.5094278913139494, -1.1670805558292545, -0.9092535748089575, 0.22854329782516403, -0.6639449475215848, 0.16435300162047947, -2.3516244691510853, -0.3110447249960247, -0.5635251256563308, -0.18724932280139522, -0.05977341405900454, -0.5361070841769477, 0.35136407651983403, -0.6036470504570791, 2.750456061566857, 1.6406438680752482, -0.2975798451862197, 1.8320062473153689, 0.3894287003003254, -0.5881999756139089, -1.200990855312618, 1.560631062311553, 2.3123479705802295, -0.12051691830435342, 0.8664290338413597, 1.6909389829729107, -1.6033646226163714, -0.8134216843356868, -0.6643179312877481, -0.7492893714268438, 1.772898550353768, -1.7672207182310862, -1.099226556758809, 0.16780021953079316, 0.7987532171823721, -0.7877709162668993, 0.34516111350671397, -1.1400703871945916, -0.47602890414646115, 0.07734324828860988, -4.132535025624195, 3.9336653876565575, -2.205569906965768, 2.6575043951734143, -2.8024472696322467, 2.2680576324361326, -0.8228753506572031, -1.2754088197958031, 2.2083763119247717, 0.3588162661663745, -1.5072681844254492, -0.08997924818103409, 1.0214035576839204, 0.11202811370055926, -0.15640441986713954, 0.4482423807848293, -1.5465969654414444, -0.4718183721467217, -0.7108643897302966, 0.7665372819093677, -0.7309693603940038, 0.07173089463472608, -2.1188081512028156, 1.6373716974187689, -0.7784657084954277, 1.2435992197117591, -1.6182808343860047, -0.12730386718625228, 1.361642409246418, 0.24738418354720676, 0.33051609324156717, 0.7880046530959136, 1.1563572716645123, 0.5979598853945091, -0.5996671247435941, 0.15549644167315643, -0.4663878922341975, -2.8964014368133055, 1.7189300943662795, -3.358773079920164, 2.299737272103016, 4.284124303671774, 0.9989112894986012, -1.07319516090051, -0.18851932885652167, -3.4551078870290857, 0.5833301581302066, 1.2292871317931893, 1.9736940878353417, -0.4343192770904627, 0.7811513776040684, -0.6666263994280409, 1.195387201040037, -2.2429544948294753, 0.46920319071039807, 1.0188810289781782, -0.059780605684693955, 0.5645142043702889, -0.603463179589382, -2.284075762237539, -0.43626685193006387, 1.2256689721940537, 2.3004300447615322, 0.19149540312322802, 0.8167313838078049, 0.20861670760388346, -1.0382910461720503, 0.4516184561588112, -0.6002701146580505, -1.7601331290485935, 0.8751204240766253, 0.04151570958877179, 1.4295324137193886], [0.63916680828138, -1.356259402657314, -1.1774341642474324, -1.2917838282228822, 2.1609871361195525, -1.6675884668680436, 0.6345628941885588, 0.3440874699983434, 0.32515022754187417, 0.41864474611330893, -3.723263391195507, -3.580471012500622, -0.6175508033627477, -2.0492509693297087, -1.211994554854015, 3.3632746254342836, 0.7329299656041024, 0.8125750891742847, -0.8054981730751392, 2.221408404237371, -1.5063223054049555, 2.9697168735426884, -3.629242270630989, -0.447442376176333, -0.16185342367100464, 1.2891879077354926, 3.534840574804428, -0.24685393153379415, -0.19937153681991598, -2.3055320693173385, 1.7962043171421833, 0.6883778750046633, 1.5363079417911691, -2.10234518138909, -0.6932740705344507, 0.4214336813344881, 2.11657292889146, 0.12204196718662502, 0.25382888021462247, -1.1061169840794098, 0.05746655175592605, -0.8324145098974054, 0.7820758799521285, 4.930646374706398, -0.5705097163958502, 2.6736366938584952, -3.165639068519816, -0.24065342894735953, -2.3140913811111123, 0.3676044607864786, -1.546880665128994, 0.3958093500264656, 1.8471484371183045, 0.17334680023955906, 1.5149995132634615, 1.1127084480285017, -0.42615071395690884, -0.6797160972942519, -1.3575144432644246, -1.7371661270279948, -0.7475204215067677, -1.3135814571334787, -0.67244121617507, 2.548944802477249, 0.4252950970508767, 0.03617254656221086, -0.7577530599096429, 0.08355412963214587, 0.8401414910574827, 3.183915676346933, -0.9846545311253763, 0.6949330048628843, 1.261923320036154, 2.120006284718749, 0.43917442237575965, 0.04117864723954112, -0.3698829340076133, 1.2038363986296847, 1.398267423314432, 0.6767882297806254, 2.7908783775926307, 0.4902111788692737, -0.8532960344768092, 1.5823283041920546, 2.293529209381915, 0.16535218919905084, 0.9630857620478447, -0.036112199693155746, 2.741225245616657, 1.5352823076589317, 1.1576628304817473, 0.9357655298376918, 1.3502442054294228, -0.9449805735412974, 1.0440069018976539, -0.7077089443255026, -0.3185300230897236, 0.7558714513728918, -1.2378425065237102, -1.5711069034625718, -0.5325609956258609, -1.7955320488573903, -1.0954121110834634, 2.3524362988363605, -0.1444010381925254, 0.5905823754512772, -1.3834179102464985, 2.485277718216714, -1.6097583239292241, 1.8702072820584443, 0.5345073010743884, -0.4873263588823707, -0.9893300117192054, -0.008561810449695922, 2.338614265513775, -0.6229709434703278, 0.19241396087305876, 0.4523402365353724, -0.07576768615816745, 0.4055291375856844, 1.7205419756852882, 2.7100931770030456, -0.45760994641829805, -0.5699508854453125, 0.3254674498970526, 0.8672075801912753, -1.0407895537610927, -1.52325785339615, -0.3363325037614084, 0.24525443058652593, 0.7369577915945242, -1.754548897426088, -1.019123430368534, -0.45777637454553444, -0.10216499778134464, 0.16435300162047947, -2.242132836825208, -0.21001988876109817, -0.3919814919703164, -0.07331167207992595, -0.3734396701249486, -0.44402827574648474, -0.04478176892493817, -0.9623167588157178, 2.430383949138109, 0.9147985649382253, -0.8612268193371919, 0.4896676836899091, -0.554999980817742, -0.709870509272443, -0.8511586440012147, 1.1831576792124072, 2.732212415297638, -0.19462355162701783, 0.5353571649074316, 1.8084722065218828, -1.1669028150820278, 0.13684829528503661, -1.4375561362781701, -0.7492893714268438, 1.9984245447326197, -1.7284175547552885, -1.155233718727871, -0.32622381629945596, 0.7987532171823721, -0.9529495750186893, 1.6815774943639352, -0.12789401255753938, -0.47602890414646115, -0.20333897840265652, -4.242352294717345, 3.4615765895134203, -1.9141694576419521, 3.236112130586005, -3.395840448502069, 3.110679285047385, -0.21483717625620186, -1.4843460904632102, 1.663408527293609, 1.580265994712069, -1.5072681844254492, 0.3837407382213263, 0.520494754868124, 0.49863390963981424, 0.0481914277632062, 0.24426568806373977, -1.8510823402703442, -0.024509109732925166, -0.2928638329796661, 1.5193334479397342, -0.742409950162782, 0.09188905472389942, -2.1275924050805273, 1.1065846655789415, -1.5788812618612795, 2.030553218223859, -2.4264283608969874, 0.03578366945172079, 0.9944197616998101, 0.6514922656737427, 0.3810695519387418, 0.16110805690541163, 1.0209149665135442, 0.40776967990879875, -1.342295399368472, 0.15549644167315643, -0.4663878922341975, -2.319791448470985, 1.566059512894221, -3.109872112565775, 2.2203311651194553, 4.422208375407468, -0.6530089811219468, -0.8239868533255804, -0.18851932885652167, -3.2012360278698027, 0.5833301581302066, 2.0586143030125204, 1.9736940878353417, -0.29873507196912924, 0.5019576674615656, -0.8760009084796447, 1.7056422944604814, -3.2924625315328218, 0.6066110975455089, 0.8813487857176899, 0.21897031870249137, 0.5375868884980857, -0.5644869986516154, -1.7256681799644922, -0.6968856492883615, 1.7230086502270294, 2.3246034118852816, 0.19149540312322802, 0.7954596362321089, 0.2077827393595351, -0.8807614841589557, -0.04600148056103298, -0.6002701146580505, -1.6643884283014287, 0.7292169271050906, 0.6558430083386422, 1.224260344097422], [1.154833494603593, -1.3027537084628342, -0.9002273165129241, -0.7144742889426515, 2.006116814683966, -2.4818146432055026, 1.3880148968132058, 0.5394875836090606, -1.9549075202107766, 0.19663656039942515, -4.13564412812012, -3.669378041526606, -0.7273861399779876, -1.9225821394802671, 1.6942704350092557, 3.6692208757608546, 1.6121371731732073, 1.3262425966223839, -0.11038786610118254, 1.9881656411894646, -0.7739434036288602, 2.622414080304972, -3.707696387766688, -0.8829785917519966, 1.2303534244607433, 0.8678085856505272, 3.1565929997260818, -0.3314050281236748, 0.45499689509317165, -2.2371592846954407, 0.5205781423653082, -0.8220658694671906, 1.2946582206133872, -1.9527954609461133, -0.18167598857186618, 0.5893873262891969, 2.0594126081992616, 0.0788450077933237, 0.6084690217340112, -1.2618778105584498, -0.03568274320895069, -1.2615101204266546, 1.1367179095356854, 4.249343004490721, -0.6315001897524253, 2.904601141243877, -3.0815882353287734, -0.29642425844294573, -2.5352063411858072, -0.10270632491203119, -0.4387558079566581, -0.12776867613787618, 1.6168569854659964, 0.3869777015835457, 1.4243609664536299, 0.7632838888934829, -2.31875614418692, -1.2548406971674262, -1.1414457104259426, -1.7865032225949924, -0.7446662586797405, -0.8081808438425866, -0.39283500014618894, 1.9365424298300915, -1.5102568703574313, 0.07730228931635083, -0.3076334740155352, 0.5961443365273045, 0.3546222314438557, 2.5915740627453143, -1.205917997364757, 1.164522362875592, 0.848091272613408, -0.24849533170492816, 0.7048476930000785, 0.543024992227177, -0.5215116747724915, 1.51245735834918, 0.37574486143978847, 0.7694535691272959, 1.8922702383198233, 0.3595609630930209, -0.6314758337355222, 1.9514285214376201, 2.1205612802392846, 0.625901530440285, 0.2857104954078331, 1.2638328005104968, 2.5374001696483273, 1.7653998489300824, 1.323591871996512, 0.5007790986890892, 0.7336705865961967, -0.225926300391115, 0.8353559173087131, -0.9063532633597389, 0.2970516477191055, 0.9633876099340443, -1.4713073686991724, -1.7998472619286245, -0.2924243744318388, -1.5837326787024304, -0.598840970664021, -0.0024645315518603966, -1.1305102310365926, 0.5905823754512772, -0.8330423611035458, 2.445618515645914, -1.5124403131175934, 2.0716963171557548, 0.909514070239219, -0.4873263588823707, -0.9425645065302124, 0.1291474317247078, 1.6712803921082664, -0.8121140000372891, -0.7289100125080044, -0.3466713458357839, 0.001489607686714342, 0.6292949356492091, 2.335602926401157, 2.753042768580574, -0.4029998586797902, -0.16335366982607893, 0.2596704914817963, 0.1314218019700547, -0.9300893332011203, -0.7058534869726775, -0.808996675521396, 0.15885698299448253, 1.1459814203405576, -1.4866599597335737, -1.6074766506407292, 0.21911507335743025, -0.05916720135721742, -0.26245152464240096, -0.00710262812511514, -0.6226842242170227, -0.8726966378091598, -0.2187384197940631, -0.07412205337398681, -0.2526762538011656, 0.35136407651983403, -0.3169303574029087, 1.936581528108539, 1.3799248865628573, 0.5406430258004298, 0.5544413408486873, 0.19740573250907603, -0.7872716771988724, -1.3977687446193259, 1.5785824463941411, 2.3173833787433376, -0.19462355162701783, 0.6782962816862167, 0.7899621078871409, -1.6265791103031946, -0.17091149717950127, -1.4375561362781701, -0.2825489897716167, 0.37977453145891527, -1.7672207182310862, -1.1911165342438892, -0.37226570038202894, 2.417675824093718, -0.4151639113700035, 0.9326730952028879, -1.0160890067638795, -0.2408093543276394, -0.5345895589163888, -3.6747586764974414, 3.8876222908593503, -2.9667606414824226, 2.812500375817472, -2.4047863891987076, 3.529232354865846, -1.0980974745160843, -1.853931524222187, 2.213346317183747, 0.47612620739200384, -1.5809145271560958, 0.3043329162584485, 1.0214035576839204, 0.43681593494860793, 0.09597367567568867, 0.363105830593884, -0.9733312897431844, -0.30836136055442454, -0.18025441868303066, 0.3523281079649871, -0.30193178796495906, 0.27769791654792925, -1.3620960602032905, 1.1065846655789415, -0.9432083730244152, 2.292288951255225, -1.5831837180223831, 0.5465346272800754, 1.55842171342832, 0.008836548907427522, 1.1780336490764984, 0.6314796240152649, 0.5518961312337467, 0.5786029470002438, -0.7452386992534398, -0.4082014822994841, -0.5760174985490228, -2.833553565182377, 1.2240942924588418, -2.3577901847696503, 2.807262777563829, 4.426180020975164, -0.6530089811219468, -0.9479803859824795, -0.18851932885652167, -3.284462409293721, -0.1796048039552503, 1.1381338551689986, 2.0053304473309406, -0.6044453677007646, 0.8672585525228002, -1.2815537199856541, 1.265250871666369, -1.9959760355608946, 0.40720752267779387, -0.36660629881617335, 0.12701169985640387, -0.09455399818107668, -0.5705751092835012, -1.7041607027679173, -0.43584151605178684, 1.6301019024980283, 1.964809668118566, -0.13695227882053318, 1.1852478325729947, 0.20861670760388346, -0.8807614841589557, -0.10194619596343513, -0.5936517082345395, -0.794143922241092, 0.8751204240766253, 0.32700478920101705, 1.3688061240116647], [1.111695339180971, -1.5472498538273647, -0.9002273165129241, -1.2085353829994565, 2.0196351709031157, -2.155522815011502, 1.3880148968132058, 0.7573851495613394, -1.833534944195212, 0.0270705964055592, -2.9697430673371024, -3.8391259532961253, -0.7700171201814826, -2.1129731790044604, 1.253121147763574, 3.6692208757608546, 0.33255242173085914, 1.8349124389443034, -0.11038786610118254, 2.363274047476934, -0.7800904275963553, 3.1596670489056398, -3.707696387766688, -1.143992341820183, -0.513981330506286, 0.8000712967232761, 3.6347755797217216, -0.16794184795124395, -0.3764380035818865, -2.080345803109967, 1.0015529862855022, 0.14313370626754582, 1.5988671575397677, -2.6767523435858833, 0.004314356728098198, 0.3549326255456659, 1.987781551254616, 0.22435924209913, 0.5598637826027354, -1.3114757329565965, 0.41881632002535074, -0.7136583841377718, 1.0851470916762127, 4.838530762520846, -0.6315001897524253, 3.2855803277013336, -2.8915036697597767, 0.57430826852373, -2.2914265052344467, 0.42061601771332613, -0.5129719019567577, -0.12776867613787618, 0.9381051544280814, 0.22529131628315285, 1.327047784621598, 0.5932261488493243, -1.2721818688841333, -0.9194166348721637, -1.0777322741075057, -1.3338990727565319, -0.1111765140077767, -1.289236991686352, -0.7383472279930049, 1.9365424298300915, 0.6224028434700873, 0.06554085617318262, 0.6637284511221601, 0.7195053911649343, 0.6535077483776284, 3.542761740805326, -0.8235097612510563, 0.8506743732873052, 1.7280056387715095, 0.10263508972757929, 0.6421092228525316, 0.9692269085991904, -0.6163308738615432, 1.495612137634599, 0.7600806761638407, 1.0498216677739038, 1.9117957586924548, 1.087440895194522, -0.6314758337355222, 0.8905126413539954, 1.9735547804614637, 0.2226859583070267, 1.1779393653569628, 0.43247719211014807, 2.3266560324738808, 1.3844936045492608, 1.8513157755253487, 0.8802895218604243, 1.1442830838672207, -1.1830435098774466, 1.7234398947983327, -0.6248929693099369, 0.48304169135603053, -0.045780224096173217, -1.345927378072165, -2.446013845674407, 1.3807433612520617, -0.9521217459101539, -0.17427205333427714, 0.0543310122686521, -0.13233742984131777, -0.5028718699193457, -0.5343667363914061, 2.402584989268723, -1.4892610202369514, 1.7228528646546644, 1.1241545237025163, -0.571087690863311, -0.51087155901942, 0.03234081102950068, 1.663058555186859, -0.6333774413450715, -0.8916475149028728, -0.5328834572559749, 0.40767113418101963, 0.3517397034573354, 1.7709403215100146, 2.3766305351443373, -0.08578561955198627, -0.7186021104849714, 1.5446254912515038, 0.9355518830530973, -0.290375094934485, 0.2812300090040146, -0.35990625033753315, -0.3471414815178381, 1.3121742472253055, -1.3058223309460164, -0.9429618042079952, -0.009403652138954166, 0.03378181907253128, 0.16435300162047947, -0.09483559766350647, -0.5186008376181502, -0.5409060449787342, -0.11575247681644857, -0.42891675923651507, -0.2003144282517809, -0.20779010760831357, 0.1588575958680214, 2.3027289918813736, 1.192601900216481, -0.429327203993315, 2.415936303020787, 0.3185801203691544, -0.8045805960700162, -1.1166501294140585, 1.571899429605166, 1.7222522188878626, -0.19462355162701783, 0.6782962816862167, 1.220499097860309, -1.400863883417252, 0.0548019086532663, -0.8100459032047957, -0.7492893714268438, 1.1024659045758924, -1.844400338690433, -1.2392816301821012, -0.11156201014530544, 2.252057212025577, -0.8918779760014066, 2.2998795320445145, -0.31705974216216715, -0.3830340692361355, -0.20333897840265652, -4.170775363341385, 4.079384795825689, -2.28827222901587, 3.236112130586005, -3.451529644178819, 2.2680576324361326, -1.1682298845620682, -1.627985401523849, 1.074577549107588, 0.5614321997879604, -1.678579558304267, 0.12528163639638495, 0.9056394225494981, 0.37393712159044934, 0.06488743548853917, 0.31580528624072923, -1.5654633942333418, -0.3962991725622579, -0.862459429002516, 1.5193334479397342, -0.30193178796495906, 0.09188905472389942, -3.441742147236075, 1.472465993288023, -1.5766093479194447, 2.2273142801521777, -1.5096549960145176, 0.8789878496131927, 1.9768240927258063, 0.07701962007439556, 1.5118190949589034, -0.002290611583746882, 1.1590788206802345, 0.2408696830781118, -0.5996671247435941, 0.5639978044080995, -0.3623462615071889, -2.4751756647278365, 1.7671754651047007, -2.853680956322707, 2.486236605478655, 4.214107378441019, 0.2450671241331822, -0.8362614824904973, -0.09009028534969601, -3.206076717599964, 0.5833301581302066, 1.1706799407942676, 1.9834727940122328, -1.3433218796112598, 0.7678303601347105, -0.9187092125922264, 1.7697472027025203, -3.3516541097614994, 0.019624088983344945, 1.1591784975061339, 0.22182492368241574, -0.05075214688201091, -0.9556078112233293, -1.4688718266727676, -0.40665085359676395, 1.2675798782925258, 2.585877900334997, 0.19149540312322802, 0.7293622286844592, 0.6610434643372398, -1.236077290213509, 0.009909727614255515, -0.27026598308748967, -1.6841716654079435, 1.2755004710038935, 0.4558314610092226, 1.8757598809933802], [0.3199702777042387, -1.3940420248231609, -1.0685578292067763, 