{"agent": "GeneticAlgorithm", "version": 1.0, "generation": 31959, "hyperparameters": {"pop_size": 50, "elite_count": 5, "mutation_rate": 0.15, "mutation_strength": 0.2, "tournament_size": 5, "layer_sizes": [9, 15, 10, 4]}, "population_weights": [[4.85392554671504, 10.581228750015745, 11.614138245386362, -10.372849319651419, 31.74607351873868, 11.504221520659339, -5.622102139130614, -5.921392872083408, -25.888781243469648, -10.615864859918947, 26.434959273208325, 1.1539914889086778, 31.33939023394189, -6.380412491319761, 7.445606308616515, 3.3947463961506332, -15.341661995348078, 8.946252587085304, -15.082164379391992, 6.641691005937602, -4.8211816029594, -8.46402483643813, 7.543824129273336, 0.7885954633346788, -18.14897548859843, -9.40785850810347, 2.4231260706297677, 1.3093730501873415, -2.9039358718667425, 4.705587599209573, 3.745139085586789, -1.4587860086418911, -4.491830043342773, 0.6162515902769174, 16.51970773070682, 0.5151474163352926, 14.54530076076159, -0.2500652225658561, -12.193502185235, 15.014126889283887, 1.1020816747472002, 9.04386693723122, -6.155295490618898, -22.955318815318588, -8.60298425835499, -13.495432528730387, 7.057513681805552, 9.160602358858629, 8.386835826824612, 5.2741181842918525, 13.16362767189694, -24.804319086564835, -8.609228298696912, -8.453488809007256, -8.737456807179104, -9.77550258192547, -19.37213948640913, -0.45851227866674626, -8.84884836013746, 6.39481667575108, -19.669027826036725, -34.24436320070334, -0.26404057929043856, -9.655726639484014, 2.310154574841576, -5.5700127989964985, 11.802548565916945, -28.16259637629014, 3.8140946227388994, 7.178668941634911, -10.860587618889264, -44.36240120511008, -18.337622979557437, 11.016789076774844, -10.346333255897527, -7.71917119341438, 7.003114965805073, -10.475645752013191, -6.659165236116648, -1.3569750855533593, 19.37741929396447, 16.426415295999522, 19.976981789286516, -9.68501857849546, -21.080430352102557, 10.986759549077137, 10.307657973776829, -0.7818726031366892, 33.86740714482726, -11.980692218285144, -35.952772326486375, -6.14084799804157, 14.925672761300044, 8.717637973606113, 5.096866114626853, 4.748075174860526, 4.41886747534698, -14.888404646405087, 6.74737690130196, 3.9667315173039985, 3.1670211014445417, 22.522239004098576, -1.325268822073628, -25.613891045272634, 29.336730467611563, 1.5794583420245045, 1.8874172487257228, -10.4967423538302, -20.081680724419243, 0.5097198676299411, -2.139865199373773, -1.583901824263267, -12.483461019858307, 3.6974449216409337, 14.231998387979159, 7.182290504029001, 9.10318172830285, 11.209087088217355, 14.907988296795402, 2.9529638563425062, -4.240050991938975, 4.396941450335997, -16.465176032658785, -23.755520825233212, -0.8768261776450995, 9.601657367617378, 1.0207349766481895, -6.384119380990695, 7.002098723563657, -11.863034914054758, 5.768722047983072, -16.332009600616047, -6.55722330674595, 18.93463232861838, -10.047089590557851, 9.062236528724833, 15.508106559979083, -3.3241146927399527, -19.68365947516655, 2.6568708522728715, 11.497180611014695, -19.38615687879842, -8.190445763635362, 0.03729688388901045, -6.676770136817936, 10.457110582834163, 2.650154274116033, 5.094972232258948, 12.393180596947571, -18.79043001531272, 8.463381168740476, -7.8435139741352, -15.661758736914944, -7.617679174815222, 7.342268482152134, 11.90213379200617, 7.453768535437347, -1.5764961646075222, -5.368977877574509, 0.939212052249025, 9.054704001176999, 26.716753858535856, -6.852644774354166, 5.313983582738742, 13.322624998357513, -19.27485385982789, 10.359601952795165, -15.145169873755448, -8.464032173617092, 22.39650073320705, -0.17653768315189713, 10.047520741504478, -0.2380762404575063, 3.2704822177691284, -7.073987509863676, -9.34267445491905, -21.86433346336339, 14.816639020086516, -24.411042510295992, -2.788065642361987, 2.8711876932403797, -1.2455193379454275, -12.594642350021026, -3.612505113776279, -1.5370680382892186, -2.1542653860622494, 13.984413484996253, -28.56057594840684, -0.9064910462557296, 25.13564413778453, -12.021934686817529, -9.792421630488882, 0.5503599405879958, 13.16193333346131, -5.893387945860333, -7.816505492868009, 19.4490916962429, -18.949806741781423, 13.414591953172254, 3.1152176153644553, 14.512578687473866, -4.9782361963396, 10.655674017896446, -17.439905329991838, 6.487096021648073, -4.415074179329168, 11.50595980470139, 14.293439058061951, 19.090484736428298, -0.1330769761329207, -15.685009800474017, 22.14116038357311, 25.83375758837454, 7.892718287065508, -21.274473862795396, 4.841949045891536, 4.393645519930683, -8.706217751642066, -5.958578684374883, 3.885624116022455, -2.7651426600575153, 12.813165227364495, -15.63320356654116, 6.83337087567006, -0.055751843981322144, 9.308702474842946, 19.65727713329261, -5.117329216373633, 1.3232607258314129, -12.616227853999153, 4.07895086546583, 23.279793747184353, 25.960115990435625, 11.632612011167499, 12.297851276840682, -13.478365334740204, 6.202524035339669, 13.148741211432322, 10.341198787966546, 4.582458470353432, -0.367935784544911, -14.92368937724184, -4.180647596057401, 16.67724297989369, 1.058019745235177, 8.111152151893657, -5.196262947109493, -8.70740931791373, 3.554899045985428, 13.616533911230949, -4.79962707606724, -2.0128735770895907, 25.201924928239862, 7.139767478515444, 1.7894731434123543, 13.601369357932494, -5.5742773106005385, -16.2197178442541, 21.772017316895283, -8.093238782208063, 0.2705083611246204, -13.362355131805062, -11.699695288565156, -6.371228403861253, 5.086856845010046, 7.537483647900847, 1.7709908915514192, -11.731373959648579, 15.490304015861662, -1.0537031227641727, -6.34185926034179, 9.373637058801265, 7.879741211293682, -8.165634321782813, -19.853251857539757, 3.3113532431707933, 6.237212799040211, -13.868041937641763, -18.33972396291106, 8.224729981540872, 5.318563166916469, 18.557426740119606, -4.527473694256751, 6.636467246515209, 12.217042339632673, 44.98587629751976, -4.082773050506841, -6.557999953279079, 16.088709548044, 2.7586243938789505, -1.811846586946786, 14.85364695089803, 5.353095609296382, -18.42903416170066, 0.1778610421657057, 2.7335394963910513, 11.325952262084733, 11.934160624400608, 6.504552149067434, -23.560640600912055, -27.32984192373285, 15.924812081083447, -8.404087226467261, 7.681793461293925, -14.249722434581958, -21.535825954833374, -13.636971761793992, 13.260218772507995, -8.128511115131428, -5.088957463408416, -16.039565143117827, -1.0395590107665575, 4.916862162050894, 9.185234944260557, -2.4444204503348943, -15.922853382774722, 20.44633014019323, 6.875948601700779, 6.433693239596895, 13.736695937972403, 17.387266987330506, 0.650734895941588, 3.3077206696293406, -25.75998649841055, 9.865281299444662, -3.868507101676273, -1.9552259673479369, 24.54784819279142, 6.489162413948054, -10.102208324818568, 19.98256629586886, 28.657214806827906, -6.274812692495757, -9.277701564094205, -7.3194126562925526, -2.4988967817609686, -11.294574169894648, -16.66429200592382, -9.017723383298769, 10.494388883827304, -11.384581992216882, 2.7338197218318285, 0.15133162949156254, -18.018085096665615, 3.90460218946239, -5.978123073074403, 8.501211200542969, -6.639405781150994, -4.505096260783545, -16.26880827675256, -14.863016908310218, -0.1286930529548974, 3.217690360471195, 16.493179187109973], [3.529877252233551, 10.581228750015745, 11.237991579286039, -10.415998703299966, 32.13089525820599, 11.890038153901028, -5.913088588541084, -6.399935616444305, -26.227540259204225, -10.678898861460867, 26.406070425382726, 1.5297566113726284, 30.91606365629829, -6.24214517150056, 7.7752705212052255, 3.4650345189042246, -15.341661995348078, 9.025247970852135, -15.082164379391992, 6.987494682579502, -4.669170360199492, -8.422478783794341, 7.911918537806459, 0.9302104640381352, -18.170584762298166, -10.446775175052116, 2.4933572606565466, 1.6449285256818258, -2.2736380049962825, 4.7954403202256195, 3.7505553116840606, -1.558028438664843, -4.594990650137719, 1.0615676108761183, 16.997555802862564, 0.6643519520181429, 14.675093959094731, -0.2500652225658561, -12.984064250201456, 15.127928098874966, 0.9778521163272418, 8.768172943182861, -6.155295490618898, -24.551918873859282, -7.850810313019742, -13.76758682682387, 6.733642457954589, 8.091090531795786, 8.467343518524622, 5.2741181842918525, 12.420046208050604, -24.861206238342323, -8.518028070630484, -8.641041242711783, -8.52982604661931, -9.652068386902346, -19.70996761274751, -0.5530354639193716, -8.019474867882503, 7.114313111847432, -19.168345096717946, -34.56547887959106, -0.6094435273919528, -9.583630523884072, 2.9661418026478406, -5.581674549604035, 12.133171573862679, -27.48776689950255, 4.239386948238849, 7.906595504437961, -10.475501715388896, -44.424238734780076, -17.723389332939828, 11.578664020752713, -10.21427288325757, -7.455015551804347, 7.144767316372257, -9.786669591974483, -6.523364436525717, -1.3569750855533593, 19.343875734853757, 16.61531744492036, 19.1277016003718, -8.63056897403708, -21.332761426749652, 10.967478383548292, 10.303553879429206, -0.9210327166724245, 33.86740714482726, -11.910764903211874, -36.600441529099434, -6.057839054044984, 14.718045198926688, 8.982885193342726, 5.268899226437538, 3.774220520091326, 4.774988122781972, -14.835364053307478, 6.8409175138561755, 4.348053122754696, 3.1382492776147006, 21.48363150981323, -1.235243426116541, -26.205952019095516, 28.71028373746505, 2.0357464185389453, 1.8874172487257228, -9.873851541233812, -19.50461205320029, 0.6925932939004632, -2.147454240796331, -2.242319351858837, -12.94605055764673, 3.9374152026820584, 15.251990368836106, 6.896630216202298, 9.306482520258832, 10.049222297018892, 15.102679795255007, 3.1515039395192637, -4.894304800279416, 3.6575726447612547, -16.18387581140764, -23.17382816648399, -1.201442531517948, 9.012621320069247, 1.0207349766481895, -6.546820459481059, 7.822178045129595, -11.9761729987303, 5.908079620628629, -16.118343229031666, -6.5511380745000025, 18.07071048703095, -10.588769060171604, 9.367726494040793, 15.508106559979083, -3.6256100656500165, -19.728018092175766, 2.507512083600401, 11.638597513990781, -19.60695743758185, -8.157588127465544, -0.3454877016997635, -6.9998735645564825, 10.343227557206621, 3.1251072855773274, 3.7793981644176147, 12.824916814155902, -19.02137249909655, 7.711399226898832, -8.983109808218684, -17.447601289106597, -7.585936166723936, 6.327689401319254, 11.750121004817565, 7.249166739243775, -1.5295792764914387, -5.568713996632213, 1.054490442843421, 8.895439738934218, 26.716753858535856, -6.524098919369006, 5.783320690430886, 13.322624998357513, -19.113793602932116, 10.272987460849972, -15.137638361780692, -8.554014314627622, 21.628801525051287, -0.24957283770304922, 10.047520741504478, -0.2380762404575063, 2.3834684630543252, -7.466593015308102, -9.212368511299289, -21.86433346336339, 14.433830633415754, -24.522572090072572, -2.837404573873473, 2.5348472972264204, -1.2455193379454275, -12.097235166033752, -3.816542634989875, -1.584526385468659, -2.0059709767502083, 14.026092194605466, -29.6137153285497, -0.7494547539096602, 25.786230309935906, -12.361742920901268, -10.162633914207609, 1.0341336743213365, 12.849388844652896, -6.073986364980295, -7.4867377457660975, 19.4490916962429, -18.726819490652733, 13.141790084933477, 3.0850264375956957, 13.680315637759017, -5.194303720658749, 10.705667986373701, -17.439905329991838, 6.487096021648073, -4.605273553139306, 11.316029928790298, 14.926307008550342, 18.830875175476567, 1.096920063586528, -15.896695510698557, 21.793765157298065, 25.40673871941564, 7.497856478722909, -21.122539947499945, 4.841949045891536, 4.1830433816926655, -8.988342134388896, -6.487604017905126, 3.9468127996887996, -3.4478178189692104, 12.499046140676054, -15.294116079370314, 6.015238911289996, 0.5500303105417459, 8.901005939849998, 19.757580179145542, -5.364127946012861, 2.1562856663998837, -12.84347475828521, 4.269938148008763, 22.463055969145785, 26.234185077931173, 12.110025246335818, 12.297851276840682, -12.992721761520814, 6.202524035339669, 12.943622877424364, 10.341198787966546, 4.545146641148712, -0.26881171526974657, -15.228195368796573, -4.2064548689187164, 16.820502372877616, 1.058019745235177, 8.111152151893657, -5.092777054633535, -8.392457222633352, 3.9838098251489384, 14.027221996888349, -4.6320736492511605, -2.0957962496703906, 24.65091557856548, 6.7141226310576645, 2.108689173017622, 12.857514299838208, -5.442398577920022, -16.82168322471893, 21.772017316895283, -8.414089523291969, -0.03061675267593824, -12.71803994621845, -11.345823524109722, -6.104789087398043, 6.006309993065439, 7.154273105722322, 1.6339498943307682, -11.923566987043216, 15.470846376953578, -1.5373407530725856, -4.736104113509898, 10.011804855617722, 7.857858769433789, -8.29693705917032, -19.71047766199944, 2.8471291866099797, 6.234345390378111, -13.719421324251888, -17.959728526434397, 8.519134233272025, 5.394263008075097, 18.513485224102887, -4.166873020042508, 6.1366603886108715, 11.937313811780733, 44.2528688813712, -4.223015283857445, -6.557999953279079, 16.09176935424991, 2.734945938900683, -1.0316477442585825, 14.483325534706447, 5.459098713009516, -18.42903416170066, 0.054603555853296334, 2.6540281915884245, 10.336967016040495, 11.966922860872067, 6.736047360110959, -24.006188291281788, -27.56305516855803, 15.704277385439182, -8.474600638343817, 7.681793461293925, -14.10052759467484, -21.969200505644732, -13.664853044424474, 13.296686084072485, -8.254147927694975, -6.02192083506612, -16.114087211642286, -1.066284311520391, 5.063318267245414, 9.528011375970886, -1.7297691711754872, -16.21353878771975, 20.85468666090005, 6.85398939854469, 6.369697278244972, 14.146452053890318, 17.274845985566117, 0.5595175185768975, 3.6533006277369893, -25.77700469935816, 9.161063036214912, -4.409177310718128, -1.9552259673479369, 24.54784819279142, 6.784670601770042, -10.36698910092242, 20.558676345508907, 28.444263368875216, -6.015668348365787, -8.641504043052704, -7.634419347277466, -2.588573035738709, -11.294574169894648, -16.66429200592382, -8.720976234863304, 10.666580491173853, -11.384581992216882, 2.786396779125906, -0.21433642089413868, -18.624251610444794, 3.9955855871273047, -6.513829179707876, 7.85563552610618, -6.296185134094133, -4.4445121888903705, -16.26880827675256, -15.516701582616568, -0.21557980593418247, 2.6680810029723867, 16.686618429468965], [3.56838150659759, 10.581228750015745, 11.237991579286039, -10.139761354542026, 32.01792578384183, 11.890038153901028, -4.946898878216666, -6.399935616444305, -26.069793045026252, -10.311415327819192, 26.406070425382726, 1.5297566113726284, 30.91606365629829, -6.503466329348818, 7.319281724625027, 3.460475239598798, -15.38432579935303, 9.025247970852135, -15.436520188158509, 6.932002608933096, -4.669170360199492, -8.422478783794341, 7.778930407031304, 0.664597218773377, -18.512620390550136, -10.111203764546701, 2.4933572606565466, 1.8853552662051345, -2.9039358718667425, 4.705587599209573, 3.6607260947692053, -1.558028438664843, -4.491830043342773, 0.57057831744273, 16.997555802862564, 0.6643519520181429, 14.675093959094731, -0.2500652225658561, -12.715505055334658, 15.221151063268314, 0.9778521163272418, 8.849408703347754, -6.155295490618898, -23.06410231970027, -9.043657122347835, -13.76758682682387, 7.311072870196935, 8.111664925256585, 8.370968000646062, 5.2741181842918525, 12.420046208050604, -24.861206238342323, -8.304366003383567, -8.641041242711783, -8.85855446755349, -10.104023185737987, -19.91811776294291, -0.45611836464698685, -8.019474867882503, 7.114313111847432, -19.168345096717946, -34.24944836437361, -0.6094435273919528, -9.583630523884072, 3.1715901415789225, -5.581674549604035, 10.711589388370857, -27.48776689950255, 4.181100529142191, 7.906595504437961, -10.475501715388896, -44.424238734780076, -17.786563669600042, 11.578664020752713, -10.243440699651414, -7.455015551804347, 7.144767316372257, -9.786669591974483, -6.635149754474526, -1.3569750855533593, 19.424406620359548, 16.42512200405843, 19.1277016003718, -8.63056897403708, -21.332761426749652, 11.09118220820915, 10.20189994219775, -0.9210327166724245, 33.86740714482726, -11.910764903211874, -36.600441529099434, -6.14084799804157, 14.718045198926688, 8.982885193342726, 5.2280761728969525, 3.774220520091326, 5.063809557894672, -14.835364053307478, 6.900914214040454, 4.144644120146881, 3.1786541623979714, 21.32649191802013, -2.1462055970747027, -26.205952019095516, 29.5291640619513, 2.0357464185389453, 1.8924891906751433, -10.530510502091406, -19.62112660079409, 0.6925932939004632, -2.147454240796331, -2.242319351858837, -12.94605055764673, 3.9374152026820584, 15.251990368836106, 7.02955501900956, 8.992167350951213, 11.209087088217355, 15.102679795255007, 3.1515039395192637, -5.650310038294748, 3.6575726447612547, -16.465176032658785, -23.456471741460902, -1.0211792228663112, 9.269862787596129, 1.0207349766481895, -6.546820459481059, 7.822178045129595, -12.35517292303539, 5.70828710700368, -16.118343229031666, -5.651481237519283, 18.247222352125167, -10.542571838188605, 9.075239524615991, 15.508106559979083, -3.6256100656500165, -19.728018092175766, 2.507512083600401, 11.638597513990781, -19.3525063513434, -8.959596254856622, -0.4186967236298653, -6.983701935147944, 11.808499179093657, 2.9243454686451402, 3.7793981644176147, 12.598240210223683, -18.826209537735867, 8.05007225581885, -8.507520397018558, -17.612536157116047, -7.283678154120067, 7.342268482152134, 11.642231831824915, 6.677765995268109, -1.5295792764914387, -5.544227091099355, 1.054490442843421, 8.248432248533597, 26.716753858535856, -6.524098919369006, 5.5457466402389395, 13.982538731512674, -18.998913025461462, 10.272987460849972, -15.293513815096277, -9.030838525961533, 22.342440126359655, -0.2899242824304913, 10.047520741504478, -0.6714571498076799, 2.3834684630543252, -7.466593015308102, -9.212368511299289, -20.974410317294453, 15.312021628449486, -24.289731281882556, -2.837404573873473, 2.8121848981411617, -1.4190487077995864, -12.097235166033752, -3.648639719820434, -1.6761392084131244, -2.1529114280359507, 14.026092194605466, -28.252558764716074, -0.7494547539096602, 25.786230309935906, -11.824239596871493, -10.162633914207609, 0.5503599405879958, 13.098701170288228, -6.144821963411931, -7.169224657304936, 20.13183444572272, -19.070392387505276, 13.141790084933477, 3.0850264375956957, 14.217979177091008, -5.194303720658749, 10.705667986373701, -17.206196140963904, 6.349797450381853, -4.605273553139306, 11.316029928790298, 14.926307008550342, 18.636691475171755, 1.1048875781675398, -16.043534810481926, 21.793765157298065, 25.40673871941564, 7.575395470563338, -21.33293068569814, 3.316269350178196, 4.1830433816926655, -8.820563922896351, -6.487604017905126, 3.885624116022455, -2.979710270448975, 12.813165227364495, -15.418288232098492, 5.896374024720177, 0.6456610501492973, 8.624982121795238, 19.621063940357356, -5.409052110478426, 2.1138929990457016, -12.84347475828521, 4.448055035149271, 22.61733511275956, 26.234185077931173, 12.22088693844956, 12.476337936165438, -12.95559315234179, 6.164483100232008, 13.199831354790005, 10.029898825142263, 4.545146641148712, -0.367935784544911, -16.41477381805031, -4.2064548689187164, 16.820502372877616, 1.2574172880061234, 8.111152151893657, -5.092777054633535, -8.587133861723384, 3.554899045985428, 14.02937868149427, -5.181889944030541, -2.0957962496703906, 24.65091557856548, 6.893328813035859, 2.378188411146434, 12.857514299838208, -5.442398577920022, -16.85335963948417, 21.772017316895283, -8.414089523291969, -0.0433068407363523, -13.220650219397788, -11.24139678486542, -6.104789087398043, 6.2224230015239845, 7.154273105722322, 1.6339498943307682, -11.520558720453312, 15.440513907573509, -0.6060898590949511, -4.659332615824073, 10.19112848015426, 7.857858769433789, -8.29693705917032, -19.71047766199944, 3.285526543952462, 6.229659365271413, -13.719421324251888, -18.11599009576808, 8.755382489968042, 5.394263008075097, 18.32783845238294, -4.166873020042508, 6.3308195724241045, 11.937313811780733, 44.2528688813712, -4.427835835160102, -6.557999953279079, 15.835600502239162, 2.734945938900683, -1.0316477442585825, 15.004705327162913, 5.459098713009516, -18.05971695245715, 0.2687219664864037, 2.6540281915884245, 11.083504398378075, 12.156761458397765, 6.4744104860718625, -24.006188291281788, -27.677064098934924, 15.569569517730487, -8.474600638343817, 7.681793461293925, -14.10052759467484, -22.377581461927715, -13.555494107297369, 12.842345032184973, -8.064082186310673, -6.02192083506612, -16.295325671815103, -1.066284311520391, 4.028112585885563, 9.528011375970886, -1.7297691711754872, -16.21353878771975, 20.85468666090005, 6.932732797260211, 6.369697278244972, 13.581088487789625, 17.34561090104164, 0.653421065856565, 3.6311289672347087, -25.84864761753051, 8.962177232872454, -4.409177310718128, -2.185961126088103, 23.382621669463905, 6.784670601770042, -10.501442287359751, 20.15077756920996, 28.298563797236095, -6.227215045122208, -8.441607592987916, -7.425060248507426, -2.588573035738709, -11.294574169894648, -16.66429200592382, -8.747134290313559, 10.876093509600496, -11.384581992216882, 2.786396779125906, 0.2695979355153224, -18.45661781622626, 3.9955855871273047, -6.513829179707876, 7.85563552610618, -6.296185134094133, -3.8887065718062797, -16.26880827675256, -15.516701582616568, -0.21557980593418247, 2.6680810029723867, 16.686618429468965], [3.56838150659759, 10.870810525919847, 11.750489721152466, -10.481780813271833, 31.74607351873868, 11.524809394066136, -5.913088588541084, -6.399935616444305, -26.069793045026252, -10.000605203239289, 24.885602651130906, 1.1539914889086778, 30.985105901491544, -6.512155229699993, 7.898922780296436, 3.0487073347708993, -15.341661995348078, 8.987919331401054, -15.039282377388252, 6.987494682579502, -4.8211816029594, -8.422478783794341, 7.911918537806459, 0.7885954633346788, -18.512620390550136, -9.96502496155228, 3.3568007543267346, 1.8086981965762923, -2.9039358718667425, 4.7954403202256195, 3.774265357341057, -1.6984341496646893, -4.357355016451658, 0.41844859884837327, 17.172978609801056, 0.6643519520181429, 14.329106029622348, -0.2500652225658561, -12.984064250201456, 15.014126889283887, 0.9778521163272418, 8.95490054855291, -5.893790367886047, -24.899806236179387, -8.60298425835499, -13.650623084506963, 7.311072870196935, 8.70190002973652, 8.467343518524622, 5.3888266691195446, 12.711309343352452, -24.865633885744256, -9.679304762169124, -7.867706171302246, -8.668720718620964, -9.77550258192547, -19.857979073413254, -0.709054675706811, -8.012850214725075, 7.114313111847432, -19.79809872944988, -33.68153255812894, -0.44009428598254174, -9.583630523884072, 3.414171076338753, -5.436650384537155, 10.79174917039838, -27.900717529544163, 4.437256697079055, 7.561638747334573, -10.486388530114276, -44.60230595367667, -17.896736880100274, 11.477387744875136, -9.936263973896816, -6.519745642440594, 7.003114965805073, -10.313174757260313, -6.687216015226615, -1.3569750855533593, 19.37741929396447, 16.104587109950998, 19.455325636228363, -9.426164121622076, -21.34979496678986, 11.942608915394858, 10.218103046241923, -1.3529474648560245, 34.29724006293783, -11.402337437432225, -36.45329077518516, -6.344617136252237, 14.718045198926688, 8.256224006967694, 5.097111831455351, 4.006344090912006, 4.981040703573253, -14.653000609669876, 6.8409175138561755, 4.154228435422735, 3.292633667599743, 22.672944123686822, -2.3165684072003, -26.205952019095516, 29.83635537004128, 2.0357464185389453, 1.9245441220653041, -10.053041889105904, -19.580690489616078, 0.362521674023779, -2.624048051701384, -2.242319351858837, -12.708460261614757, 3.91246883255794, 14.880821074271376, 6.896630216202298, 9.10318172830285, 10.049222297018892, 15.102679795255007, 3.041738560128051, -5.065936721844388, 3.373767701086412, -16.278057027141827, -23.456471741460902, -0.5839828418418775, 9.157473188894786, 1.0207349766481895, -6.071323032632248, 6.921626578952395, -12.06613019846083, 6.223178022009679, -16.293939920298808, -6.449228311773668, 18.372292413507296, -11.258292559772224, 9.062236528724833, 15.508106559979083, -3.6256100656500165, -18.261872917072427, 2.875119331399533, 11.638597513990781, -19.404663197958207, -8.555021650386898, -0.16988261274099278, -6.983701935147944, 11.808499179093657, 2.541329344402573, 4.222783721857196, 12.393180596947571, -18.88631823497388, 7.936494452380581, -8.155445391349376, -17.66429945892197, -7.747376345226718, 7.038019041650229, 11.642231831824915, 7.397233375713291, -1.381687627035904, -5.578002806094453, 1.0047304105229018, 8.825503440152849, 26.510361623087228, -6.338671646979354, 5.66041830555329, 13.322624998357513, -19.428482240979623, 10.272987460849972, -15.559500876727709, -8.464032173617092, 22.39650073320705, 0.07909611864257596, 9.887156190189897, -0.47235675732748644, 2.6422791432444237, -7.073987509863676, -9.212368511299289, -21.634318391378358, 14.920836615000715, -24.238424697696242, -2.401250170560022, 2.6571509749699125, -1.2455193379454275, -11.608840368998688, -3.648639719820434, -1.6227116521415164, -2.149982753017722, 14.026092194605466, -28.34872371957078, -1.0488496578390418, 25.5706225669532, -12.129033328688616, -10.162633914207609, 0.5608215108374482, 12.961968394143248, -6.091142920093687, -7.4867377457660975, 19.4490916962429, -19.070392387505276, 13.477041581305153, 3.538456777798987, 14.47678125200538, -5.194303720658749, 10.821111974867854, -17.439905329991838, 6.487096021648073, -4.605273553139306, 11.316029928790298, 15.109280969528234, 18.636691475171755, 1.3678812160287976, -15.728566644570478, 22.214552494522433, 25.57182886309688, 7.890534522180667, -21.274473862795396, 4.173594168515541, 4.393645519930683, -8.904271762813092, -6.487604017905126, 3.885624116022455, -3.2499948607196467, 13.317997479355984, -15.11400918129472, 5.659027761956523, 0.28719150339853644, 9.465909526493451, 19.4633447573715, -5.9222824576072055, 1.1673053792821424, -12.74976219644737, 4.02565109720473, 22.54074088993929, 26.234185077931173, 11.729467754847503, 12.649406547643817, -13.478365334740204, 6.391774110081039, 13.050605613299766, 10.199900615622777, 4.493409374369351, -0.3659914607441235, -15.096974751251057, -4.2064548689187164, 17.001950131420735, 1.058019745235177, 7.922082116554355, -5.029502881185388, -7.744008401270768, 3.47993737801683, 14.043486577305028, -4.563777815677261, -1.7741117308830656, 25.17306092045896, 6.9772543033301, 1.7709713118482386, 12.857514299838208, -5.139803260016169, -16.9526743380654, 21.743440186232924, -7.679436501537927, 0.34370508235568387, -13.362355131805062, -11.319910326356723, -6.104789087398043, 6.1354234398597525, 7.154273105722322, 1.7709908915514192, -11.731373959648579, 15.440513907573509, -1.0498136836844227, -4.704763420131452, 10.177966655853751, 8.205034795294257, -9.220398057552874, -19.71047766199944, 3.285526543952462, 6.234345390378111, -13.795595366083768, -18.11599009576808, 9.00313570617681, 5.701238290222949, 18.542956330933414, -4.166873020042508, 7.028420172228759, 11.983033442134891, 44.2528688813712, -3.6369629679363285, -6.860856707027506, 16.088709548044, 2.798682990972836, -1.0316477442585825, 14.85364695089803, 4.799311424603925, -18.42903416170066, 0.4625377031097526, 2.615689150615712, 9.9250186754399, 11.799988150789227, 6.736047360110959, -23.553263955547195, -27.788063728106827, 15.722743023749867, -8.594084630318907, 7.681793461293925, -14.10052759467484, -22.182769037588795, -13.555494107297369, 12.417982544331434, -8.570692032579885, -5.836394654417322, -15.804850281874254, -1.066284311520391, 5.063318267245414, 9.494087014938438, -2.4444204503348943, -15.700209790598905, 20.85468666090005, 6.426921658044494, 6.369697278244972, 14.146452053890318, 16.95128561325623, 0.710401763402843, 3.7804168021596536, -25.77700469935816, 9.161063036214912, -4.796956237298133, -1.7168343312262835, 23.566872362136614, 6.656915283150099, -10.501442287359751, 20.64987560781092, 28.657214806827906, -6.168691670101963, -8.243756555796079, -7.79177284154612, -2.6835412532821947, -11.76434878712207, -16.66429200592382, -8.761592900530342, 10.989808714465212, -11.384581992216882, 2.9824679501666624, 0.15133162949156254, -18.450346522039595, 4.389126030884061, -6.430925267292822, 8.557011317980077, -6.308092986652787, -4.4445121888903705, -16.106653015000138, -14.863016908310218, -0.21557980593418247, 2.704719439629844, 16.686618429468965], [4.995633014819598, 10.581228750015745, 11.237991579286039, -10.139761354542026, 32.256618471469004, 12.113438320849411, -5.739031798814896, -6.399935616444305, -26.00673844749313, -10.311415327819192, 26.406070425382726, 1.1524705157395507, 31.159804794519026, -6.254047534170783, 7.292123056118479, 3.9615635875322663, -15.510766008438914, 8.987919331401054, -15.436520188158509, 6.987494682579502, -4.669170360199492, -9.101438442071606, 7.911918537806459, 0.664597218773377, -18.512620390550136, -10.111203764546701, 2.4933572606565466, 1.8853552662051345, -2.9039358718667425, 4.705587599209573, 3.454122948964509, -1.4268227720040203, -4.491830043342773, 0.57057831744273, 16.443773390514085, 0.8978387367021932, 14.243918489252144, -0.1352774483986447, -12.984064250201456, 15.127928098874966, 1.0547594325203842, 7.187966760456034, -5.687166174220416, -23.06410231970027, -8.60298425835499, -14.311347661853405, 7.311072870196935, 8.390682873441794, 8.467343518524622, 5.2741181842918525, 12.420046208050604, -24.861206238342323, -8.298097473615131, -7.433644617306368, -8.181211150538415, -9.925827870118813, -19.918331909769226, -0.32235097945548363, -8.728513987139236, 7.114313111847432, -19.168345096717946, -34.48093439431765, -0.6094435273919528, -9.583630523884072, 3.1715901415789225, -5.581674549604035, 11.567690644420209, -27.48776689950255, 4.239386948238849, 7.906595504437961, -10.752401811391964, -44.57241084303066, -17.786563669600042, 11.578664020752713, -10.521536956815622, -7.455015551804347, 7.413966419259175, -9.786669591974483, -6.895198246446114, -1.6391101056961226, 19.33898698067264, 16.531764614789303, 19.1277016003718, -8.63056897403708, -20.83816615749505, 11.137403048593644, 10.266595363300162, -0.8190056363831345, 33.86740714482726, -11.910764903211874, -36.31755795461527, -6.616521253792158, 14.718045198926688, 8.982885193342726, 5.2280761728969525, 3.774220520091326, 5.063809557894672, -14.662705316413545, 6.900914214040454, 4.154228435422735, 3.2505771855403673, 21.564620501754987, -2.1034429960910073, -26.205952019095516, 29.5291640619513, 2.3599830695422597, 1.8924891906751433, -10.4967423538302, -19.265009815486888, 0.6925932939004632, -2.147454240796331, -2.242319351858837, -12.94605055764673, 3.9374152026820584, 15.244679681857498, 6.914554909745122, 9.10318172830285, 11.209087088217355, 15.81362421809814, 2.8422945990430737, -4.241809405757411, 3.6575726447612547, -16.465176032658785, -23.5713527591248, -1.0462119582667841, 9.42696968493706, 1.0207349766481895, -6.546820459481059, 7.822178045129595, -12.35517292303539, 6.122599650491836, -16.261844077606302, -5.508121520499062, 19.221519668389796, -10.527648425789064, 9.162878942808288, 16.547121820960488, -3.5527076420785435, -19.59253413421556, 2.507512083600401, 11.634011514711597, -19.3525063513434, -8.321894317102165, -0.4186967236298653, -6.983701935147944, 11.808499179093657, 2.9243454686451402, 3.7793981644176147, 12.598240210223683, -18.772893522264525, 8.463381168740476, -8.507520397018558, -17.445423639341712, -7.727257268100154, 7.342268482152134, 10.904656509665102, 7.453768535437347, -1.381687627035904, -5.544227091099355, 1.054490442843421, 7.9614343396001015, 26.61230130557717, -6.524098919369006, 5.5457466402389395, 13.785370131037459, -18.998913025461462, 10.728721074395983, -15.145169873755448, -9.030838525961533, 22.39650073320705, -0.24957283770304922, 9.860949806266559, -0.642175433623547, 3.2704822177691284, -7.466593015308102, -8.697836793143148, -21.183022411603027, 14.433830633415754, -24.289731281882556, -2.837404573873473, 2.6562563171032507, -1.4190487077995864, -12.42124117210864, -3.3239990298796234, -1.6227116521415164, -2.1529114280359507, 14.178535984031416, -28.226304192547506, -0.7494547539096602, 25.786230309935906, -11.824239596871493, -10.325616753337867, 0.5503599405879958, 13.098701170288228, -5.893387945860333, -7.169224657304936, 19.56039336062256, -19.458105498385205, 13.141790084933477, 3.0850264375956957, 14.217979177091008, -5.194303720658749, 10.705667986373701, -17.206196140963904, 6.349797450381853, -4.335616642590704, 11.316029928790298, 14.926307008550342, 19.256809273937044, 1.1048875781675398, -16.30401865618883, 22.14116038357311, 25.40673871941564, 7.718880259854784, -21.274473862795396, 4.841949045891536, 4.1830433816926655, -8.820563922896351, -6.487604017905126, 3.885624116022455, -3.3745784172080557, 12.793334702143866, -15.453178063040179, 5.896374024720177, 0.25890016453956155, 9.119472441673867, 19.621063940357356, -5.400994411574342, 2.1562856663998837, -12.458449730838355, 4.085785960105785, 22.463055969145785, 26.79983963357422, 12.22088693844956, 12.744189858630444, -13.478365334740204, 6.391774110081039, 13.423324430786037, 10.341198787966546, 4.143840364490033, -0.8263549547320956, -16.41477381805031, -4.2064548689187164, 16.847315090974245, 1.2574172880061234, 7.77513544268697, -5.219426394338969, -8.716339932485981, 3.554899045985428, 14.027221996888349, -5.181889944030541, -2.14310298568139, 24.65091557856548, 6.893328813035859, 2.378188411146434, 12.857514299838208, -5.442398577920022, -16.85335963948417, 21.315884534811087, -7.960202318115475, -0.0433068407363523, -13.220650219397788, -11.90845926566844, -6.104789087398043, 5.742092193344391, 7.181631944959302, 1.6339498943307682, -11.751728831431112, 15.229184390816043, -1.2486987914448406, -4.915480400228113, 10.19112848015426, 7.857858769433789, -8.29693705917032, -19.893563248748734, 3.289347204155993, 6.229659365271413, -13.719421324251888, -18.11599009576808, 8.635053041460825, 5.895867390957371, 18.50908859311578, -4.509458586968946, 6.3308195724241045, 11.937313811780733, 44.37130497402298, -4.3770267280017, -6.660767953614268, 16.088709548044, 2.734945938900683, -1.0316477442585825, 15.004705327162913, 4.601193748167211, -18.05971695245715, 0.2687219664864037, 2.615689150615712, 10.848230056607783, 11.936187500919429, 6.4744104860718625, -23.07971356020496, -28.08106561053266, 15.569569517730487, -8.474600638343817, 7.9421267750229685, -14.10052759467484, -22.22141941294841, -13.555494107297369, 12.705337692433094, -8.10145985831021, -4.326977212849945, -16.460944301854852, -1.2596799301274886, 4.310852493297298, 9.528011375970886, -1.7297691711754872, -16.21353878771975, 20.85468666090005, 6.85398939854469, 6.369697278244972, 13.581088487789625, 17.274845985566117, 0.653421065856565, 3.6311289672347087, -25.84864761753051, 9.671409980341117, -4.409177310718128, -2.3315967678413343, 23.382621669463905, 6.569525564920996, -10.501442287359751, 20.15077756920996, 28.42405123357589, -6.0404095487689, -8.441607592987916, -7.450704432888619, -2.9148350994682852, -11.294574169894648, -16.66429200592382, -8.747134290313559, 10.62309618631528, -11.384581992216882, 2.786396779125906, 0.2695979355153224, -18.54858134935744, 4.065484939133338, -6.29125480941654, 8.557011317980077, -6.296185134094133, -3.9225478100306237, -16.26880827675256, -15.516701582616568, -0.21557980593418247, 2.6680810029723867, 16.686618429468965], [3.56838150659759, 10.581228750015745, 11.237991579286039, -10.415998703299966, 32.01792578384183, 12.211407837253217, -4.946898878216666, -6.338247041564368, -26.459377444439642, -10.311415327819192, 26.406070425382726, 1.5297566113726284, 31.15537734428414, -6.659550728765405, 7.259076686217527, 3.460475239598798, -15.38432579935303, 8.987919331401054, -15.436520188158509, 6.976588593708138, -4.669170360199492, -8.384916499435603, 7.778930407031304, 0.9302104640381352, -18.170584762298166, -10.111203764546701, 3.2356756892655105, 1.6449285256818258, -2.3075486974405472, 4.705587599209573, 3.6607260947692053, -1.5629237195715795, -4.4458711486975595, 0.57057831744273, 16.972176152171986, 0.6478363077845722, 14.604132820700954, -0.2500652225658561, -12.715505055334658, 15.221151063268314, 0.9778521163272418, 8.768172943182861, -5.687166174220416, -24.551918873859282, -7.9009007560939795, -13.816621160007333, 7.057513681805552, 8.111664925256585, 8.467343518524622, 6.097547188306756, 12.420046208050604, -24.861206238342323, -8.304366003383567, -8.641041242711783, -8.85855446755349, -9.652068386902346, -19.30468362595616, -0.5530354639193716, -8.019474867882503, 7.114313111847432, -19.28881030207853, -34.56547887959106, -0.6094435273919528, -9.634506453117048, 3.1715901415789225, -5.480121427707796, 11.567690644420209, -27.48776689950255, 4.181100529142191, 7.906595504437961, -10.475501715388896, -44.424238734780076, -17.867588491065213, 11.578664020752713, -9.985603141417764, -6.519745642440594, 7.144767316372257, -9.786669591974483, -6.635149754474526, -1.3569750855533593, 19.424406620359548, 17.167732986795652, 19.1277016003718, -9.735563777182058, -21.332761426749652, 11.193892837250432, 10.303553879429206, -1.3490815040207198, 33.81448058435659, -11.910764903211874, -36.600441529099434, -6.14084799804157, 14.718045198926688, 8.256224006967694, 5.2280761728969525, 3.774220520091326, 4.774988122781972, -14.835364053307478, 6.8409175138561755, 4.144644120146881, 3.622598617815453, 21.48363150981323, -2.1462055970747027, -26.205952019095516, 28.71028373746505, 2.223253574942995, 1.9294682767335019, -10.684502011290032, -19.4382207293567, 0.6925932939004632, -2.147454240796331, -3.069645386215781, -12.483461019858307, 3.9374152026820584, 15.251990368836106, 7.02955501900956, 8.992167350951213, 10.089748078144686, 15.102679795255007, 3.1515039395192637, -4.894304800279416, 3.6575726447612547, -16.465176032658785, -23.456471741460902, -1.0462119582667841, 9.269862787596129, 0.8124331369886368, -6.546820459481059, 7.822178045129595, -12.140682771651287, 5.70828710700368, -16.118343229031666, -6.5511380745000025, 18.07071048703095, -10.542571838188605, 8.640298896861777, 16.720844739997894, -3.2465307790518665, -19.728018092175766, 2.610586803381765, 11.638597513990781, -19.60695743758185, -8.86502680159092, -0.3454877016997635, -6.983701935147944, 10.343227557206621, 3.1251072855773274, 4.428815237011271, 12.441322098289428, -18.90726051796057, 7.711399226898832, -8.507520397018558, -17.445423639341712, -7.43896264349887, 6.327689401319254, 11.750121004817565, 6.677765995268109, -1.5295792764914387, -5.351327139903251, 1.054490442843421, 8.935881950300072, 26.716753858535856, -6.199785541582607, 5.783320690430886, 13.982538731512674, -18.90197212452655, 10.272987460849972, -15.293513815096277, -9.026224135732743, 22.342440126359655, -0.17653768315189713, 9.860949806266559, -0.7966083354978397, 2.2666939140013915, -7.466593015308102, -9.212368511299289, -20.90494011334105, 15.312021628449486, -24.289731281882556, -2.9454522614335974, 2.8121848981411617, -1.4190487077995864, -12.097235166033752, -3.7937776202014497, -1.6761392084131244, -2.1529114280359507, 14.026092194605466, -28.252558764716074, -0.4966411402791932, 25.786230309935906, -11.824239596871493, -10.162633914207609, 0.5503599405879958, 13.098701170288228, -6.144821963411931, -7.4867377457660975, 20.13183444572272, -19.070392387505276, 13.141790084933477, 3.284237162193194, 13.900407454601973, -5.194303720658749, 10.705667986373701, -17.206196140963904, 5.8736697538205105, -4.605273553139306, 11.280465711386448, 14.926307008550342, 18.636691475171755, 1.1048875781675398, -16.12448583184304, 21.99483304419296, 25.40673871941564, 7.575395470563338, -21.274473862795396, 4.173594168515541, 4.1830433816926655, -8.820563922896351, -6.477538721091059, 3.885624116022455, -3.4478178189692104, 12.933726137800297, -15.577340506582333, 6.015238911289996, 0.6456610501492973, 8.901005939849998, 19.621063940357356, -5.409052110478426, 1.8779241740581107, -12.84347475828521, 4.137180110457134, 22.463055969145785, 26.234185077931173, 12.22088693844956, 12.297851276840682, -12.95559315234179, 6.164483100232008, 12.839638831668877, 10.341198787966546, 4.658489955975149, -0.30435243037693027, -15.596193890784022, -3.939229608611443, 16.50228092661726, 1.058019745235177, 8.111152151893657, -5.092777054633535, -8.587133861723384, 3.554899045985428, 14.02937868149427, -5.181889944030541, -2.0957962496703906, 24.65091557856548, 6.7141226310576645, 2.378188411146434, 12.803762939947575, -5.442398577920022, -16.85335963948417, 21.772017316895283, -8.307385263113664, -0.03061675267593824, -12.71803994621845, -11.24139678486542, -6.104789087398043, 6.006309993065439, 7.154273105722322, 1.6339498943307682, -11.923566987043216, 15.440513907573509, -1.104795627155181, -4.736104113509898, 10.19112848015426, 7.857858769433789, -8.252217753273092, -19.71047766199944, 3.1322591397334123, 6.234345390378111, -13.719421324251888, -18.11599009576808, 8.755382489968042, 5.394263008075097, 19.722591205828174, -4.166873020042508, 6.3308195724241045, 12.172208591741521, 44.47158458684817, -4.380566094936003, -6.675794439118037, 16.094666263856293, 2.5259533828392993, -2.0650234257929028, 15.004705327162913, 5.459098713009516, -18.42903416170066, 0.054603555853296334, 2.946514413993847, 10.469435889382728, 11.966922860872067, 6.4744104860718625, -24.006188291281788, -27.310306368736594, 15.569569517730487, -8.228314410018617, 7.681793461293925, -13.927723521637207, -22.377581461927715, -13.664853044424474, 12.927198531114632, -8.064082186310673, -6.02192083506612, -16.295325671815103, -1.2596799301274886, 4.028112585885563, 9.029312402725983, -1.883495368155586, -16.21353878771975, 20.85468666090005, 7.042004433909382, 6.629741967271999, 13.581088487789625, 17.34561090104164, 0.653421065856565, 3.6311289672347087, -25.84864761753051, 8.962177232872454, -4.409177310718128, -2.185961126088103, 24.410275455368975, 7.087981857660283, -10.18065504021285, 20.15077756920996, 28.444263368875216, -5.816528697418233, -8.441607592987916, -7.425060248507426, -2.588573035738709, -11.21234545541793, -16.35776190327808, -8.747134290313559, 10.704869262040646, -11.495099185843644, 3.061863567099925, 0.616332596303967, -18.624251610444794, 3.960480433134568, -6.216756706337561, 8.439399520337373, -6.296185134094133, -3.8887065718062797, -15.840725649587958, -15.76204985422914, -0.21557980593418247, 2.6680810029723867, 16.359012739907524], [4.995633014819598, 10.581228750015745, 10.99694410912332, -10.481780813271833, 31.74607351873868, 12.113438320849411, -5.510720271638007, -6.399935616444305, -26.069793045026252, -10.48377081084567, 24.78118139524047, 0.939918704766947, 31.159804794519026, -5.8572639145565635, 7.518489975420158, 3.0487073347708993, -15.341661995348078, 8.987919331401054, -15.039282377388252, 6.987494682579502, -4.8211816029594, -8.122580502949845, 8.10210749564244, 1.0039538444385525, -18.14897548859843, -9.809504103369498, 2.4933572606565466, 1.7483313917669356, -2.9039358718667425, 4.913682174999189, 3.774265357341057, -1.4268227720040203, -4.912765113120653, 0.37142663586863095, 17.300107888132967, 0.4750609449880844, 14.285428950250568, -0.2500652225658561, -12.193502185235, 15.014126889283887, 0.7826543683947575, 8.336144222729814, -5.893790367886047, -24.899806236179387, -8.423742499693844, -14.61586905067678, 7.057513681805552, 8.390682873441794, 8.565635970770868, 5.3888266691195446, 12.711309343352452, -24.888285510893816, -8.205336241893713, -7.433644617306368, -8.85855446755349, -9.985626298942469, -19.918331909769226, -0.5530354639193716, -7.866877428565968, 7.069272675381415, -19.168345096717946, -33.613968289849, -0.4714760229632313, -9.756337424997419, 3.414171076338753, -5.581674549604035, 10.79174917039838, -27.48776689950255, 4.283348239142039, 7.995935083716739, -11.117573988720252, -44.55900862670376, -17.786563669600042, 11.363529707871775, -9.985603141417764, -6.519745642440594, 6.863850280415254, -9.786669591974483, -6.781366300406384, -1.3569750855533593, 19.33898698067264, 17.111947544572924, 19.60415410576246, -9.20954936786846, -21.34979496678986, 11.738653539514202, 10.687637258486983, -1.3529474648560245, 34.426805210133715, -11.910764903211874, -36.31755795461527, -6.616521253792158, 14.718045198926688, 8.256224006967694, 4.939438769000053, 3.774220520091326, 5.063809557894672, -14.662705316413545, 6.900914214040454, 4.154228435422735, 3.622598617815453, 21.564620501754987, -2.3165684072003, -26.038443896549897, 29.83635537004128, 2.018643325030713, 1.8924891906751433, -10.529319382967305, -19.533876870462375, 0.362521674023779, -1.949910332002344, -2.242319351858837, -12.708460261614757, 3.91246883255794, 15.244679681857498, 6.93549558441098, 9.10318172830285, 11.209087088217355, 14.669098353033732, 3.041738560128051, -4.241809405757411, 3.2976233561391806, -16.756311801892, -23.456471741460902, -0.8169664606388849, 9.42696968493706, 1.0207349766481895, -6.016307860453497, 6.921626578952395, -12.06613019846083, 5.874759937930461, -16.261844077606302, -5.508121520499062, 18.372292413507296, -10.359925955098623, 9.062236528724833, 15.508106559979083, -3.3360847882209943, -18.07349534357107, 2.875119331399533, 11.634011514711597, -19.3525063513434, -8.589976075256889, -0.4186967236298653, -6.983701935147944, 11.808499179093657, 2.8605658925160533, 4.22769621386382, 12.441322098289428, -18.90726051796057, 8.522861803723842, -8.748492782776596, -17.336629059619234, -7.502828990036036, 7.517076707413412, 10.904656509665102, 7.453768535437347, -1.381687627035904, -5.578002806094453, 1.0047304105229018, 7.9614343396001015, 26.602570827848652, -6.566628449888599, 5.5457466402389395, 14.193794067258663, -19.093151021071048, 10.728721074395983, -15.145169873755448, -9.030838525961533, 22.3632773803308, -0.14808058761044293, 9.860949806266559, -0.7966083354978397, 3.2704822177691284, -7.4595627117954395, -8.697836793143148, -21.888381970558093, 14.433830633415754, -24.289731281882556, -2.401250170560022, 2.6571509749699125, -1.3897945013335584, -11.892938995468686, -3.893750256766623, -1.6227116521415164, -1.9859096392459303, 13.73581740124153, -28.821420473973646, -0.3325478566332926, 25.786230309935906, -11.887320554731119, -10.162633914207609, 0.7796245414332541, 13.098701170288228, -6.091142920093687, -6.971273000569123, 19.56039336062256, -19.36958470687231, 12.913296511313733, 3.6198700957851386, 14.47678125200538, -5.194303720658749, 10.821111974867854, -17.998146161865254, 6.643740369252041, -4.501382643501837, 11.175088468403638, 15.109280969528234, 19.056372532781754, 0.09292333215322007, -15.728566644570478, 22.14116038357311, 25.433606983461573, 7.718880259854784, -21.274473862795396, 4.173594168515541, 4.393645519930683, -8.820563922896351, -6.487604017905126, 3.885624116022455, -3.2499948607196467, 12.793334702143866, -15.636880768124454, 5.896374024720177, 0.17484747187545358, 9.119472441673867, 19.621063940357356, -5.409052110478426, 1.1673053792821424, -12.740422106263894, 4.137180110457134, 22.463055969145785, 26.70131917891996, 11.729467754847503, 12.744189858630444, -13.478365334740204, 6.097232098809069, 13.423324430786037, 10.199900615622777, 4.545146641148712, -0.3659914607441235, -16.770115354832505, -3.939229608611443, 17.001950131420735, 1.058019745235177, 7.77513544268697, -5.219426394338969, -9.020530644680575, 3.47993737801683, 13.845397248826577, -5.181889944030541, -2.14310298568139, 25.61249399408385, 6.893328813035859, 1.7709713118482386, 12.857514299838208, -5.724598616000422, -16.569380275027406, 21.4465814743038, -7.960202318115475, -0.0433068407363523, -13.220650219397788, -11.968374034246605, -6.104789087398043, 6.049491567570447, 6.757223972177856, 1.496556918431782, -11.751728831431112, 15.229184390816043, -1.216855935444372, -4.915480400228113, 9.373637058801265, 8.205034795294257, -8.29693705917032, -19.893563248748734, 3.284398383453554, 6.49225949655554, -13.640953058203934, -18.11599009576808, 9.00313570617681, 5.895867390957371, 19.872216325205894, -4.166873020042508, 7.028420172228759, 11.937313811780733, 44.67103995491436, -3.6369629679363285, -6.860856707027506, 15.745263277760516, 2.734945938900683, -2.0650234257929028, 14.85364695089803, 4.799311424603925, -18.34757873365886, 0.10339611474571608, 2.946514413993847, 10.848230056607783, 11.799988150789227, 7.0037155661944706, -23.553263955547195, -27.346126918575937, 15.818113509325702, -8.174885712029043, 7.9421267750229685, -14.4524867952403, -22.12886286626812, -13.555494107297369, 12.842345032184973, -8.570692032579885, -4.326977212849945, -15.459193200753319, -1.2596799301274886, 5.310992651095072, 9.029312402725983, -1.883495368155586, -15.700209790598905, 19.755194324334873, 6.426921658044494, 6.369697278244972, 14.382285948693807, 17.278395685612754, 0.5314131110618567, 4.038239137725372, -25.77700469935816, 9.671409980341117, -4.326007831116479, -2.2164560293971807, 23.566872362136614, 7.087981857660283, -10.501442287359751, 20.64987560781092, 28.42405123357589, -6.0404095487689, -8.243756555796079, -7.625317956534998, -2.6835412532821947, -11.294574169894648, -16.323801957044637, -8.607156564827559, 10.704869262040646, -11.384581992216882, 3.061863567099925, 0.15133162949156254, -18.45661781622626, 4.065484939133338, -6.216756706337561, 8.557011317980077, -6.296185134094133, -4.034817812404831, -15.840725649587958, -15.551915296246326, -0.21557980593418247, 2.6680810029723867, 16.686618429468965], [5.199655750700319, 10.379380066763543, 11.237991579286039, -10.139761354542026, 32.04990587946019, 11.099930737440067, -5.510720271638007, -6.446260742855188, -26.012964705536007, -10.615864859918947, 24.885602651130906, 1.2963917545860053, 30.925369796820025, -6.515838879339724, 7.259076686217527, 3.3947463961506332, -15.341661995348078, 8.987919331401054, -15.082164379391992, 6.776260711866569, -4.589197000042228, -9.101438442071606, 7.536617345032178, 0.7885954633346788, -18.14897548859843, -10.352620636893176, 3.3484858196771863, 1.5232275168501004, -2.9039358718667425, 4.481720906232233, 3.774265357341057, -1.6984341496646893, -4.491830043342773, 0.6210649264483437, 16.851674236405422, 0.5151474163352926, 14.363747395471103, -0.34671277827275754, -12.537373288878753, 15.014126889283887, 0.1524288710120223, 8.849408703347754, -5.687166174220416, -22.876425098807296, -8.60298425835499, -14.311347661853405, 7.4399397022838984, 9.160602358858629, 8.386835826824612, 5.548785883500652, 12.711309343352452, -24.888285510893816, -8.205336241893713, -8.453488809007256, -8.85855446755349, -10.183740314476292, -19.918331909769226, -0.709054675706811, -8.012850214725075, 6.39481667575108, -19.47415885099825, -34.44957782977779, -0.6879058834153778, -9.603354573018192, 2.2024092285679115, -5.436650384537155, 11.567690644420209, -27.900717529544163, 4.239386948238849, 7.561638747334573, -10.486388530114276, -44.54585208203691, -18.156149757000883, 11.578664020752713, -9.936263973896816, -6.542649619229334, 7.408453225789653, -10.475645752013191, -6.798327315452602, -1.138060796880797, 19.19526484004132, 16.976477189955936, 19.40200315778045, -9.68501857849546, -21.479382386759557, 11.942608915394858, 10.32844651439585, -0.7818726031366892, 33.587110227167635, -11.298227864661401, -36.07266116583471, -6.616521253792158, 15.377186514883853, 8.717637973606113, 4.965413858958812, 4.346330331664237, 4.92604888540824, -14.888404646405087, 6.74737690130196, 4.154228435422735, 3.1670211014445417, 21.564620501754987, -1.7224114334662097, -26.205952019095516, 29.5291640619513, 1.5794583420245045, 1.8874172487257228, -10.475981851430133, -20.866028981127318, 0.5198936674342869, -2.139865199373773, -2.2940076364498547, -12.708460261614757, 3.9374152026820584, 14.482303227580607, 6.625691826723401, 8.760992936579614, 9.98412589972346, 14.679605231395593, 3.246179379606114, -4.916319312245419, 3.2976233561391806, -16.2294378168658, -23.755520825233212, -1.0462119582667841, 9.403863852152078, 0.07603066618069454, -6.278562520924703, 7.270929644624246, -11.984473777491289, 6.0360195885936, -16.261844077606302, -6.6696282276876735, 18.93463232861838, -10.271778314747392, 8.83076044853925, 16.720844739997894, -2.6695059143311597, -17.87807833498687, 2.8097417489605467, 11.513574949712417, -19.3525063513434, -8.202537413102133, -0.4186967236298653, -7.231294571410161, 10.50160905076078, 2.583871879633606, 4.428815237011271, 12.441322098289428, -18.90726051796057, 8.463381168740476, -8.585763528741621, -17.44985891605512, -7.502828990036036, 7.038019041650229, 11.593178870873647, 7.56351327519289, -1.4560684550992495, -5.198886002555691, 0.7768554925653147, 7.9614343396001015, 26.510361623087228, -5.988317700394282, 5.313983582738742, 13.042382670761814, -19.428482240979623, 11.232094436548495, -15.145169873755448, -8.867946217617524, 22.10747618184469, 0.07909611864257596, 10.207188997972747, -0.7966083354978397, 3.6313828970388395, -7.524602114155936, -9.46774939384155, -21.956202589323762, 14.816639020086516, -24.247436735723063, -2.401250170560022, 3.3458657652665162, -1.1269955551833528, -12.22813262282622, -3.3239990298796234, -1.6584348704959528, -2.149982753017722, 14.687621421283547, -28.56057594840684, -0.7494547539096602, 25.786230309935906, -12.295255152127307, -10.524022628290485, 0.6630943835207191, 13.16193333346131, -6.123516041203361, -7.083592824813016, 19.893162384640004, -18.718211783137857, 12.901477034464238, 3.2667742675352875, 13.900407454601973, -4.9782361963396, 10.578391627428488, -17.998146161865254, 6.337606549462655, -4.335616642590704, 10.959140701811465, 14.915672973644178, 19.036028232587192, 0.3988473792449745, -15.998353216972165, 22.293358029544173, 25.69652566986827, 7.890534522180667, -21.274473862795396, 4.021007481275421, 4.393645519930683, -8.904271762813092, -6.46205319490226, 4.820714303714265, -3.275547994479439, 12.813165227364495, -15.317015790485474, 6.83337087567006, 0.25890016453956155, 9.165232422603482, 19.757580179145542, -5.574186788469367, 1.2780178005251448, -12.616227853999153, 4.07895086546583, 22.463055969145785, 26.79983963357422, 11.652843210223802, 12.297851276840682, -13.478365334740204, 6.202524035339669, 12.943622877424364, 10.827759966498665, 4.582458470353432, -0.3659914607441235, -15.408205406044116, -3.7998693327182544, 16.29141201950855, 1.058019745235177, 8.111152151893657, -5.2656607379071945, -7.744008401270768, 3.47993737801683, 14.263352579964522, -4.662818947512819, -1.6596554663202063, 25.201924928239862, 6.522763848938871, 1.7709713118482386, 13.558546108659328, -5.661095326677778, -16.2197178442541, 21.772017316895283, -7.679436501537927, 0.34370508235568387, -13.196481459981458, -11.699695288565156, -5.975470848327012, 5.997436654329319, 6.757223972177856, 1.8583118287640734, -11.674563949768178, 15.490304015861662, -1.0537031227641727, -6.34185926034179, 10.177966655853751, 8.205034795294257, -7.9925953904600195, -19.893563248748734, 3.285526543952462, 6.237212799040211, -13.795595366083768, -18.33972396291106, 8.755382489968042, 5.701238290222949, 18.557426740119606, -4.653305150851793, 6.661089459707864, 12.217042339632673, 44.35185155717761, -3.6369629679363285, -6.660767953614268, 15.745263277760516, 2.734945938900683, -1.9957615828824409, 14.85364695089803, 4.799311424603925, -18.391619765348448, 0.25620636582174927, 2.946514413993847, 10.469435889382728, 11.72394764469332, 6.787659099621104, -22.63711051479046, -27.788063728106827, 15.76859833879816, -8.168031976828185, 7.874824907365865, -14.322806253779847, -21.535825954833374, -13.555494107297369, 12.417982544331434, -8.570692032579885, -4.414980194142543, -15.459193200753319, -0.7761728735024597, 4.916862162050894, 9.185234944260557, -2.074961429098651, -15.414205024272905, 20.03401674791338, 6.875948601700779, 6.433693239596895, 14.245825819684525, 17.401858475349417, 0.710401763402843, 4.150298311343995, -25.922260631039617, 9.4558022782281, -4.409177310718128, -1.2328214238840756, 23.59273072413103, 6.489162413948054, -10.102208324818568, 20.556257219963523, 28.418452687379876, -6.397726371402293, -9.277701564094205, -7.3194126562925526, -2.6835412532821947, -11.21234545541793, -16.547229209430803, -8.761592900530342, 10.989808714465212, -11.384581992216882, 3.061863567099925, -0.010553787594337338, -18.233088761703495, 4.065484939133338, -6.593155976162082, 8.201312159741267, -6.727049854755179, -4.429720982220646, -16.031225467242045, -14.863016908310218, -0.1286930529548974, 3.1972393564141437, 16.299913200407143], [3.622411652798937, 10.870810525919847, 11.750489721152466, -9.893542895616596, 31.74607351873868, 11.524809394066136, -5.913088588541084, -6.399935616444305, -26.069793045026252, -10.288374939033622, 24.885602651130906, 1.4926475058119417, 31.098974113929767, -6.512155229699993, 7.445606308616515, 2.892084668376321, -15.341661995348078, 9.07897787106814, -15.039282377388252, 6.641691005937602, -5.873704328665702, -9.101438442071606, 7.990116407507212, 0.7885954633346788, -18.512620390550136, -9.96502496155228, 3.3568007543267346, 1.8853552662051345, -2.9039358718667425, 6.1206226983969625, 3.774265357341057, -1.7708135549820374, -3.2159742181614512, 0.41844859884837327, 17.172978609801056, 0.6643519520181429, 14.329106029622348, -0.45202440190014886, -12.214708393599416, 15.014126889283887, 0.9778521163272418, 7.39824477968457, -6.155295490618898, -24.551918873859282, -9.043657122347835, -14.311347661853405, 7.311072870196935, 8.390682873441794, 8.467343518524622, 5.3888266691195446, 12.830306038022615, -24.862643042272005, -9.679304762169124, -7.867706171302246, -7.977324489848907, -9.925827870118813, -19.30468362595616, -0.45851227866674626, -7.916626243501113, 7.114313111847432, -19.168345096717946, -33.93770437439948, -0.6534601932302001, -9.583630523884072, 3.414171076338753, -5.436650384537155, 12.12146501957156, -27.355382705289568, 4.535680158183618, 7.906595504437961, -10.479062635844286, -44.33659046953003, -17.896736880100274, 11.578664020752713, -10.001915393523023, -7.455015551804347, 7.122847218381075, -9.786669591974483, -6.67529540323037, -1.387797976932091, 19.573202797297213, 16.531764614789303, 19.686281629979437, -9.0562602216858, -21.332761426749652, 11.942608915394858, 10.266595363300162, -1.3529474648560245, 33.587110227167635, -11.896218547623478, -36.600441529099434, -6.616521253792158, 14.807480775237735, 8.256224006967694, 5.2280761728969525, 3.4918374660429388, 4.981040703573253, -14.125423486048827, 6.900914214040454, 4.154228435422735, 3.24986332175618, 21.53047916762235, -2.1462055970747027, -26.205952019095516, 29.83635537004128, 2.0357464185389453, 1.2937810070633877, -10.529319382967305, -19.62112660079409, 0.6059962945500915, -2.624048051701384, -2.242319351858837, -12.846357710516472, 3.9374152026820584, 15.251990368836106, 6.896630216202298, 8.854214634615314, 10.049222297018892, 15.102679795255007, 3.005703771953159, -4.241809405757411, 3.6575726447612547, -16.465176032658785, -23.5713527591248, -0.3784871804404707, 9.157473188894786, 0.07603066618069454, -6.071323032632248, 7.822178045129595, -11.984473777491289, 6.223178022009679, -16.293939920298808, -5.392891329818038, 18.372292413507296, -10.359925955098623, 9.062236528724833, 15.508106559979083, -3.3360847882209943, -18.261872917072427, 2.875119331399533, 12.162877611752117, -19.404663197958207, -8.555021650386898, -0.16988261274099278, -6.815645915665102, 11.808499179093657, 2.541329344402573, 3.980133242648451, 12.393180596947571, -18.71291014415627, 7.936494452380581, -8.155445391349376, -17.66429945892197, -7.727257268100154, 7.132089438294944, 11.61794050930207, 7.397233375713291, -1.381687627035904, -5.578002806094453, 1.054490442843421, 8.825503440152849, 26.510361623087228, -6.4427044075985505, 5.66041830555329, 13.982538731512674, -19.691630600038998, 10.272987460849972, -15.559500876727709, -9.030838525961533, 22.39650073320705, 0.07909611864257596, 9.887156190189897, -0.727175633697936, 3.575726783380316, -7.466593015308102, -8.784565390577395, -21.634318391378358, 14.433830633415754, -24.387450054202525, -2.401250170560022, 2.6562563171032507, -1.097650409632559, -12.293549093084044, -3.3239990298796234, -1.534382695640239, -2.086960804311321, 14.687621421283547, -28.34872371957078, -0.7494547539096602, 25.889990669114766, -12.129033328688616, -10.524022628290485, 1.0581415622494408, 13.098701170288228, -6.060274906916269, -7.575914514686889, 19.56039336062256, -19.070392387505276, 13.477041581305153, 3.3646446942222346, 14.47678125200538, -5.194303720658749, 10.861358600536601, -17.439905329991838, 6.349797450381853, -4.335616642590704, 11.316029928790298, 14.926307008550342, 19.252450244204304, 1.0486669423418753, -15.815079353869834, 22.14116038357311, 25.40673871941564, 7.890534522180667, -21.274473862795396, 4.173594168515541, 4.416172170141523, -8.739271370066058, -6.46205319490226, 3.885624116022455, -3.42629250928028, 12.813165227364495, -15.440479355988128, 6.07536523090699, 0.5500303105417459, 9.119472441673867, 19.37968240049445, -5.409052110478426, 1.1673053792821424, -12.823486177095152, 4.039117268888049, 22.463055969145785, 27.177320880155833, 11.744644968416335, 12.649406547643817, -12.992721761520814, 6.202524035339669, 13.572927355073055, 10.827759966498665, 4.772293918101241, -0.3659914607441235, -15.096974751251057, -4.2064548689187164, 17.265266166552383, 1.1212158572771989, 7.668766314386793, -5.032460928200829, -8.738341051650593, 3.554899045985428, 13.913708859691168, -4.563777815677261, -2.2509000910323413, 25.17306092045896, 7.17036076519372, 2.19308910097831, 13.710547211538415, -5.1175768875899745, -16.37383135320851, 21.772017316895283, -8.414089523291969, 0.34370508235568387, -13.362355131805062, -11.345823524109722, -5.975470848327012, 5.8967255027640695, 6.915652005539586, 1.8583118287640734, -11.731373959648579, 15.539315480680786, -1.2448313807062197, -4.915480400228113, 10.431398353369609, 7.803689841661598, -9.220398057552874, -19.893563248748734, 3.5422118880146, 6.234345390378111, -13.795595366083768, -18.11599009576808, 8.635053041460825, 5.394263008075097, 18.554421528778597, -4.718474730658412, 5.985539880314444, 12.217042339632673, 44.78939521682559, -4.239024833445109, -6.557999953279079, 16.088709548044, 2.221650120062805, -2.321314738345598, 15.542512550341872, 4.799311424603925, -18.747599530172835, 0.07016567700128437, 2.6671263925907613, 10.848230056607783, 11.799988150789227, 7.172985455208732, -23.553263955547195, -27.788063728106827, 15.80892368408725, -8.509688526635403, 7.66807028036772, -14.295676997941426, -22.184920022420116, -13.677148656318616, 12.956821721513954, -8.414086565547242, -5.836394654417322, -16.114087211642286, -1.0379760703583076, 5.063318267245414, 9.494087014938438, -1.7297691711754872, -16.75108221837117, 21.00731413486435, 6.866729780112713, 6.369697278244972, 14.146452053890318, 17.006587359141978, 0.710401763402843, 3.639262193674026, -25.84864761753051, 9.375355085153245, -4.530055470747992, -2.3315967678413343, 23.382621669463905, 6.656915283150099, -10.501442287359751, 20.558676345508907, 28.42405123357589, -6.269572751648359, -9.208044237245717, -7.79177284154612, -2.467568958883858, -11.317356161391265, -16.66429200592382, -8.761592900530342, 10.637870626728212, -11.384581992216882, 2.86352223170716, 0.616332596303967, -18.562815978409116, 3.9862387799001398, -6.574448563125341, 8.557011317980077, -6.296185134094133, -3.7679805043017067, -15.970225278826089, -14.907202629699954, -0.1397161395455631, 2.6680810029723867, 16.3927202364588], [3.529877252233551, 10.581228750015745, 11.237991579286039, -10.139761354542026, 32.13089525820599, 11.710907222585147, -5.913088588541084, -6.399935616444305, -26.113183912600206, -10.678898861460867, 24.559425466467008, 1.5297566113726284, 31.311240949929857, -6.24214517150056, 7.7752705212052255, 3.7452618062360155, -15.341661995348078, 9.025247970852135, -15.082164379391992, 6.603679752661841, -4.669170360199492, -8.556393295564659, 7.567861295817201, 0.9302104640381352, -18.170584762298166, -10.326026528324658, 3.738045120537514, 1.4251900393086494, -2.2736380049962825, 4.7954403202256195, 3.774265357341057, -1.558028438664843, -3.4192993283760895, 0.41844859884837327, 17.172978609801056, 0.6643519520181429, 14.243918489252144, -0.2500652225658561, -12.984064250201456, 15.26662412096525, 1.0712535343167628, 8.768172943182861, -6.155295490618898, -24.551918873859282, -7.850810313019742, -14.248303945088567, 6.733642457954589, 8.817459104610055, 7.911837319313464, 5.2741181842918525, 12.420046208050604, -25.01437104309381, -8.518028070630484, -8.641041242711783, -8.52982604661931, -9.77550258192547, -19.98197988443453, -0.5530354639193716, -8.576616586937893, 7.114313111847432, -19.019946653844876, -34.48093439431765, -0.6094435273919528, -10.429004915589857, 2.9661418026478406, -5.11915485047112, 10.95088600993674, -28.548785400049255, 4.1623211986288515, 7.906595504437961, -10.475501715388896, -44.75381320238791, -17.97222884896769, 11.477387744875136, -10.13856207705605, -7.455015551804347, 7.144767316372257, -9.786669591974483, -6.436509042142376, -1.3569750855533593, 19.33898698067264, 16.61531744492036, 19.1277016003718, -8.401055858546535, -21.332761426749652, 10.939122438585956, 10.218103046241923, -1.721654988364427, 33.86740714482726, -11.910764903211874, -36.600441529099434, -6.4224644104458335, 14.718045198926688, 9.096277902844914, 5.096866114626853, 3.774220520091326, 4.774988122781972, -13.904605421137127, 6.8409175138561755, 4.348053122754696, 3.1382492776147006, 21.78526579408585, -1.0186006368409342, -26.205952019095516, 29.09499024243663, 2.0357464185389453, 2.647924443051158, -9.873851541233812, -19.50461205320029, 0.7448507040755415, -2.236973819032357, -2.242319351858837, -12.490540697756392, 4.0033082452489595, 15.183887518390048, 6.896630216202298, 9.306482520258832, 11.209087088217355, 15.09013543670134, 3.257220711719375, -4.709397969318143, 3.6575726447612547, -16.18387581140764, -23.17382816648399, -1.201442531517948, 9.012621320069247, 1.0207349766481895, -6.676186268832561, 7.979094842713547, -12.353301637072745, 5.908079620628629, -16.062935631467003, -5.508121520499062, 18.07071048703095, -10.588769060171604, 9.062236528724833, 15.508106559979083, -3.6256100656500165, -18.261872917072427, 2.507512083600401, 11.638597513990781, -19.554323169331777, -8.302136401745004, -0.4186967236298653, -7.190049198289243, 11.6298036838535, 2.679535670415129, 3.9400076679512592, 12.598240210223683, -18.89208543063131, 7.711399226898832, -8.789871876968093, -17.447601289106597, -7.6878448606360426, 7.297953754861696, 11.934712319776187, 6.549508194605944, -1.7121350386457372, -5.568713996632213, 0.939212052249025, 8.895439738934218, 26.716753858535856, -6.524098919369006, 5.481121788055942, 13.322624998357513, -19.073351894053587, 10.134679424396127, -15.137638361780692, -8.464032173617092, 21.628801525051287, -0.24957283770304922, 10.456994581621249, -0.12131689938940213, 3.1813306510483854, -7.466593015308102, -9.212368511299289, -21.86433346336339, 14.849671447882, -24.522572090072572, -3.0039045773128126, 2.620042988159205, -1.2248570216550767, -12.097235166033752, -3.816542634989875, -1.1775028578417834, -2.23258785979338, 14.501690863747292, -28.69702169367608, -0.7494547539096602, 25.739603594719362, -12.361742920901268, -10.162633914207609, 0.5873680076636227, 12.849388844652896, -6.073986364980295, -7.169224657304936, 19.4490916962429, -19.29706570770226, 13.418560776009382, 3.0850264375956957, 13.680315637759017, -5.194303720658749, 10.705667986373701, -17.23974052146935, 6.643740369252041, -4.518422995342691, 11.316029928790298, 14.747390872789419, 18.62136330798332, 1.096920063586528, -15.896695510698557, 22.335415746831025, 24.63217046790198, 7.497856478722909, -21.122539947499945, 4.841949045891536, 4.987841960598519, -8.937261019867629, -6.957785638011172, 3.9468127996887996, -3.585758645760219, 12.567636216333932, -15.418288232098492, 6.015238911289996, 0.3115172955191968, 9.157659364944513, 19.233813885216758, -5.364127946012861, 0.7703133328418587, -12.84347475828521, 4.808804829725272, 22.64876738298597, 26.36699943552362, 11.682918010470624, 12.333386765256956, -13.478365334740204, 5.841741121240655, 13.433821696630606, 10.341198787966546, 4.545146641148712, -0.367935784544911, -16.41477381805031, -4.0768819579686335, 16.820502372877616, 1.006776168872991, 7.6709318627476035, -5.225851054147893, -8.392457222633352, 3.30133363494249, 14.027221996888349, -4.721413794894779, -2.366622142166691, 24.31022884652501, 7.376688226022754, 2.108689173017622, 12.857514299838208, -5.442398577920022, -16.82168322471893, 21.250099542833816, -8.414089523291969, -0.03061675267593824, -12.71803994621845, -11.345823524109722, -6.104789087398043, 6.006309993065439, 7.1768587971241775, 1.6339498943307682, -11.923566987043216, 15.440513907573509, -1.1539672823056137, -5.994685342873434, 10.011804855617722, 7.857858769433789, -8.29693705917032, -19.893563248748734, 3.2948934003095243, 6.234345390378111, -13.65172090345779, -17.959728526434397, 8.635053041460825, 5.394263008075097, 18.513485224102887, -4.166873020042508, 6.1366603886108715, 12.15430325755001, 44.2528688813712, -4.223015283857445, -6.660767953614268, 16.100529159927017, 2.9091442805285253, -1.0316477442585825, 14.483325534706447, 4.710080032873625, -18.42903416170066, -0.12050392851051023, 2.6540281915884245, 10.336967016040495, 11.72394764469332, 6.736047360110959, -24.006188291281788, -27.56305516855803, 15.704277385439182, -8.168031976828185, 7.681793461293925, -14.210313642842598, -21.969200505644732, -13.879514204962982, 13.296686084072485, -8.03075340340242, -4.2739822731351715, -16.114087211642286, -1.066284311520391, 5.063318267245414, 9.528011375970886, -1.7297691711754872, -16.21353878771975, 20.85468666090005, 6.85398939854469, 6.369697278244972, 14.146452053890318, 17.182454110680133, 0.5595175185768975, 3.666651678151845, -25.77700469935816, 9.161063036214912, -4.409177310718128, -1.9552259673479369, 23.202561049303366, 6.901571336456938, -10.36698910092242, 20.31626753991652, 28.382209007645375, -6.015668348365787, -8.641504043052704, -7.634419347277466, -2.9707062096403076, -11.294574169894648, -16.66429200592382, -9.165285674277406, 10.704869262040646, -11.676639130583323, 2.786396779125906, 0.616332596303967, -18.624251610444794, 4.043101459546229, -6.336379574879451, 8.557011317980077, -6.296185134094133, -4.4445121888903705, -16.26880827675256, -15.516701582616568, -0.21557980593418247, 2.6680810029723867, 16.686618429468965], [3.4237141077697637, 10.17544488107004, 11.59481180482646, -9.831040590090602, 32.01792578384183, 11.715801752271528, -5.101587398337205, -6.399935616444305, -25.888781243469648, -10.852586725780546, 24.885602651130906, 1.25026949690717, 31.523063241852856, -6.380412491319761, 7.445606308616515, 3.620432972006081, -15.257045052678889, 9.228512719279832, -14.676728345404713, 6.641691005937602, -4.8211816029594, -8.669930184424713, 7.565088275390083, 0.7885954633346788, -18.512620390550136, -10.14324067473474, 3.3568007543267346, 1.0646384357360938, -2.9039358718667425, 4.705587599209573, 3.7547983559704803, -1.8018256840815836, -4.671569870859443, 0.6162515902769174, 16.58862710555364, 0.5151474163352926, 14.675093959094731, -0.3058865415722507, -13.219485981322986, 14.91862533956955, 0.9778521163272418, 8.095024669183555, -5.893790367886047, -24.899806236179387, -8.60298425835499, -13.76758682682387, 7.057513681805552, 7.991312377458048, 8.370968000646062, 5.2741181842918525, 12.474546340181174, -25.241841042535853, -8.207176246078209, -7.867706171302246, -8.181211150538415, -10.287046924808006, -19.363079776429114, -0.45851227866674626, -8.84884836013746, 7.114313111847432, -19.669027826036725, -34.48093439431765, -1.2013303022613795, -9.572619102664524, 2.237884546018078, -5.436650384537155, 11.591915348275908, -27.900717529544163, 3.8140946227388994, 7.906595504437961, -10.860587618889264, -44.60230595367667, -17.896736880100274, 11.578664020752713, -10.346333255897527, -6.519745642440594, 7.003114965805073, -9.661709824063953, -6.687216015226615, -1.3569750855533593, 19.37741929396447, 16.104587109950998, 19.1277016003718, -9.68501857849546, -21.080430352102557, 12.043606452786237, 10.218103046241923, -0.9210327166724245, 34.29724006293783, -11.815743240411308, -36.600441529099434, -6.01788598760368, 14.925672761300044, 8.256224006967694, 5.166856879898755, 4.748075174860526, 4.8928854667172486, -14.888404646405087, 6.900914214040454, 3.9667315173039985, 3.1382492776147006, 21.78526579408585, -2.3165684072003, -25.613891045272634, 29.83635537004128, 2.0357464185389453, 1.7507121826008227, -10.4967423538302, -19.62112660079409, 0.5097198676299411, -2.624048051701384, -2.242319351858837, -12.94605055764673, 3.6974449216409337, 14.880821074271376, 6.706000272356096, 9.10318172830285, 11.209087088217355, 14.96958375245283, 2.9529638563425062, -4.416513027189772, 3.825443056912835, -16.278057027141827, -23.456471741460902, -1.0211792228663112, 9.107294795960541, 1.0207349766481895, -6.546820459481059, 7.002098723563657, -12.35517292303539, 5.70828710700368, -16.293939920298808, -6.588792480418482, 18.34990653900979, -9.887469985545462, 9.062236528724833, 15.508106559979083, -3.5416145899571254, -19.728018092175766, 2.507512083600401, 11.497180611014695, -19.3525063513434, -8.555021650386898, -0.46964869445820845, -6.676770136817936, 11.307522665650374, 2.650154274116033, 3.7793981644176147, 12.393180596947571, -18.88631823497388, 8.308252118771229, -8.155445391349376, -17.66429945892197, -7.747376345226718, 7.456891864623756, 11.642231831824915, 7.397233375713291, -1.8036393276500438, -5.476028139218458, 1.054490442843421, 8.825503440152849, 27.186304120894818, -6.506672912191631, 5.313983582738742, 13.322624998357513, -19.27485385982789, 10.476325901598145, -14.937114004712257, -8.464032173617092, 22.39650073320705, -0.2899242824304913, 9.860949806266559, -1.0421749264386957, 2.564783721085327, -7.073987509863676, -9.212368511299289, -21.86317323821107, 14.895935874030863, -24.47074539563306, -2.401250170560022, 2.6360450437145304, -1.7779127594282578, -11.608840368998688, -3.612505113776279, -1.6761392084131244, -2.149982753017722, 13.984413484996253, -28.34872371957078, -0.9064910462557296, 25.786230309935906, -12.129033328688616, -10.221225683274849, 0.5503599405879958, 13.286033613878255, -6.144821963411931, -7.4867377457660975, 19.4490916962429, -19.120469339176054, 13.511493857063613, 3.1152176153644553, 14.47678125200538, -4.607695280483285, 10.810249623454649, -17.206196140963904, 6.194401044593857, -4.415074179329168, 11.316029928790298, 14.926307008550342, 19.090484736428298, 1.5491234206328865, -16.20899173057472, 22.33248782495278, 25.83375758837454, 7.168635112021294, -21.274473862795396, 4.158631925022814, 4.1830433816926655, -9.0182380741489, -6.487604017905126, 4.238274514199865, -2.979710270448975, 12.813165227364495, -15.63320356654116, 6.591479671785621, 0.6456610501492973, 9.314807625869445, 19.65727713329261, -5.409052110478426, 2.1677335018356376, -12.740422106263894, 4.448055035149271, 22.03960721710188, 26.227340150448747, 11.632612011167499, 12.073966225865712, -13.478365334740204, 6.391774110081039, 13.148741211432322, 10.106590265913866, 4.582458470353432, -0.4199836288560113, -15.228195368796573, -4.200057551898899, 16.166203593454636, 1.058019745235177, 8.111152151893657, -5.092777054633535, -7.744008401270768, 2.8564396954523934, 13.616533911230949, -4.79962707606724, -1.7741117308830656, 25.087524170965768, 7.333458596970493, 2.378188411146434, 12.857514299838208, -5.295660770218404, -16.737423579755223, 21.772017316895283, -7.679436501537927, 0.34370508235568387, -13.229440822845373, -11.24139678486542, -6.371228403861253, 5.086856845010046, 7.154273105722322, 1.7709908915514192, -11.731373959648579, 14.80253713663788, -0.49562863557177445, -4.704763420131452, 10.177966655853751, 7.288689604578129, -8.664219076424892, -19.71047766199944, 3.3113532431707933, 6.51795597869357, -13.795595366083768, -18.21165974179919, 9.00313570617681, 5.394263008075097, 18.542956330933414, -4.166873020042508, 6.598659491689004, 11.937313811780733, 44.2528688813712, -4.082773050506841, -6.860856707027506, 16.088709548044, 2.7586243938789505, -1.0316477442585825, 14.451812961561773, 5.459098713009516, -18.749769186994115, 0.4625377031097526, 2.7335394963910513, 11.497914854917337, 11.934160624400608, 6.504552149067434, -23.501017596213874, -27.788063728106827, 15.924812081083447, -8.594084630318907, 7.681793461293925, -14.155476780706165, -22.37445283021844, -13.520348058898508, 12.842345032184973, -8.424018179727483, -5.836394654417322, -15.919763655379324, -1.0395590107665575, 5.203754364734163, 9.494087014938438, -1.7297691711754872, -16.21353878771975, 20.62459036282702, 6.932732797260211, 6.433693239596895, 13.712746509900972, 17.34561090104164, 0.48699699126103024, 4.310175186492355, -26.1801821267594, 9.865281299444662, -4.631734726604102, -1.9552259673479369, 24.709896665267916, 6.628614604530941, -10.501442287359751, 20.15077756920996, 28.657214806827906, -6.381187962877784, -8.290738235857523, -8.028406254000986, -2.588573035738709, -11.294574169894648, -16.66429200592382, -8.492349476276791, 10.999258366883492, -11.384581992216882, 2.8046490109308904, 0.15133162949156254, -18.28146292507429, 4.043101459546229, -6.430925267292822, 8.501211200542969, -6.308092986652787, -4.505096260783545, -15.984895937590757, -15.14905499342369, -0.1286930529548974, 3.3162451775948734, 16.493179187109973], [4.995633014819598, 10.581228750015745, 11.237991579286039, -10.372849319651419, 32.01792578384183, 11.890038153901028, -5.622102139130614, -5.921392872083408, -26.012964705536007, -10.615864859918947, 26.299470402933103, 1.1524705157395507, 31.159804794519026, -6.254047534170783, 7.414006963336603, 3.9615635875322663, -15.510766008438914, 8.987919331401054, -15.446218447061415, 6.641691005937602, -4.669170360199492, -8.422478783794341, 7.543824129273336, 0.6241576193412894, -18.512620390550136, -10.512959903672742, 2.4933572606565466, 1.3093730501873415, -2.9039358718667425, 4.705587599209573, 3.774265357341057, -1.9198208127276446, -4.491830043342773, 0.6162515902769174, 16.443773390514085, 0.8978387367021932, 14.66626086295513, -0.2500652225658561, -12.66589518725716, 15.014126889283887, 1.1020816747472002, 9.154399390656062, -5.687166174220416, -24.551918873859282, -8.729906394792309, -13.495432528730387, 7.057513681805552, 8.798891953795781, 8.649030608321073, 5.2741181842918525, 12.420046208050604, -24.861206238342323, -8.609228298696912, -8.51168556428357, -8.181211150538415, -10.104023185737987, -19.918331909769226, -0.45851227866674626, -8.425424613268897, 6.39481667575108, -18.736421228669325, -34.48093439431765, -0.44009428598254174, -9.583630523884072, 3.1715901415789225, -4.984713733234418, 11.802548565916945, -27.79078121694574, 3.8140946227388994, 7.906595504437961, -10.486388530114276, -44.36240120511008, -17.786563669600042, 11.427154379267034, -10.243440699651414, -7.505660760215138, 7.144767316372257, -10.313174757260313, -6.659165236116648, -1.6391101056961226, 19.424406620359548, 16.790314699887873, 19.032578241407958, -9.68501857849546, -21.080430352102557, 10.986759549077137, 10.378279175453077, -1.3529474648560245, 34.445079343390105, -11.779254668025043, -35.971015769821975, -6.14084799804157, 14.925672761300044, 8.717637973606113, 5.096866114626853, 3.9725996033904636, 5.063809557894672, -14.888404646405087, 6.900914214040454, 3.9667315173039985, 3.1786541623979714, 22.522239004098576, -2.1462055970747027, -25.613891045272634, 29.83635537004128, 2.0357464185389453, 1.8924891906751433, -10.585161395224679, -19.62112660079409, 0.5097198676299411, -2.147454240796331, -1.680454296312309, -12.94605055764673, 3.9374152026820584, 15.57697153267393, 7.182290504029001, 8.992167350951213, 11.415290302894002, 15.102679795255007, 3.1515039395192637, -4.240050991938975, 3.6575726447612547, -16.465176032658785, -23.755520825233212, -0.8768261776450995, 8.911326513940281, 1.0207349766481895, -6.546820459481059, 7.002098723563657, -12.35517292303539, 6.018222558986476, -16.293939920298808, -5.392891329818038, 19.372793961975134, -10.542571838188605, 9.062236528724833, 15.508106559979083, -3.6360976967919623, -19.838259497273448, 2.875119331399533, 11.458947183170428, -19.3525063513434, -8.959596254856622, -0.6833467340828661, -6.408972523347781, 10.900494824481296, 2.541329344402573, 4.133504238354824, 12.20451132451819, -18.79043001531272, 8.463381168740476, -8.993065940455203, -17.447601289106597, -7.747376345226718, 7.342268482152134, 10.904656509665102, 7.453768535437347, -1.381687627035904, -5.368977877574509, 1.054490442843421, 8.248432248533597, 26.40227665231712, -6.659104789427662, 5.5457466402389395, 13.785370131037459, -19.428482240979623, 10.359601952795165, -15.296821365502709, -8.464032173617092, 22.342440126359655, -0.24957283770304922, 10.047520741504478, -0.8023313181983613, 3.2704822177691284, -7.65875459456962, -9.212368511299289, -21.86433346336339, 14.4825591636783, -24.238424697696242, -2.837404573873473, 3.141656032567931, -1.7667431597763472, -12.594642350021026, -3.612505113776279, -1.523780029835721, -2.1529114280359507, 14.026092194605466, -28.435281807603566, -0.679413139523458, 25.66868001845856, -11.811608023935854, -10.394478052856144, 0.5503599405879958, 13.098701170288228, -5.893387945860333, -7.169224657304936, 19.56039336062256, -19.51111006799638, 13.141790084933477, 3.3810870340542927, 14.04433166718501, -4.9782361963396, 10.821111974867854, -17.206196140963904, 6.349797450381853, -4.335616642590704, 11.316029928790298, 14.915672973644178, 19.090484736428298, 1.4084271695604738, -16.01172663464386, 22.176856241739813, 25.54443003977842, 8.031498740200329, -20.925996510604687, 3.316269350178196, 4.1830433816926655, -8.820563922896351, -6.46205319490226, 3.3805649779673885, -3.7397958459158582, 12.275465726170204, -15.63320356654116, 6.07536523090699, 0.2566908532376998, 8.608462470286709, 19.318194518897425, -5.400994411574342, 1.1673053792821424, -12.616227853999153, 5.057159593606979, 22.61733511275956, 26.79983963357422, 12.22088693844956, 12.649406547643817, -13.881679194649386, 6.224155558464288, 13.30603472037071, 10.341198787966546, 4.4486433722831284, -0.6469612146051942, -14.776244779990652, -4.2064548689187164, 16.820502372877616, 1.2574172880061234, 7.77513544268697, -5.219426394338969, -8.371810245499175, 3.781878614582178, 14.027221996888349, -4.79962707606724, -2.1272084039337447, 24.46496373573128, 7.0471942689206895, 1.7709713118482386, 12.857514299838208, -5.442398577920022, -16.2197178442541, 21.315884534811087, -7.967691544349305, 0.2705083611246204, -13.362355131805062, -11.3234434926373, -6.228102598392311, 6.427617464937619, 7.043169940493675, 1.7709908915514192, -11.731373959648579, 15.179541290817584, -0.6060898590949511, -4.659332615824073, 10.19112848015426, 8.205034795294257, -8.308902053745271, -19.893563248748734, 3.692425356649847, 6.334978368328332, -13.719421324251888, -18.11599009576808, 8.755382489968042, 5.318563166916469, 18.542956330933414, -4.509458586968946, 6.485586635264446, 11.937313811780733, 44.67766832292063, -4.582785910253537, -6.74457475220953, 16.088709548044, 2.734945938900683, -0.9230056270707621, 15.004705327162913, 4.416087397486829, -18.05971695245715, 0.10607290109891265, 2.7335394963910513, 10.881451561512584, 11.799988150789227, 7.2011108534726835, -23.560640600912055, -27.677064098934924, 15.805451310226244, -8.474600638343817, 7.3503663292639745, -14.10052759467484, -21.535825954833374, -13.406148909108976, 12.32205551852589, -8.128511115131428, -5.088957463408416, -16.295325671815103, -1.0395590107665575, 4.9778318384561135, 9.494087014938438, -1.7297691711754872, -16.508644237418192, 20.85468666090005, 6.932732797260211, 6.345644515128514, 14.245825819684525, 17.34561090104164, 0.710401763402843, 3.153932706682723, -25.84864761753051, 9.375355085153245, -3.868507101676273, -1.6894303402614932, 24.35330677213855, 6.546554796184461, -10.501442287359751, 19.492150724642066, 28.42405123357589, -6.274812692495757, -9.277701564094205, -7.425060248507426, -2.6835412532821947, -11.294574169894648, -16.980421917014205, -8.747134290313559, 10.989808714465212, -11.384581992216882, 2.786396779125906, 0.1995475724115947, -18.45661781622626, 3.7677172046223957, -6.704847454259663, 7.85563552610618, -6.639405781150994, -3.8887065718062797, -16.433267700122823, -14.863016908310218, -0.21557980593418247, 2.6680810029723867, 16.3927202364588], [3.56838150659759, 10.870810525919847, 11.60667031405316, -10.139761354542026, 32.01792578384183, 11.524809394066136, -5.407457564669584, -6.446260742855188, -26.069793045026252, -10.000605203239289, 24.885602651130906, 1.1539914889086778, 30.74805362729216, -6.503466329348818, 7.319281724625027, 3.9615635875322663, -15.38432579935303, 8.987919331401054, -15.72317024428171, 6.932002608933096, -4.8211816029594, -9.249463143188532, 7.911918537806459, 0.5247876457652563, -18.512620390550136, -9.96502496155228, 3.3568007543267346, 1.8086981965762923, -2.882797078052157, 4.7954403202256195, 3.774265357341057, -1.1778687524835068, -4.357355016451658, 0.328993012307049, 16.997555802862564, 0.6643519520181429, 14.329106029622348, -0.2500652225658561, -12.271299157829423, 15.014126889283887, 1.0673064030402024, 8.336144222729814, -5.893790367886047, -23.012901173503757, -8.60298425835499, -13.650623084506963, 7.311072870196935, 8.111664925256585, 8.386835826824612, 5.3888266691195446, 12.711309343352452, -24.865633885744256, -8.304366003383567, -7.959292968047057, -8.85855446755349, -10.133952005503462, -19.91811776294291, -0.45611836464698685, -7.866877428565968, 7.114313111847432, -19.168345096717946, -33.55244030301664, -0.44009428598254174, -9.583630523884072, 3.1715901415789225, -5.436650384537155, 10.79174917039838, -27.900717529544163, 4.283348239142039, 7.906595504437961, -10.486388530114276, -44.60230595367667, -17.786563669600042, 11.477387744875136, -9.936263973896816, -6.519745642440594, 7.65822456680532, -10.384723947016308, -6.635149754474526, -1.3569750855533593, 19.424406620359548, 16.42512200405843, 19.380734367784576, -9.752775652457128, -21.34979496678986, 11.045821620123563, 10.589712996595448, -1.0287968410390869, 34.167422756942614, -11.379650536869528, -36.45329077518516, -6.616521253792158, 14.718045198926688, 8.256224006967694, 5.097111831455351, 4.346330331664237, 5.063809557894672, -14.814515058919804, 6.900914214040454, 4.180677840611998, 3.292633667599743, 21.32649191802013, -1.7224114334662097, -26.205952019095516, 29.5291640619513, 2.0357464185389453, 1.9245441220653041, -10.053041889105904, -19.62112660079409, 0.6925932939004632, -2.624048051701384, -2.242319351858837, -12.708460261614757, 3.91246883255794, 14.880821074271376, 6.93549558441098, 9.10318172830285, 10.049222297018892, 15.102679795255007, 3.041738560128051, -4.916319312245419, 3.373767701086412, -16.278057027141827, -23.5713527591248, -0.5839828418418775, 9.269862787596129, 1.0207349766481895, -6.466500620908825, 7.531763374938142, -12.35517292303539, 5.987438743465816, -16.293939920298808, -6.633515584858159, 19.715644443013158, -10.485178904256538, 8.640298896861777, 15.508106559979083, -3.6256100656500165, -18.069819879219164, 2.875119331399533, 11.42732659272566, -19.3525063513434, -8.86502680159092, -0.16988261274099278, -6.983701935147944, 10.64846897644608, 2.691467252563854, 4.222783721857196, 12.598240210223683, -18.76212443095279, 7.936494452380581, -8.155445391349376, -17.66429945892197, -7.747376345226718, 7.342268482152134, 11.65376589140657, 7.335055446087258, -1.381687627035904, -5.544227091099355, 1.211837235570656, 7.9614343396001015, 26.602570827848652, -6.447578189083676, 4.867455803204255, 13.982538731512674, -19.428482240979623, 10.272987460849972, -15.293513815096277, -8.464032173617092, 22.342440126359655, -0.2899242824304913, 10.01188909271324, -0.6714571498076799, 2.6422791432444237, -7.073987509863676, -9.090362705229136, -21.634318391378358, 14.920836615000715, -24.252015514345587, -2.401250170560022, 2.8121848981411617, -1.4190487077995864, -11.608840368998688, -3.648639719820434, -1.6761392084131244, -2.149982753017722, 14.026092194605466, -28.252558764716074, -0.3325478566332926, 25.5706225669532, -12.129033328688616, -10.162633914207609, 0.7796245414332541, 12.961968394143248, -6.077416422609298, -7.4867377457660975, 19.819450789918324, -19.070392387505276, 13.334091315807191, 3.538456777798987, 13.94720693348478, -5.194303720658749, 11.389548977534393, -17.439905329991838, 6.487096021648073, -4.335616642590704, 11.316029928790298, 14.935730001243147, 18.636691475171755, 0.09292333215322007, -15.728566644570478, 22.214552494522433, 25.529053131853697, 7.890534522180667, -21.08573411238474, 4.173594168515541, 4.151715904880217, -8.904271762813092, -6.173527654783722, 3.885624116022455, -3.3745784172080557, 13.317997479355984, -15.418288232098492, 5.659027761956523, 0.28719150339853644, 8.624982121795238, 19.4633447573715, -5.9222824576072055, 1.1673053792821424, -12.435777264524557, 4.137180110457134, 22.463055969145785, 26.824940197803365, 11.729467754847503, 12.649406547643817, -13.478365334740204, 6.164483100232008, 12.943622877424364, 10.029898825142263, 4.493409374369351, -0.3659914607441235, -16.41477381805031, -4.2064548689187164, 17.001950131420735, 1.058019745235177, 7.77513544268697, -4.824786693762462, -7.744008401270768, 3.47993737801683, 14.043486577305028, -4.563777815677261, -1.6183932265830436, 25.160629366565384, 6.893328813035859, 1.7709713118482386, 13.601369357932494, -5.139803260016169, -16.569380275027406, 21.099648939971225, -7.776441220652795, 0.34370508235568387, -13.220650219397788, -11.968374034246605, -6.104789087398043, 6.2224230015239845, 6.811313226424465, 1.7709908915514192, -11.731373959648579, 15.440513907573509, -1.0498136836844227, -4.704763420131452, 10.220440902455552, 8.013738850977395, -9.220398057552874, -19.590218254062297, 3.285526543952462, 6.229659365271413, -13.795595366083768, -18.11599009576808, 8.755382489968042, 5.701238290222949, 18.32783845238294, -4.28367719031413, 7.028420172228759, 11.679897794882933, 44.26351911830087, -3.6369629679363285, -6.860856707027506, 16.088709548044, 2.798682990972836, -1.0316477442585825, 14.73937873821439, 4.601193748167211, -18.42903416170066, 0.4625377031097526, 3.0581632929728917, 11.083504398378075, 11.799988150789227, 6.736047360110959, -24.006188291281788, -28.297363392433247, 15.569569517730487, -8.594084630318907, 7.956472392681966, -14.043284218760338, -22.377581461927715, -13.609658097127204, 12.417982544331434, -8.197332619571975, -5.836394654417322, -15.933793466925218, -0.9785426459554145, 5.310992651095072, 9.494087014938438, -1.7297691711754872, -16.23865455673321, 20.03401674791338, 6.474927725314383, 6.433693239596895, 14.18446048346276, 17.289106649906934, 0.710401763402843, 3.7804168021596536, -25.683088839382627, 10.068094041936522, -4.796956237298133, -1.7168343312262835, 23.566872362136614, 6.838031436946507, -10.501442287359751, 20.15077756920996, 28.657214806827906, -6.168691670101963, -8.243756555796079, -7.79177284154612, -2.6835412532821947, -11.85588990584646, -16.66429200592382, -8.747134290313559, 10.989808714465212, -11.350676892867417, 2.825833275676429, 0.15133162949156254, -18.55103497526666, 4.065484939133338, -6.430925267292822, 8.745955653537237, -6.308092986652787, -3.8887065718062797, -16.26880827675256, -15.551915296246326, 0.023687959889659077, 2.704719439629844, 16.721016270161098], [4.995633014819598, 10.380228827544432, 11.237991579286039, -10.372849319651419, 32.256618471469004, 12.211407837253217, -5.739031798814896, -6.446260742855188, -26.00673844749313, -10.48377081084567, 24.779708092803382, 1.1524705157395507, 31.159804794519026, -5.836311037041234, 7.445606308616515, 3.9233000023465223, -15.43406677928376, 8.865211164799174, -15.72317024428171, 6.987494682579502, -4.7840121433660485, -9.101438442071606, 7.911918537806459, 0.664597218773377, -18.14897548859843, -9.809504103369498, 2.4933572606565466, 1.3093730501873415, -2.801929578715981, 4.705587599209573, 3.774265357341057, -1.4268227720040203, -4.912765113120653, 0.41844859884837327, 16.972176152171986, 0.5151474163352926, 14.54530076076159, -0.2500652225658561, -12.984064250201456, 15.30456731510804, 1.1020816747472002, 8.336144222729814, -5.687166174220416, -22.955318815318588, -8.478471016991033, -14.779818819803184, 7.057513681805552, 8.390682873441794, 8.182132449242149, 5.2741181842918525, 12.50736429606729, -24.804319086564835, -8.205336241893713, -7.433644617306368, -8.737456807179104, -9.985626298942469, -19.37213948640913, -0.5530354639193716, -7.866877428565968, 7.069272675381415, -19.47415885099825, -34.44957782977779, -0.6094435273919528, -9.756337424997419, 3.0068333161151934, -5.5700127989964985, 11.802548565916945, -28.16259637629014, 4.1266565798963, 7.178668941634911, -10.926518205163806, -44.4688288153969, -18.21021438258975, 11.578664020752713, -9.985603141417764, -7.913443666744029, 7.43295738797694, -10.475645752013191, -6.821803037229518, -1.3569750855533593, 19.37741929396447, 17.39979729629978, 20.083277977557458, -9.68501857849546, -21.479382386759557, 11.137403048593644, 10.589712996595448, -0.850181213824622, 33.81448058435659, -11.910764903211874, -36.31755795461527, -6.57882655721118, 14.778431781956215, 8.982885193342726, 4.831457682413556, 3.536905818199076, 5.063809557894672, -14.662705316413545, 6.900914214040454, 4.154228435422735, 3.756723800062955, 21.564620501754987, -2.1034429960910073, -25.3155764712487, 29.5291640619513, 1.5794583420245045, 1.716518921095419, -10.529319382967305, -20.081680724419243, 0.5097198676299411, -2.139865199373773, -1.3657426766510974, -12.483461019858307, 3.6974449216409337, 15.244679681857498, 6.93549558441098, 9.10318172830285, 11.159302233193864, 14.669098353033732, 3.2454356055107403, -4.241809405757411, 3.6575726447612547, -16.64880376348293, -23.5713527591248, -0.8768261776450995, 9.42696968493706, 1.1677396613046527, -6.2797242449626225, 7.002098723563657, -12.35517292303539, 5.874759937930461, -16.261844077606302, -5.508121520499062, 19.3837386697222, -10.164845161250929, 8.640298896861777, 16.720955286988058, -3.3360847882209943, -19.68365947516655, 2.7077044548684945, 11.181116214748231, -19.38615687879842, -8.86502680159092, -0.14531195510870207, -6.983701935147944, 10.005901393033856, 2.650154274116033, 5.006999624719184, 12.441322098289428, -18.90726051796057, 8.26449626121365, -7.8435139741352, -17.07880342528263, -7.8236385415447245, 7.342268482152134, 11.016298108770723, 7.453768535437347, -1.4560684550992495, -5.198886002555691, 1.054490442843421, 7.955377303578965, 26.716753858535856, -6.852644774354166, 5.557994569138501, 13.785370131037459, -18.998913025461462, 10.359601952795165, -15.145169873755448, -9.030838525961533, 22.39650073320705, -0.6213866273816332, 9.860949806266559, -0.7966083354978397, 3.1758331542715226, -7.36622165920164, -8.697836793143148, -21.229447540407218, 14.433830633415754, -24.522572090072572, -2.9912131704081464, 2.6562563171032507, -1.4190487077995864, -12.22813262282622, -3.893750256766623, -1.6227116521415164, -1.7807511189934813, 14.251042737703006, -28.821420473973646, -0.3325478566332926, 25.13564413778453, -12.129033328688616, -9.54067908452914, 0.7796245414332541, 13.403048729891855, -5.893387945860333, -7.816505492868009, 19.56039336062256, -18.972351257622513, 13.141790084933477, 3.6198700957851386, 14.512578687473866, -5.094685748270847, 11.082081186788482, -17.998146161865254, 6.349797450381853, -4.415074179329168, 11.316029928790298, 14.926307008550342, 19.056372532781754, -0.1330769761329207, -15.685009800474017, 22.14116038357311, 25.70957012947455, 7.718880259854784, -21.274473862795396, 4.841949045891536, 4.1830433816926655, -8.706217751642066, -6.487604017905126, 3.4598269443004077, -2.7651426600575153, 12.66458323952387, -15.63320356654116, 5.896374024720177, -0.055751843981322144, 9.119472441673867, 19.46622979302382, -5.409052110478426, 1.3232607258314129, -12.740422106263894, 4.137180110457134, 22.413055026557224, 27.227077743666275, 11.656286094972815, 12.813853135378581, -13.478365334740204, 6.391774110081039, 13.423324430786037, 10.827759966498665, 4.582458470353432, -0.4622358690359274, -16.889814199930395, -3.939229608611443, 16.67724297989369, 1.058019745235177, 8.111152151893657, -5.219426394338969, -8.716339932485981, 4.000204002480565, 13.720779434042477, -5.181889944030541, -2.14310298568139, 25.201924928239862, 6.844474391915452, 2.079873078553641, 12.857514299838208, -5.5742773106005385, -16.292173960975852, 21.315884534811087, -7.960202318115475, -0.15563291154778303, -12.534991869632767, -11.976238938278541, -6.104789087398043, 5.254920908336363, 6.757223972177856, 1.6339498943307682, -11.751728831431112, 15.229184390816043, -1.2448313807062197, -6.4831575424738555, 9.373637058801265, 7.879741211293682, -8.165634321782813, -19.893563248748734, 3.289347204155993, 6.229659365271413, -13.640953058203934, -18.11599009576808, 8.222884068826259, 5.895867390957371, 18.557426740119606, -4.481728406638192, 6.3308195724241045, 11.937313811780733, 44.67103995491436, -4.450207799317619, -6.660767953614268, 15.745263277760516, 2.7586243938789505, -2.0650234257929028, 15.004705327162913, 4.601193748167211, -18.57379796223089, 0.10339611474571608, 2.946514413993847, 11.325952262084733, 11.992478602278707, 6.44265955208068, -22.674439424220875, -27.346126918575937, 15.472293239922182, -8.174885712029043, 7.98110178497461, -14.31316172840116, -22.22141941294841, -13.636971761793992, 12.842345032184973, -8.128511115131428, -4.326977212849945, -15.459193200753319, -1.0395590107665575, 5.655904877980362, 9.528011375970886, -1.9634832014138028, -16.21353878771975, 20.223894352919096, 6.728842524351264, 6.433693239596895, 14.245825819684525, 17.274845985566117, 0.19784683315105395, 4.150298311343995, -25.77700469935816, 9.671409980341117, -3.6854889977502445, -2.3315967678413343, 23.382621669463905, 6.990368745082005, -10.102208324818568, 20.15077756920996, 28.985984541508543, -6.0404095487689, -8.441607592987916, -7.3194126562925526, -2.9148350994682852, -11.21234545541793, -16.66429200592382, -9.017723383298769, 10.62309618631528, -11.384581992216882, 3.067959476721747, 0.616332596303967, -18.238634476811267, 4.065484939133338, -6.216756706337561, 8.501211200542969, -6.296185134094133, -4.034817812404831, -16.26880827675256, -15.551915296246326, -0.21557980593418247, 2.6680810029723867, 16.52227293325197], [3.8076405544301544, 10.581228750015745, 11.237991579286039, -10.415998703299966, 31.74607351873868, 11.524809394066136, -5.444400899924401, -6.399935616444305, -26.227540259204225, -10.48377081084567, 26.406070425382726, 1.5297566113726284, 30.985105901491544, -5.8572639145565635, 7.898922780296436, 3.0487073347708993, -15.341661995348078, 8.987919331401054, -15.039282377388252, 7.4239340803257265, -4.8211816029594, -8.122580502949845, 7.783900985877191, 1.0039538444385525, -18.170584762298166, -10.446775175052116, 3.286753593829121, 1.6449285256818258, -2.2736380049962825, 4.913682174999189, 3.7505553116840606, -1.558028438664843, -4.594990650137719, 1.1459200275383314, 16.972176152171986, 0.6643519520181429, 14.677473204558154, -0.338862974970588, -12.193502185235, 15.014126889283887, 1.257264368569732, 8.619376720121615, -5.893790367886047, -24.551918873859282, -7.850810313019742, -13.650623084506963, 7.500454491047802, 8.091090531795786, 